{"lstm.weight_ih_l0": [[-3.3148404327221215e-05], [0.010523008182644844], [0.0014501551631838083], [0.004865719936788082], [5.906598744331859e-05], [0.0021582255139946938], [0.00020949733152519912], [0.0012767285807058215], [0.00412262137979269], [0.0007402692572213709], [0.0009533567354083061], [-0.0016039472538977861], [2.685201707208762e-06], [9.631543071009219e-05], [0.00019146263366565108], [0.0008331353310495615], [0.006678600329905748], [0.009939923882484436], [0.001569224870763719], [0.0026470478624105453], [0.000566114904358983], [0.0011218456784263253], [-0.0001547288557048887], [0.00010204546560999006], [0.0011540706036612391], [0.024981215596199036], [-6.282416870817542e-05], [-5.850936213391833e-05], [0.00022922286007087678], [0.0005633115069940686], [0.0004821703187189996], [-0.0013382721226662397], [-0.0005465287249535322], [0.0030934028327465057], [0.408682256937027], [0.01340382918715477], [0.0009979724418371916], [0.0007335412665270269], [-0.00013555583427660167], [0.0008161732112057507], [0.001843141159042716], [0.0002962152357213199], [6.430635403376073e-05], [0.0005245122592896223], [0.0010117145720869303], [0.0001225233863806352], [0.011925311759114265], [1.8846789316739887e-05], [8.174050094567065e-07], [-0.009524875320494175], [-0.0002556057879701257], [-3.8626974856015295e-05], [0.006529152859002352], [0.000657870783470571], [-2.6280989914084785e-05], [0.003838092554360628], [-0.0010392621625214815], [-0.010113617405295372], [-5.9219804825261235e-05], [0.0023051113821566105], [0.0043155294843018055], [-9.069631778402254e-05], [7.429123797919601e-05], [2.2751653887098655e-05], [-0.02014068141579628], [6.3546276578563266e-06], [0.004372111521661282], [-6.1319078668020666e-06], [0.002706914208829403], [0.004885269328951836], [0.0008306665113195777], [0.02244199626147747], [0.0017603379674255848], [0.031597498804330826], [0.003978906664997339], [-0.0004044990928377956], [0.0007023046491667628], [0.000486819539219141], [0.003970634192228317], [-0.0003507305809762329], [0.0004888434195891023], [-2.4470828066114336e-05], [-0.00014415779151022434], [0.0033724915701895952], [1.8415981912767165e-06], [-0.0008845127304084599], [0.0033067178446799517], [-0.00022934755543246865], [0.00016628035518806428], [0.0003117048181593418], [0.004241682589054108], [-0.0041420054621994495], [0.00280447443947196], [-0.008608333766460419], [0.004305253271013498], [0.013013049960136414], [-3.339798058732413e-05], [0.010343179106712341], [0.0015607909299433231], [0.004776271991431713], [0.00010255222150590271], [0.00212827417999506], [0.0002350377180846408], [0.0014472584007307887], [0.004811844788491726], [0.0008447039872407913], [0.0010272146901115775], [-0.0011189487995579839], [3.780222868954297e-06], [0.00011787236871896312], [0.0005603137542493641], [0.0008954827790148556], [0.006941783241927624], [0.009882171638309956], [0.0016422377666458488], [0.0030544816982001066], [0.001329850172623992], [0.001098344917409122], [-3.7898149457760155e-05], [9.958403097698465e-05], [0.0014624864561483264], [0.025031212717294693], [-5.787455665995367e-05], [-6.123114144429564e-05], [0.0003014407120645046], [0.0008203673642128706], [0.0005853654001839459], [-0.0005154712707735598], [-0.0005927409511059523], [0.0033309110440313816], [1.8499094247817993], [0.01345892995595932], [0.0010348191717639565], [0.0007427188102155924], [-2.8734502848237753e-06], [0.0008705875370651484], [0.001968911150470376], [0.00031275267247110605], [0.00010619801469147205], [0.0005710871773771942], [0.001320568611845374], [0.00025185022968798876], [0.012774770148098469], [3.832884249277413e-05], [8.315071795550466e-07], [-0.008582498878240585], [-0.0002732104912865907], [-3.9505433960584924e-05], [0.006886320188641548], [0.0005500172846950591], [-2.6705534764914773e-05], [0.004380194004625082], [-0.0007427936652675271], [-0.008700591512024403], [-2.8774389647878706e-05], [0.002415963914245367], [0.004597992170602083], [-8.512791828252375e-05], [8.47226328914985e-05], [2.853888872778043e-05], [-0.01649349369108677], [4.2093510273844004e-05], [0.004612007178366184], [-7.542934326920658e-06], [0.002873157151043415], [0.006640472915023565], [0.0010663869325071573], [0.022417373955249786], [0.0017037331126630306], [0.03279045224189758], [0.004490569233894348], [-0.00028481948538683355], [0.0007131039164960384], [0.00046360460692085326], [0.004232416395097971], [-0.0002182795578846708], [0.0009260448860004544], [-2.445816971885506e-05], [-0.0001692476507741958], [0.003357291454449296], [2.0916211269650375e-06], [-0.0008354962337762117], [0.0033576914574950933], [0.00047043326776474714], [0.0002703677455428988], [0.00031389991636388004], [0.004409142769873142], [-0.0028906171210110188], [0.003001963021233678], [-0.008004006929695606], [0.004144568461924791], [0.01236367505043745], [-0.002123830374330282], [0.03448014706373215], [0.006716780364513397], [-0.013514745980501175], [-0.006151383742690086], [-0.0013626101426780224], [-0.011671806685626507], [0.024057000875473022], [-0.008289126679301262], [-0.01696881465613842], [-0.00941698718816042], [-0.09442350268363953], [-0.005140441469848156], [-0.0053941914811730385], [-0.010121794417500496], [-0.01483225915580988], [-0.037679657340049744], [-0.02254086174070835], [-0.008242545649409294], [0.01719999499619007], [0.0041210646741092205], [-0.0059346845373511314], [0.033013347536325455], [0.004980075638741255], [-0.027577320113778114], [-0.038023896515369415], [0.0006438482669182122], [0.006983892060816288], [-0.010868941433727741], [-0.05736684426665306], [-0.02212516963481903], [-0.10898400843143463], [0.01767606846988201], [0.03442538529634476], [1.0721906423568726], [-0.02380763366818428], [0.017141999676823616], [-0.015497067011892796], [0.015006406232714653], [0.0253165140748024], [-0.0021418998949229717], [0.010933569632470608], [0.033934585750103], [0.01967466250061989], [0.007860991172492504], [-0.025988386943936348], [0.03722737729549408], [0.007776559330523014], [-0.0033101981971412897], [0.12467674165964127], [0.016266221180558205], [0.0039732372388243675], [0.02190794236958027], [0.003423556685447693], [-0.0011954328510910273], [0.02846134640276432], [0.023065585643053055], [0.11803299933671951], [0.022865451872348785], [0.03616862744092941], [0.015828222036361694], [0.007406090851873159], [0.014834025874733925], [-0.011736143380403519], [-0.22689411044120789], [0.011077960953116417], [-0.008579360321164131], [0.0042126355692744255], [-0.013376950286328793], [-0.013327437452971935], [0.011910658329725266], [-0.043073587119579315], [0.0058641592040658], [0.05283148214221001], [0.01695161871612072], [0.0075179096311330795], [0.006869759410619736], [-0.01192697137594223], [0.002305765636265278], [0.06647325307130814], [0.010648068971931934], [-0.004952991846948862], [0.008569896221160889], [-0.01841331645846367], [-0.0022941953502595425], [-0.03354117274284363], [0.012580920942127705], [0.0170642901211977], [-0.054379597306251526], [0.008259350433945656], [0.01641744188964367], [-0.12716102600097656], [-0.009825297631323338], [0.1066819429397583], [0.007107291836291552], [-0.027916882187128067], [-3.457284765318036e-05], [0.010047145187854767], [0.0017037809593603015], [0.004802731331437826], [-1.1236772479605861e-05], [0.002418678719550371], [0.00023670122027397156], [0.0013008681125938892], [0.005224338732659817], [0.0010935377795249224], [0.0009832378709688783], [-0.0014333417639136314], [3.3992739645327674e-06], [7.961876690387726e-05], [0.00012759948731400073], [0.0008038702653720975], [0.006052124779671431], [0.00936489924788475], [0.001725553534924984], [0.0034054373390972614], [0.0009216999751515687], [0.0010756449773907661], [-0.00014526033191941679], [4.1365172364749014e-05], [0.0010393066331744194], [0.025004426017403603], [-7.162000110838562e-05], [-5.5503380281152204e-05], [0.00032240909058600664], [0.0007474402664229274], [0.0008231061510741711], [-0.0009206096874549985], [-0.0006260891095735133], [0.0028758139815181494], [1.2147542238235474], [0.013711171224713326], [0.0009619983611628413], [0.00011850445298478007], [-8.820641960483044e-05], [0.0008505959995090961], [0.0017871457384899259], [0.0003077661385759711], [0.00011697818263201043], [0.0004828391829505563], [0.0011393181048333645], [0.00013294066593516618], [0.010998735204339027], [2.2074491425883025e-05], [3.8222839293666766e-07], [-0.010097852908074856], [-0.0002732470165938139], [-3.955757711082697e-05], [0.007050846703350544], [0.000505602452903986], [-2.793828389258124e-05], [0.003422571811825037], [-0.0009767679730430245], [-0.010173482820391655], [-4.8950423661153764e-05], [0.0016430796822533011], [0.004150457214564085], [-9.673181921243668e-05], [3.949409438064322e-05], [2.9467424610629678e-05], [-0.018547410145401955], [9.106110155698843e-06], [0.004532366991043091], [-1.1723641364369541e-06], [0.0024306271225214005], [0.0070054177194833755], [0.0007145821000449359], [0.021257398650050163], [0.00180528883356601], [0.03205692023038864], [0.004915545228868723], [-0.0005414006882347167], [0.0006140618352219462], [0.0006848785560578108], [0.004496063571423292], [-0.0002268159732921049], [0.0007670962950214744], [-2.348386260564439e-05], [-0.00015529875236097723], [0.0041138106025755405], [2.458320977893891e-06], [-0.0008437231299467385], [0.0030766825657337904], [-0.00045802415115758777], [0.0002694764407351613], [0.0002860735112335533], [0.004397369921207428], [-0.003707854775711894], [0.0033029327169060707], [-0.009001952596008778], [0.004637364763766527], [0.013060876168310642]], "lstm.weight_hh_l0": [[-3.0148012797326373e-07, 1.0435261543761953e-07, 2.6566090127744246e-06, 5.687430189027509e-07, -5.57298903913761e-07, -2.993410816998221e-06, -7.55583585032582e-07, 7.77815898800327e-07, -3.9509363887191284e-06, -4.506548521021614e-06, -3.702740229982737e-07, -1.4548189142260526e-07, -9.09357993350568e-08, -7.061321980472712e-07, 3.336579084134428e-06, -9.797956863621948e-07, -1.2934813184983796e-06, -1.1215049653401366e-06, 2.503362566130818e-06, 4.698314569395734e-06, 5.778401373390807e-06, 6.998800472501898e-08, 4.661938817207556e-07, 8.754392410992295e-07, -4.535310836217832e-06, 8.119703807096812e-07, 4.5983355789758207e-07, 9.56595044954156e-07, -1.5696888340244186e-06, -1.7709090798234683e-06, -2.65421863332449e-06, -7.806617077221745e-07, 2.1314588138920953e-07, 2.1024775378464255e-06, -5.388092904468067e-05, 2.450221927574603e-06, 1.2826750435124268e-06, -2.576757196948165e-06, 3.3803776204877067e-06, 6.596128514502198e-07, -6.491574822575785e-06, 7.376545454462757e-07, 3.7291982835085946e-07, 1.1399318964322447e-06, 3.1376341667055385e-06, -3.1811663347980357e-07, 7.091720135576907e-07, 3.76781258637493e-07, 2.9144484159360218e-08, -1.5798580079717794e-06, 1.4717739986735978e-06, 6.102319503042963e-07, -1.425238451702171e-06, 2.2651040580967674e-06, -3.8863205986672256e-07, 2.1498599380720407e-06, 1.661655346651969e-06, -1.5535091506535537e-06, 7.977464022701497e-09, 4.6575182750530075e-06, -4.834325864067068e-07, -2.0034333658713877e-07, 1.1225308753637364e-06, -1.9701367648394807e-07, 7.544751952082152e-07, 2.1763344193459488e-07, 1.3881331142329145e-06, 9.773569900062284e-07, -7.467702971553081e-07, -7.70189581089653e-06, 2.43657098053518e-07, -3.0133583095448557e-07, -1.219360342474829e-06, -1.5628927485522581e-06, 5.750917352997931e-06, 2.3333343506237725e-06, 7.102674430825573e-07, -2.089687995976419e-06, -3.5746293178817723e-06, 3.4777320934153977e-07, -8.485979492434126e-07, -6.069294613553211e-07, 1.253522015076669e-07, -3.844636466965312e-06, -1.088245369373908e-07, -4.90846673528722e-07, 7.567688271592488e-07, 3.8231946746236645e-06, -9.65723984336364e-07, 5.843784265380236e-07, -5.35684330316144e-06, 1.24571641890725e-07, -4.182435986876953e-06, -1.4195994708643411e-06, -2.5620258838898735e-06, 1.913725554913981e-06], [-1.3901030797569547e-06, 0.00020157071412540972, -0.00017083343118429184, -0.00023527622397523373, 6.239979938982287e-06, 8.380315557587892e-05, -9.277891876990907e-07, -1.7813898011809215e-05, 0.00014118084800429642, 0.00018086892669089139, -5.6089123972924426e-05, -0.00014529364125337452, -4.1063103708438575e-06, -1.811102993087843e-05, -0.0004122340469621122, 2.1937876226729713e-05, -0.00019461258489172906, -0.0002979538985528052, -0.0001741295272950083, -0.00017400612705387175, -0.00015774823259562254, -7.231121708173305e-05, 2.92522363452008e-05, -6.686238975817105e-07, -1.896193680295255e-05, -0.0007238145917654037, 6.96416918799514e-07, -1.5094550690264441e-05, 1.7879665392683819e-06, -7.926813850644976e-05, 3.414648017496802e-05, -0.00022574748436454684, 9.685023542260751e-05, 0.00033910878119058907, 0.0027888810727745295, -0.0005783821106888354, -1.681441608525347e-05, 2.553191370679997e-05, -0.00012106704525649548, -9.15583768801298e-08, 0.0002512652426958084, 1.1418555914133321e-06, 2.300099549756851e-05, 0.000194562686374411, -0.0001232410140801221, -0.00035006870166398585, 0.00031614251201972365, -2.5492381610092707e-06, -1.0498175470274873e-05, 0.00036118910065852106, 2.8360354917822406e-05, 5.323311143001774e-07, 0.00021861576533410698, -0.00013190862955525517, 2.2364768028637627e-06, 0.0003155238227918744, 0.00010504907550057396, 0.00023562491696793586, 4.073826130479574e-05, 0.00012418271217029542, 0.0002556661784183234, 1.3710704479308333e-05, 1.2051121302647516e-05, -4.41951760876691e-06, -0.0007021882920525968, 3.4266871807631105e-05, -0.0001821206242311746, -1.835813236539252e-05, -0.0001616697700228542, 0.00047377002192661166, 8.322096255142242e-05, -0.00034847159986384213, 0.0001734013931127265, 0.0006179642514325678, -0.00012738585064653307, -0.00016872193373274058, 5.810676884721033e-05, 7.766187627566978e-05, 0.0003768991446122527, 4.3731775804189965e-05, 0.00023769472318235785, 8.866198868417996e-07, 1.8061462469631806e-05, 7.7334902016446e-05, 1.1005406577169197e-06, -0.00014639926666859537, 0.0001478533522458747, -8.535389497410506e-07, -6.998783646849915e-05, -4.776749847223982e-06, 0.00037203182000666857, -0.00020776581368409097, 0.0001106412018998526, 0.00016006783698685467, 0.0004583247355185449, -0.00020594237139448524], [-7.091984571161447e-06, 0.00014747180102858692, 5.858459553564899e-05, -0.00010746828775154427, 8.327147952513769e-05, 0.0001607900921953842, 7.35088178771548e-07, -7.193135388661176e-05, 0.0002770097635220736, 0.0002811218146234751, -3.149316398776136e-05, 4.7423010983038694e-05, 3.122326234006323e-06, 2.8013910196023062e-05, -0.0001209796464536339, -8.724837243789807e-07, -5.963389412499964e-05, -7.064569217618555e-06, 3.03205888485536e-06, -0.0003507845103740692, -7.207976887002587e-05, -2.3223572497954592e-05, -0.00011443367111496627, -4.175252979621291e-05, 4.67670543002896e-05, -0.00026047200663015246, 1.119818989536725e-05, 5.1214065024396405e-06, -4.382640327094123e-06, 2.9453407478285953e-05, 0.00023735821014270186, 3.728410229086876e-05, 7.760905282339081e-05, -3.783388820011169e-05, 0.0018557605799287558, -0.00011619356519076973, 1.0715815733419731e-05, 5.435455386759713e-05, -6.632607983192429e-05, -3.1641106033930555e-05, 7.096215995261446e-06, -2.876994949474465e-05, -3.1189629225991666e-05, -2.745593519648537e-05, -0.00031681591644883156, -7.259321864694357e-05, -2.5413373805349693e-06, -1.47354876389727e-05, -1.005832814371388e-06, -2.8669401217484847e-06, 5.0055779865942895e-05, 6.952769126655767e-06, 0.00037791579961776733, -0.00015972201072145253, -5.493548997037578e-06, -5.484567736857571e-05, 6.933874828973785e-05, 9.611818313715048e-06, -1.2579263966472354e-05, -0.00019565713591873646, 5.568540655076504e-05, -1.5107294530025683e-05, -4.76001514471136e-06, 1.2430780770955607e-05, 3.0095921829342842e-05, -4.99298439535778e-05, -0.0001642533316044137, 2.3304473870666698e-06, -5.83183600610937e-06, 6.926472997292876e-05, -3.918851143680513e-05, -0.00015129585517570376, 3.98166521335952e-05, 0.0004787885118275881, -0.00024171455879695714, -0.0001547603460494429, 1.6241347111645155e-05, 0.00015909720968920738, 0.00018328581063542515, -4.989532317267731e-05, 0.0001358057197649032, -3.078848294535419e-06, -4.494439053814858e-05, 8.261324546765536e-05, 1.0060794011224061e-06, 2.782076808216516e-05, -1.0937254046439193e-05, -0.0001332130195805803, 3.8446996768470854e-05, -1.469045764679322e-05, 0.00012153317948104814, 3.2408159313490614e-05, 0.0001288830244448036, 3.376924723852426e-05, 0.00028488016687333584, -0.0001381676847813651], [-1.020281032992898e-07, 0.00015903542225714773, -0.00014972958888392895, -0.0001001904092845507, 1.9306633475935087e-05, 8.689879177836701e-05, 1.928015535668237e-06, -2.831863093888387e-05, 9.760987450135872e-05, 4.636860830942169e-05, -3.0130380764603615e-05, -8.993224037112668e-05, -7.117855602700729e-07, -5.358888301998377e-06, -0.00011737554450519383, 1.3232309356681071e-05, -0.00014860706869512796, -9.184410009765998e-05, -8.687572699273005e-05, -4.2313193262089044e-05, -0.00021010007185395807, -4.134985647397116e-05, 3.218133770133136e-06, -5.1635917770909145e-05, 5.8729139709612355e-05, -0.00022611241729464382, -9.468268444834393e-07, -8.823144526104443e-06, 8.557200999348424e-06, -3.4394990507280454e-05, 8.304539369419217e-05, -6.722521357005462e-05, 6.0589714848902076e-05, 0.00011538514081621543, 0.003020644187927246, -0.00021714753529522568, -5.901011263631517e-06, 3.9769332943251356e-05, -2.2538937628269196e-05, -2.8039767130394466e-06, 0.00028511593700386584, -3.0918934044166235e-06, 1.6705222151358612e-05, 5.5470278311986476e-05, -0.00011334037844790146, -0.00011410103616071865, 0.00014338924665935338, -2.2038580937078223e-05, -1.0285368261975236e-05, 0.00020315349684096873, 6.83784583088709e-06, -6.583390131709166e-06, 6.36344775557518e-05, -0.00010369248047936708, 3.5742068575927988e-06, 8.175425318768248e-05, 3.409848432056606e-05, 0.0001916980982059613, 1.9565843103919178e-05, 3.2965934224193916e-05, 5.812816380057484e-05, 5.7581278269935865e-06, 3.5761879644269357e-06, -4.523919415078126e-06, -0.00024382244737353176, 9.664274330134504e-06, -0.0002649565285537392, -1.068947858584579e-05, -6.92469475325197e-05, 0.00013779313303530216, 9.303824299422558e-06, -0.00025120770442299545, 0.00013238121755421162, 0.0002550453064031899, -9.017420234158635e-05, -7.546209235442802e-05, 1.1033142072847113e-05, 4.670082125812769e-05, 0.00013052477152086794, 2.7629988835542463e-05, 7.755793922115117e-05, 8.207963219319936e-06, 7.641163392690942e-06, 1.1709450518537778e-05, 2.0686036350525683e-07, -0.00011404641554690897, 3.593470682972111e-05, -2.982190744660329e-05, -1.687998155830428e-05, -6.340520485537127e-06, 0.00041172580677084625, -0.0001412488636560738, 0.00017383534577675164, 0.00013138214126229286, 0.0001477689074818045, -0.00017526804003864527], [-8.079678082140163e-06, 1.7258920706808567e-05, 6.771195330657065e-05, 1.8886141333496198e-05, -4.668714609579183e-05, -8.972929208539426e-05, -4.112140231882222e-05, 0.00010094586468767375, -0.00013951443543192, -0.00018699310021474957, -1.5689533938711975e-06, -2.5570447178324685e-05, -1.774708380253287e-06, -3.471157106105238e-05, 0.00013302132720127702, -6.748063606210053e-05, -6.094390482758172e-05, -6.706708518322557e-05, 8.725648513063788e-05, 0.0002238037413917482, 8.0445985076949e-05, -9.462143680138979e-06, 5.595820402959362e-05, 6.407812907127663e-05, -0.0001621030824026093, 1.2389056792017072e-05, 9.110069186135661e-06, 1.1873333278344944e-05, -6.122209742898121e-05, -4.130327943130396e-05, -0.00010517088230699301, -7.513531454605982e-05, -3.7593879824271426e-05, 8.506517770001665e-05, -0.00040638193604536355, 4.307417475502007e-05, 7.504103268729523e-05, -0.00018054242536891252, 0.0001549735461594537, 6.275473424466327e-05, -0.00013732364459428936, 4.845284638577141e-05, 2.4037708499236032e-05, 5.423774564405903e-05, 0.00012276848428882658, -1.5692514352849685e-05, 8.378090569749475e-05, 1.3654676877195016e-05, -1.1452982562332181e-08, 1.892678665171843e-05, 3.874974572681822e-05, 1.2022772352793254e-05, -0.00013619838864542544, 0.00010995361662935466, -7.626307251484832e-06, 0.00010765837942017242, -2.135944305337034e-05, 2.2390133381122723e-05, 5.77974697080208e-06, 0.00023584772134199739, 3.306735379737802e-05, 5.850188244949095e-06, 5.468739618663676e-05, -1.0328341886634007e-05, -4.965228436049074e-05, 2.0211033188388683e-05, 5.347555998014286e-05, 3.328555612824857e-05, -6.583820504602045e-05, -0.0001447155955247581, 7.28773302398622e-05, -5.9768237406387925e-05, -2.214828782598488e-07, -4.0008446376305073e-05, 0.00010397873120382428, 0.00013963620585855097, 3.17342892230954e-05, -5.536771277547814e-05, -0.00013805182243231684, 3.78214790544007e-05, -0.0001705887698335573, -1.3131704690749757e-05, -2.6377083486295305e-06, -8.736622839933261e-05, -2.45733053816366e-06, -2.216381108155474e-05, 3.130986442556605e-05, 0.00015731397434137762, -4.078142956132069e-05, 3.573458161554299e-05, -0.00013783991744276136, -3.6809142329730093e-05, -0.00017977810057345778, 2.3249627702170983e-05, -0.0001470308197895065, 5.414062616182491e-05], [-2.3128328393795528e-05, 5.589921056525782e-05, 1.0263240255881101e-05, -4.745839396491647e-05, -3.8572583434870467e-05, -0.00018156642909161747, -7.286202162504196e-05, 0.00011198927677469328, -0.00014342366193886846, 0.0003395623934920877, -5.9047568356618285e-05, -4.534025720204227e-05, -5.0089411161025055e-06, -5.6176300859078765e-05, -1.1646770872175694e-05, -0.00010896753519773483, -0.00015391864872071892, 2.6007539418060333e-05, 0.00022366699704434723, 0.000430249230703339, 0.00010692338400986046, -3.674960680655204e-05, 2.2871032342663966e-05, 4.53303728136234e-05, -0.00012235244503244758, -0.00030860811239108443, 2.7225518351770006e-05, 7.393107080133632e-05, -0.00011804673704318702, -0.00010156574717257172, -0.00014955569349694997, -0.00012846624304074794, 1.0466043022461236e-05, -0.0002925543813034892, 8.947790774982423e-05, -5.3321105951908976e-05, 0.00012537548900581896, -0.00020288403902668506, -0.0002192985120927915, 7.858689787099138e-05, -0.00017154563101939857, 7.586814172100276e-05, 4.3632091546896845e-05, 5.892418266739696e-05, 0.00022248210734687746, 9.08149559109006e-06, 0.00014246359933167696, 1.3713954103877768e-05, -7.107720648491522e-06, 1.3108317034493666e-05, 0.00010369464143877849, 3.331327752675861e-05, -0.0002231970865977928, 8.933630306273699e-05, -1.921037255669944e-05, -3.527252556523308e-05, 8.732193964533508e-05, -4.3381351133575663e-07, 9.283825420425273e-06, 0.00017145671881735325, 7.607639417983592e-05, -1.6405077985837124e-05, 0.0001253198424819857, -1.8444297893438488e-05, -0.00016051551210694015, -3.014332651218865e-05, 4.5817341742804274e-05, 6.361075065797195e-05, -5.892926492379047e-05, -0.0004500282520893961, 5.0140290113631636e-05, -0.00013139225484337658, 3.7594509194605052e-06, 6.12098301644437e-05, 0.0005934609216637909, -0.00011716123844962567, 5.38853055331856e-06, 0.00036327861016616225, -9.258084173779935e-05, 5.9623758716043085e-05, -0.00023403536761179566, -3.319849929539487e-05, -6.6758484535967e-06, -0.000345829437719658, -7.88724355516024e-06, -7.231080962810665e-05, -3.8957536162342876e-05, 0.00011471229663584381, -6.759926327504218e-05, 5.0612758059287444e-05, -5.9507823607418686e-05, -4.5634456910192966e-05, -0.0002377814962528646, -2.350180693611037e-06, 0.0001906897668959573, 8.147041080519557e-05], [-1.120890942729602e-06, 7.04598096490372e-06, 1.4079518223297782e-05, 5.260767466097604e-07, -5.501625309989322e-06, -1.5713907487224787e-05, -2.932328470706125e-06, 5.227610927249771e-06, -2.007106741075404e-05, -2.3997814423637465e-05, -3.474611958154128e-06, -2.984251295856666e-06, -2.803329266498622e-07, -6.425835181289585e-06, 1.5117063412617426e-05, -5.770962161477655e-06, -1.34660422190791e-05, -1.104646798921749e-05, 1.3851687072019558e-05, 1.6434256394859403e-05, 3.41062514053192e-05, 3.316330321467831e-07, 2.4232072064478416e-06, 8.189042091544252e-06, -4.3377396650612354e-05, -4.58256636193255e-06, 1.5607338355039246e-06, 4.0000095395953394e-06, -7.593450845888583e-06, -1.1026409083569888e-05, -1.742727545206435e-05, -3.97188750866917e-06, -1.7764736526260094e-07, 2.8286007363931276e-05, -4.474629895412363e-05, 4.618244020093698e-06, 6.441640380216995e-06, -1.812062691897154e-05, 2.0075047359568998e-05, 3.819378434855025e-06, -3.502527033560909e-05, 3.2248910883936333e-06, 1.7915897387865698e-06, 1.1344601261953358e-05, 1.797022923710756e-05, -1.1805422218458261e-05, 1.8755239580059424e-05, 2.938570105470717e-06, -1.326397068623919e-06, 1.1044841130569694e-06, 7.0705827965866774e-06, 2.5648841983638704e-06, -8.055313628574368e-06, 1.3511679753719363e-05, -1.3070397244518972e-06, 1.6185014828806743e-05, 6.666308763669804e-06, 7.708990779065061e-08, 5.776811349278432e-07, 2.908898204623256e-05, -2.0219242742314236e-06, -7.038806302261946e-07, 5.877820058231009e-06, -8.252357588389714e-07, -3.3124683795904275e-06, 1.5929599612718448e-06, 7.766075214021839e-07, 3.3369087759638205e-06, -1.4143773114483338e-05, -5.2363629947649315e-05, 1.1000153790519107e-05, -1.6685033187968656e-05, -3.134844746455201e-06, -3.3758467452571495e-06, 2.6544255888438784e-05, 2.224804848083295e-05, 4.886147507932037e-06, -1.3795905942970421e-05, -1.931790029630065e-05, 2.133647058144561e-06, -6.936713361938018e-06, -2.245637460873695e-06, 2.1298353658494307e-07, -1.3175143976695836e-05, -3.734242852715397e-07, -1.6377649444621056e-05, 5.917243470321409e-06, 4.0146813262254e-05, -5.0910166464746e-06, 3.042051503143739e-06, -1.958013672265224e-05, -4.227219505992252e-06, -2.5317593099316582e-05, -1.3869280337530654e-06, -1.2855545719503425e-05, 1.0007690434576944e-05], [3.2708901471778518e-06, 0.00010083254892379045, 5.722376226913184e-05, -2.922982457675971e-05, -2.2412059479393065e-05, 8.11841255199397e-06, 3.386076514289016e-06, 5.8940245253324974e-06, -1.2265962141100317e-05, -5.0714690587483346e-05, -4.624782013706863e-05, -1.2722222891170532e-05, 2.104298346239375e-06, -2.7793168555945158e-05, 6.905614282004535e-05, -9.032100024342071e-06, -0.00010784993355628103, -9.654375026002526e-05, 2.0015522750327364e-05, -3.1392526580020785e-05, 8.862600952852517e-05, -1.804213934519794e-05, -3.4926833905046806e-06, 5.912889173487201e-05, -0.0001477976911701262, -0.00012417302059475332, -1.7810834833653644e-06, -1.0004137948271818e-05, 1.0135813681699801e-05, 4.5585588850372005e-06, -3.1394029065268114e-06, -4.826657004741719e-06, 6.7493838287191465e-06, 0.00012438802514225245, 0.0006569063989445567, -4.5982786105014384e-05, 5.26876283402089e-06, -6.6795211751014e-05, 6.331053737085313e-05, 8.006942152860574e-06, -0.0001126287315855734, -6.330697033263277e-07, 2.0845311610173667e-06, 7.709671626798809e-05, 3.6449280742090195e-05, -4.104529580217786e-05, 0.0002251070982310921, 4.451278982742224e-06, -3.660803713501082e-06, 8.342094952240586e-05, -2.8030999601469375e-06, 8.375500328838825e-07, 2.3645461624255404e-05, 3.6248085962142795e-05, 3.1962986213329714e-06, 0.00011794409510912374, -6.231543011381291e-06, 8.926603914005682e-05, 1.303134013141971e-06, 0.0001494876923970878, 6.252938328543678e-05, 2.089323743348359e-06, -2.090691850753501e-07, 2.506603777874261e-07, -9.261089871870354e-05, 1.1978439943050034e-05, -1.1694172826537397e-05, -8.716699085198343e-06, -0.000111580484372098, -0.00012362863344606012, 9.670971485320479e-05, -0.00013844155182596296, 4.82345640193671e-05, 9.482026507612318e-05, -8.016031642910093e-06, 9.027871419675648e-05, 3.42119274137076e-05, -4.178629023954272e-05, -4.520695802057162e-05, 9.249413778888993e-06, 8.727338354219683e-06, 4.0972008719109e-06, -7.248728252307046e-06, 2.8573431336553767e-05, 7.03599084772577e-07, -3.266372004873119e-05, 5.277048330754042e-05, 0.00021794390340801328, 7.04745843904675e-06, 7.362784344877582e-06, -5.8936402638209984e-05, -2.8482820198405534e-05, -1.1625923434621654e-05, 8.212101965909824e-05, -1.4178227502270602e-05, -4.719504795502871e-05], [2.692524140002206e-05, 0.00020777227473445237, -0.0008876750944182277, -0.0003063171461690217, 0.00043218632345087826, 0.0006502644391730428, 7.493705197703093e-05, -7.609042222611606e-05, 0.00042051373748108745, 0.001404033973813057, 0.00018802475824486464, 7.594694034196436e-05, -9.331488399766386e-07, 0.00035655524698086083, -0.0007075804169289768, -0.00024398451205343008, 0.00020196891273371875, 0.0003381873248144984, -0.00039860879769548774, 0.00030146277276799083, -0.000492289662361145, 8.357034676009789e-05, -0.0002695579605642706, -0.0005950339836999774, 0.0010719650890678167, -0.0008736922754906118, 8.946990419644862e-06, 0.00027087528724223375, -0.0001022818178171292, 0.0004121131496503949, 0.001648187404498458, 8.509254257660359e-05, 8.774096932029352e-05, -0.0004901024512946606, -0.0004752811510115862, -0.00046672055032104254, 3.312280750833452e-05, 0.0004857500607613474, -0.0009379801340401173, -0.00010839711467269808, 0.00014013412874192, -0.00017894385382533073, -2.906024019466713e-05, -0.0001741577871143818, -0.00094751943834126, 1.3380675227381289e-05, -0.00045666578807868063, -0.00018021911091636866, 1.6560272342758253e-05, -0.0002402850368525833, 6.2888691900298e-05, 2.3015207261778414e-05, 0.0008342518121935427, -0.0005745404050685465, -2.4043907615123317e-05, -0.001014537876471877, 0.00015243956295307726, -0.0002185910998377949, -2.9540671675931662e-05, -0.0010457533644512296, 2.539837805670686e-05, -1.9645951397251338e-05, -0.00033585625351406634, 9.161987691186368e-06, 0.0001500479702372104, -0.0001488273119321093, -0.001036459463648498, 0.00016812427202239633, 0.00042637469596229494, -0.0010191301116719842, -0.0002364208485232666, 2.285845039295964e-05, 0.00045068396138958633, 0.001572235836647451, 0.0005359290516935289, -0.0007680162088945508, -0.00016601919196546078, 0.0008923614514060318, 0.0006013550446368754, -1.3698081602342427e-05, 0.0005457233055494726, 9.830437193159014e-05, -9.561164915794507e-06, -0.0005866981809958816, -2.5306217139586806e-05, 0.0001328581420239061, -9.297331416746601e-05, -0.0003508035442791879, 9.272426541429013e-05, -2.475005021551624e-05, 0.0012345777358859777, 9.183923248201609e-05, 0.0005916956579312682, -9.923160541802645e-05, 0.00098302005790174, -0.0005168815841898322], [-2.221878821728751e-05, 0.00023481665994040668, -0.00018157574231736362, -4.707492917077616e-05, -5.11113103129901e-05, -0.0001363408227916807, -8.081221312750131e-05, 6.979885802138597e-05, -0.0001655780797591433, -0.0002058193349512294, -8.755664021009579e-05, 1.6677198800607584e-05, -1.972812924577738e-06, 1.1698430171236396e-05, -0.00017361075151711702, -0.00012653766316361725, -0.00013031752314418554, -0.00016464311920572072, -6.887194467708468e-05, 0.00039025183650664985, -1.2355856597423553e-05, -5.559917917707935e-05, 1.9180581148248166e-05, -0.00014395879406947643, -9.689138096291572e-06, -0.00025487004313617945, 3.7545771192526445e-05, 0.00010229208419332281, -0.00018069450743496418, -1.9355404219822958e-05, -0.00010148513683816418, -3.3199154131580144e-05, 1.0617153748171404e-05, 2.8166095944470726e-05, 0.0011946223676204681, -0.00031597158522345126, 0.0001805974025046453, -0.00015603762585669756, -4.669986810768023e-05, 8.315008744830266e-05, 0.00018766331777442247, 9.181952918879688e-05, 2.3480843083234504e-05, -2.3129705368774012e-05, 0.00016132666496559978, -1.1769003322115168e-05, -9.224933455698192e-05, -3.5759709135163575e-05, 5.527714165509678e-06, -4.643941792892292e-05, 0.0001233031798619777, 2.9726401407970116e-05, -0.0002863918198272586, 8.475389040540904e-05, -2.4127104552462697e-05, 3.3225885999854654e-05, 0.0001489397109253332, -4.5372471504379064e-05, -5.543106908589834e-06, -5.3587587899528444e-05, 0.00014108425239101052, -2.4222923457273282e-05, 0.0001670352794462815, -7.94704828877002e-06, 3.4678832889767364e-05, 1.1972530955972616e-05, -0.00025912749697454274, 8.006583811948076e-05, -4.707626430899836e-05, -0.00029366702074185014, -8.792390872258693e-05, -0.00020805452368222177, 0.00030490796780213714, 0.00012714776676148176, 0.00028402922907844186, -7.018348696874455e-05, 4.695584357250482e-05, -0.00010338483843952417, -4.982469545211643e-05, 2.0112882339162752e-05, -0.00013551708252634853, -2.9443639505188912e-05, -3.4812001104000956e-05, -0.0003391208010725677, -7.5233838288113475e-06, 2.6246743800584227e-05, 8.454568160232157e-05, -0.0005015138885937631, -2.5910630938597023e-05, 6.042968016117811e-05, 0.00033928826451301575, 1.6643753042444587e-07, -0.000329189992044121, -6.039301661076024e-05, 0.00014191285299602896, -6.616364407818764e-05], [-1.1664720659609884e-05, 1.042578605847666e-05, 6.8284407461760566e-06, 4.1872386645991355e-05, -2.996923831233289e-05, -6.347500311676413e-05, -1.2890972357126884e-05, 1.1260306564508937e-05, 0.00013846582442056388, 3.1985655368771404e-05, -1.7256129467568826e-06, -2.4299417418660596e-05, -1.016163992062502e-06, -4.89190460939426e-06, -7.865649422456045e-06, -1.7951497284229845e-06, -5.00403393743909e-06, 5.67446113564074e-06, 3.4440281524439342e-06, 6.276194471865892e-05, -0.00014539793482981622, 3.4737509849946946e-05, 6.338479124678997e-06, -2.5413494313397678e-06, 5.9228397731203586e-05, 2.5229642233171035e-06, 3.2324819585483056e-06, -1.6233247151831165e-05, -9.60675606620498e-06, 8.119717676891014e-06, -6.5468429966131225e-06, 1.8814445866155438e-05, 2.8014548661303706e-05, 2.208123987657018e-06, -0.0008079767576418817, -9.824574590311386e-06, 1.1351947250659578e-05, 4.5567649067379534e-05, -1.3349285836739e-05, 8.385098226426635e-06, -1.1305168300168589e-05, 1.933615203597583e-05, 8.583555427321699e-06, -2.311402204213664e-05, 3.029792060260661e-05, 9.738145308801904e-06, 6.839914931333624e-06, 1.1785996321123093e-06, -1.0986423149006441e-06, 5.5138130846899e-05, 1.943522693181876e-05, 5.416249223344494e-06, 4.248895493219607e-06, -8.76921785675222e-06, -1.082454559764301e-06, -1.9952276488766074e-05, 0.00012029211939079687, 5.0688911869656295e-05, 5.329760824679397e-06, -1.7697535440674983e-05, 6.02921909376164e-06, -9.607930223864969e-06, 1.2816787602787372e-05, -3.252897613492678e-06, 0.00014287854719441384, -2.419985776214162e-07, 5.234568106970983e-06, 5.5925802371348254e-06, -2.619726183183957e-05, -0.00013542166561819613, 5.69524218008155e-06, 1.5164033356995787e-05, 2.7335945560480468e-05, -2.6046363927889615e-06, 9.921996388584375e-05, -4.649571928894147e-05, -1.9198078007320873e-05, 2.6253728719893843e-06, 4.8540212446823716e-05, 2.03147683350835e-05, 4.039870691485703e-05, -1.0578599358268548e-05, 1.374860767100472e-05, -0.0001139122323365882, 4.6249465412984136e-07, -2.1634390577673912e-05, 6.856184336356819e-05, -2.378737372055184e-05, -1.1618715689110104e-05, 6.429213954106672e-06, -3.195398676325567e-05, -4.653278301702812e-05, -3.7224141124170274e-05, 3.352794738020748e-05, -2.173859320464544e-05, -2.457809569023084e-05], [4.092750714335125e-06, -5.9788500948343426e-05, -3.929701051674783e-05, 0.0001174936187453568, 5.7635050325188786e-05, 2.5433095288462937e-05, 8.18062835605815e-06, 2.718440373428166e-05, -4.785846249433234e-05, 0.00010111709707416594, 2.38546563195996e-05, -8.723387509235181e-06, -2.199944447056623e-06, 2.4983879484352656e-05, 0.00015160538896452636, -1.4460168131336104e-05, 0.0001560993114253506, 0.00015584428911097348, 3.2800444387248717e-06, -3.140413173241541e-05, -0.00015327562869060785, 2.5424451450817287e-06, -7.768046634737402e-05, -6.4875603129621595e-06, 0.00012443338346201926, 0.00037339492700994015, 7.944213962218782e-07, 2.1339874365366995e-05, 3.041513991774991e-05, 2.107998625433538e-05, 0.00016372375830542296, 5.043008422944695e-05, -5.208539732848294e-05, -0.0005207511712796986, -0.0014805628452450037, 0.00016731838695704937, 3.974904757342301e-06, 9.288460569223389e-05, -0.00010270938946632668, 8.364475434063934e-06, 3.9917817048262805e-05, -1.3676972230314277e-05, 1.9502955183270387e-05, -0.00021386072330642492, -2.5472960260231048e-05, 0.00037155812606215477, -0.000303515640553087, -2.856758510461077e-05, 3.7150136904529063e-06, -4.074731623404659e-05, -3.052256943192333e-05, -1.6257752122328384e-06, 1.8882245058193803e-05, -2.1057776393718086e-05, -1.8766529592539882e-06, -0.0003173172881361097, -7.991913298610598e-05, -2.3482998585677706e-05, -6.29035184829263e-07, -0.00025448529049754143, -4.246436583343893e-05, -9.51529546000529e-06, -4.8289046389982104e-05, -1.0250978448311798e-05, 0.00021573752746917307, -5.243526175036095e-05, 6.771670450689271e-05, 1.601493204361759e-05, 0.0001794907875591889, -0.0001519795332569629, -0.00010800328163895756, 0.0002233184059150517, -4.999133670935407e-05, -0.0002766944526229054, -2.1384756109910086e-05, -0.00017896073404699564, -2.4812734409351833e-05, 0.00018992974946741015, -0.00014019363152328879, 2.6892761525232345e-05, 9.317878721049055e-06, -2.2110407371656038e-07, -7.689620542805642e-05, 3.235750045860186e-05, -3.927051693608519e-06, 0.00016731017967686057, -7.589382585138083e-05, -0.00020201706502120942, 9.663852324592881e-06, -1.7505517462268472e-06, -0.00015341055404860526, -1.121173772844486e-05, 0.00012114094715798274, -2.843243782990612e-05, -9.55511859501712e-05, -2.788819983834401e-07], [2.026878576089075e-08, -9.255091981685837e-08, -1.0261126703881018e-07, 7.781687116903413e-08, -8.741363188846663e-10, 6.248224337923602e-08, 7.283460234930317e-08, -2.597520065705794e-08, 1.0383509163602866e-08, 3.2335989885723393e-07, 2.9985326222004005e-08, 4.769537653714906e-08, 4.959543886684514e-09, 2.111942976057435e-08, 2.9125537537311175e-08, 2.1766339841633453e-08, 1.38144301331522e-07, 1.5304772205126937e-07, 1.0304689368467734e-07, -3.214176444998884e-07, 7.234054777427446e-08, 7.866450602023178e-09, -1.6395608781749615e-07, -6.646572359159109e-08, 2.8599254164873855e-07, 1.946568772837054e-07, -2.694691358939849e-09, 1.944056826630458e-08, 1.7607372626571305e-07, 1.8155130021568766e-07, 4.9232728116521685e-08, 2.54854910508584e-07, -1.3879147786610702e-07, -4.543261979961244e-07, 7.216615358629497e-06, 1.5230490646445105e-07, -7.842112381695188e-08, 1.5170307676726225e-08, -1.841958976456226e-07, -3.711295093467015e-08, -9.57747943175491e-08, -8.31509652243767e-08, 9.31009935811744e-09, -2.181493670150303e-07, 7.377389010798652e-08, 2.7296383109387534e-07, -3.3538222510287596e-07, -7.05040790194289e-08, 1.2079775402185078e-08, 8.917004379327409e-08, -1.0499424263343826e-07, -2.9829710257445186e-08, 1.3824052302879863e-07, 1.1089661455798705e-07, 1.1464499571900433e-08, -3.472651712854713e-07, -1.6430352900442813e-07, 1.7233881521860894e-07, -1.7897317405868307e-08, -2.7454066753307416e-07, -1.0694043339753989e-07, -1.2893494272248063e-08, -1.0856308563234052e-07, -6.289635479106437e-09, 2.2047976244721212e-07, -1.660414028492596e-07, 5.985932460816912e-08, -1.8778823829279645e-08, 2.273625057114259e-07, 1.3047579727754055e-07, -1.5133002762013348e-07, 2.0275925294299668e-07, -1.1257317744650663e-08, -2.959541802738386e-07, 7.1726589112586225e-09, -5.86610298114465e-08, 1.3649062324816441e-08, -2.630162754257981e-09, -4.378578921659937e-08, 4.962328503665958e-08, 1.4372369960824471e-09, 3.155960470735408e-08, -1.1358621065937768e-07, 2.2405271238312707e-07, -3.398816561528406e-09, 2.36434459566226e-07, -5.5744990845596476e-08, -2.789117559132137e-07, 9.331698436199076e-08, -1.690088957673197e-08, -1.7540918406666606e-07, -4.488882865416599e-08, 2.183997054316933e-07, 2.2459181536760298e-07, -7.288134185046147e-08, -6.554152065518792e-08], [-5.58712315523735e-07, 5.4448437367682345e-06, 6.681284048681846e-06, -3.063663825741969e-06, -5.841831807629205e-06, -3.0851592782710213e-06, -2.9352065666898852e-06, 7.41933536119177e-06, -1.1500056643853895e-05, -2.3630440409760922e-05, -5.813796633447055e-06, -1.0390681381977629e-05, -5.421781565928541e-07, -2.0563873022183543e-06, 1.3177878827264067e-05, -5.310895176080521e-06, -8.380508916161489e-06, -1.3880798178433906e-05, 5.494792731042253e-06, 9.099436283577234e-06, 1.0979231774399523e-05, -2.439483978378121e-06, 7.616514267283492e-06, 4.936302048008656e-06, -2.676343865459785e-05, -9.348155799671076e-06, 4.139254770052503e-07, 1.8031317949862569e-06, -5.273727765597869e-06, -7.64328160585137e-06, -1.6645410141791217e-05, -1.4242575161915738e-05, -6.49161847832147e-07, 1.4939026186766569e-05, -8.736905147088692e-05, -4.101203103346052e-06, 6.844842118880479e-06, -8.905036338546779e-06, 2.35379884543363e-05, 6.312715413514525e-06, -2.0718858650070615e-05, 3.3897476896527223e-06, 4.858444299316034e-06, 1.1631491361185908e-05, 1.7950784240383655e-05, -7.570481102447957e-06, 1.6047184544731863e-05, 2.480273451510584e-06, -6.471225333370967e-07, 1.1838255886686966e-05, 3.897928763763048e-06, 8.582816803937021e-07, -2.8856604785687523e-06, 1.6036838133004494e-05, -4.845663852393045e-07, 2.1272329831845127e-05, 3.1533602395938942e-06, 9.540627615933772e-06, 2.561536803113995e-06, 2.3110471374820918e-05, 8.088689355645329e-06, 5.88669138323894e-07, 4.272152636985993e-06, -1.8894063487095991e-06, -2.6670631996239536e-05, 3.4171905554103432e-06, 2.519040208426304e-06, 2.2580977656616597e-06, -1.0840228242159355e-05, -2.8012696930090897e-05, 6.9917136897856835e-06, -1.2168509783805348e-05, 1.1338952390360646e-06, 1.0032664249592926e-05, 1.6204767234739847e-05, 1.324019831372425e-05, 4.2272181417502e-06, -9.284393854613882e-06, -1.5432673535542563e-05, 7.507130703743314e-06, -5.156418865226442e-06, -1.0090142268381896e-06, 1.49152651829354e-06, -9.231710464518983e-06, -4.035699419091543e-07, -9.804029104998335e-06, 6.460026270360686e-06, 1.9376000636839308e-05, -8.32227487990167e-06, 3.272818048571935e-06, -6.678664249193389e-06, -1.3625602150568739e-05, -7.741061381238978e-06, 5.278284334053751e-06, -3.282011903138482e-06, -1.1656284186756238e-06], [-2.0511708498816006e-05, 0.00014333438593894243, 0.00022599463409278542, -4.269034252502024e-05, -0.00013232567289378494, -0.00015554626588709652, -0.00013561516243498772, 0.00019909045659005642, -0.0001374559069518, -0.00039913083310239017, 1.1686825018841773e-05, -2.508754187147133e-05, 7.104429187165806e-07, -0.0001215285446960479, 0.00014725605433341116, -0.00013654794020112604, -0.00027974823024123907, -0.00036952871596440673, 0.000141199299832806, 0.000634805706795305, 0.0003143412177450955, -9.583426435710862e-05, 0.00012182842328911647, 0.0001108123833546415, -0.0007081470685079694, -0.000146541788126342, 4.490682476898655e-05, 6.485593621619046e-05, -0.00025135400937870145, -5.732313366024755e-05, -0.00010746826592367142, -6.594964361283928e-05, -3.12729061988648e-05, 0.0005412079044617712, 0.0005525329033844173, -2.0609930288628675e-05, 0.00015426702157128602, -0.00036648422246798873, 6.489110819529742e-05, 0.00011864017869811505, -0.000263136433204636, 7.28121303836815e-05, 5.647783473250456e-05, 0.00015573654673062265, 0.0004617709491867572, -4.653672658605501e-05, 0.0006032280507497489, 2.1691686924896203e-05, -8.630426009403891e-07, 5.17519838467706e-05, 0.00017766001110430807, 3.4733806387521327e-05, -0.0001802768965717405, 0.0004612762131728232, -2.5433839255128987e-05, 0.00048145675100386143, -7.152209946070798e-06, 6.738614320056513e-05, -1.3669568943441845e-06, 0.0005767567199654877, 0.00017977172683458775, 7.570613433927065e-07, 0.00020293569832574576, -2.488283280399628e-05, -9.552200936013833e-05, 2.1536287022172473e-05, 0.00018701226508710533, 2.172899075958412e-05, -0.00020515179494395852, -0.0006023100577294827, 0.00014156958786770701, -0.0003692437894642353, 6.337709783110768e-05, 9.913834946928546e-05, 0.0005068777245469391, 0.0005060953553766012, 0.00015637569595128298, -4.5122338633518666e-05, -0.00034215289633721113, 8.214627450797707e-05, -0.0003471694653853774, -4.144092963542789e-05, -5.703169517801143e-05, -0.0004785716882906854, -8.824466021906119e-06, -1.4796532923355699e-06, 0.00020333127758931369, 0.0005651366664096713, -3.905393532477319e-05, 8.130403875838965e-05, -0.00024189315445255488, -7.285436731763184e-05, -0.00027606094954535365, 6.581065827049315e-05, -0.00012891607184428722, 2.6522597181610763e-05], [-1.9733752196771093e-06, 2.5188064682879485e-05, 3.242624006816186e-05, -3.449293217272498e-05, -2.8945722078788094e-05, -1.918383532029111e-05, -1.1608630302362144e-05, 2.3133419745136052e-05, -2.015845529967919e-05, -9.755278006196022e-05, -2.7827438316307962e-05, -2.3538257664768025e-05, -9.1098456778127e-07, -1.1882005310326349e-05, 9.32019975152798e-05, -1.7188249330502003e-05, -4.105484185856767e-05, -8.952499774750322e-05, 2.238086744910106e-05, 6.186667451402172e-05, 3.897377973771654e-05, -2.0005150872748345e-05, 2.937910903710872e-05, 2.228251105407253e-05, -0.00011107668251497671, -0.00010160922829527408, 1.5604121017531725e-06, 4.514467491389951e-06, -1.6869313185452484e-05, -1.7422911696485244e-05, -5.878489901078865e-05, -4.031942808069289e-05, -1.5932378119032364e-06, 8.56473998283036e-05, 6.608967669308186e-05, -2.218904955952894e-05, 2.1005922462791204e-05, -5.029285966884345e-05, 0.00011212610843358561, 1.773441726982128e-05, -7.993436884135008e-05, 1.3139588190824725e-05, 1.0560062037257012e-05, 5.23111448273994e-05, 8.287964737974107e-05, -4.842656198889017e-05, 8.797860937193036e-05, 6.377977115334943e-06, -1.760098143677169e-06, 4.48887403763365e-05, 1.3303508239914663e-05, 2.5258348159695743e-06, -1.71556221175706e-05, 6.641024810960516e-05, -1.1744497214749572e-06, 0.00012618520122487098, 1.2212194633320905e-05, 3.469724106253125e-05, 6.063680757506518e-06, 0.00010385089990450069, 5.611757660517469e-05, 1.3401337355389842e-06, 2.2371645172825083e-05, -3.948099674744299e-06, -9.744005365064368e-05, 1.5159984286583494e-05, 2.7273019895801554e-06, 5.557686563406605e-06, -5.487513044499792e-05, -7.992101018317044e-05, 3.9952494262252e-05, -6.299952656263486e-05, 1.3415668036032002e-05, 7.664687291253358e-05, 9.345581202069297e-05, 7.365820783888921e-05, 3.091542748734355e-05, -6.035128535586409e-05, -6.391036731656641e-05, 1.5701079973950982e-05, -3.0797509680269286e-05, -2.3896125185274286e-06, 2.5019382974278415e-06, -5.4412215831689537e-05, -9.71792132986593e-07, -2.6989941034116782e-05, 4.850549157708883e-05, 9.579643665347248e-05, -1.9020131730940193e-05, 1.1121999705210328e-05, -2.142245284630917e-05, -3.184243541909382e-05, -3.8041976949898526e-05, 2.2076703316997737e-05, -7.3884366429410875e-06, -2.63147012447007e-06], [-6.044168458174681e-06, 0.000149887811858207, -6.645095709245652e-05, -0.00016612809849902987, -1.9635566786746494e-05, 2.4786309950286523e-05, -2.238733031845186e-05, 4.672505019698292e-05, 4.969274596078321e-05, -7.98611290520057e-06, -7.942689990159124e-05, -0.00017604988534003496, -6.1010309764242265e-06, -3.3975538826780394e-05, -0.00016786657215561718, -3.230010042898357e-05, -0.00018394751532468945, -0.00024107306671794504, -3.36397897626739e-05, -2.662326915015001e-05, 7.463735528290272e-06, -6.104607018642128e-05, 8.868774602888152e-05, 1.8433744116919115e-05, -0.00013388594379648566, -0.0004956044140271842, 5.7437846407992765e-06, 1.1712007108144462e-05, -2.474305802024901e-05, -0.00012400856940075755, -7.040940545266494e-05, -0.00023801693168934435, 6.111859693191946e-05, 0.00019549837452359498, 0.0011940801050513983, -0.0002780274662654847, 3.753638156922534e-05, -7.919780910015106e-05, 1.8840946722775698e-05, 4.7760764573467895e-05, 7.790315430611372e-05, 2.370729998801835e-05, 5.6273609516210854e-05, 0.00016092696751002222, 4.0291561163030565e-06, -0.00018068640201818198, 0.0002759188646450639, 1.6815656636026688e-05, -1.1151604667247739e-05, 0.00030503812013193965, 4.74068547191564e-05, 8.31305169413099e-06, 0.00012388861796353012, -1.4786533938604407e-05, -2.8133467822044622e-06, 0.0002981789002660662, 8.155350224114954e-05, 0.00023465869890060276, 4.3226886191405356e-05, 0.0002051543997367844, 0.00021493145322892815, 1.2895912732346915e-05, 4.410288602230139e-05, -1.9409044398344122e-05, -0.0006565282819792628, 3.8155860238475725e-05, -9.760394459590316e-05, 5.574675014941022e-06, -0.0001295543770538643, 8.913304918678477e-05, 0.00010066782124340534, -0.0003083457122556865, 9.904569014906883e-05, 0.0004812354454770684, 0.00012530043022707105, -4.972563328919932e-05, 5.927512756898068e-05, -4.2317646148148924e-05, 9.632349974708632e-05, 0.00010222109995083883, 7.933506276458502e-05, -7.74345789977815e-06, 2.148922430933453e-05, -1.6394069461966865e-05, -2.955806166937691e-06, -0.0001617062953300774, 0.000123388905194588, 8.520072151441127e-05, -0.0001003735451376997, 1.9214829080738127e-05, 0.00019470661936793476, -0.00023864349350333214, 1.0936902981484309e-05, 0.00017559394473209977, 0.00013819689047522843, -0.0001349128142464906], [-2.9221705517556984e-06, 0.0005546651664189994, -1.6502264770679176e-05, -0.00018060901493299752, -5.557920303544961e-05, 9.459437569603324e-05, -8.987746696220711e-06, 6.281870446400717e-05, 6.0064812714699656e-05, 6.611444405280054e-05, -0.00011867675493704155, -0.00031453781411983073, -5.553617938858224e-06, -9.282362589146942e-05, -0.00019753217929974198, -4.32767701568082e-05, -0.0005381028167903423, -0.00035226173349656165, -0.00019525665265973657, -0.0001873981236713007, -5.462276021717116e-05, -5.058191891293973e-05, 7.358229777310044e-05, 0.00013488145486917347, -0.00030291060102172196, -0.0007273786468431354, 4.994454684492666e-06, -6.930702511454001e-06, 3.4301949199289083e-05, -0.0002375549665885046, -9.88844403764233e-05, -0.00029886997072026134, 0.0001974254846572876, 0.000475584325613454, 0.004470000509172678, -0.0006100139580667019, 2.331770519958809e-05, -0.00013513943122234195, 1.487037843617145e-05, 5.474423960549757e-05, 0.00022948226251173764, 1.3842329281033017e-05, 8.564910967834294e-05, 0.0003252391470596194, 9.604651495465077e-06, -0.0003290929598733783, 0.0007733615930192173, 7.087795893312432e-06, -3.112704507657327e-05, 0.0005832508904859424, 5.899571624468081e-05, 1.5962792531354353e-05, 0.0002551459474489093, -7.435655788867734e-06, 3.7190493458183482e-06, 0.0004371606919448823, 0.00013275854871608317, 0.0005524117150343955, 6.679327634628862e-05, 0.00047621247358620167, 0.0002820893714670092, 1.785831955203321e-05, 2.7033951482735574e-05, -2.3712211259407923e-05, -0.0008309883996844292, 4.918305421597324e-05, -0.00028177269268780947, -3.077108704019338e-05, -0.000341435254085809, 0.00016454052820336074, 0.00031404735636897385, -0.0008476539514958858, 0.00024218051112256944, 0.0007026983657851815, -3.16017321893014e-05, 3.952333645429462e-05, 9.470045915804803e-05, -0.00010359551379224285, 0.0002494150830898434, 0.00020352740830276161, 0.00022587018611375242, -1.1385059224267025e-06, 3.430610377108678e-05, 4.592782352119684e-05, -1.66104155141511e-06, -0.00040170541615225375, 0.0001953575701918453, 0.00034496618900448084, -0.00013657780073117465, 1.4527908206218854e-05, 0.0003587823885027319, -0.0004990540910512209, -3.7180507206358016e-06, 0.00048299558693543077, 0.00021921255392953753, -0.00046561419731006026], [-2.021023647102993e-06, 0.00012121447070967406, -2.9977325539221056e-05, -0.00015729320875834674, -1.9915032680728473e-06, 2.349704664084129e-05, 7.1376598498318344e-06, 4.0844708564691246e-05, 0.0002453279448673129, 0.00030883168801665306, -1.8966644347528927e-05, -2.9660215659532696e-05, -1.5985949630703544e-06, 5.47907848158502e-06, 8.672119292896241e-06, -6.029041105648503e-05, -0.00012188954860903323, -9.541523468215019e-05, 7.990027370397002e-06, -0.00010093948367284611, -9.954530105460435e-05, -4.793543484993279e-05, -4.3886950152227655e-05, 1.6649677490931936e-05, 0.00013852125266566873, -0.00029993808129802346, 2.1789735910715535e-05, 3.1119820050662383e-05, -2.4687447876203805e-05, 3.285595812485553e-05, 0.00016295620298478752, -2.0605955796781927e-05, 2.542417132644914e-05, -1.3728680642088875e-05, 0.001108919968828559, -0.00014333409490063787, 6.130826659500599e-05, -1.529581641079858e-05, 4.710851499112323e-05, 3.225367981940508e-05, 8.650710515212268e-05, -5.9874764701817185e-06, 1.65340316016227e-05, 3.981597546953708e-05, -4.373775300337002e-05, -3.4434742701705545e-05, 7.063368684612215e-05, -1.709483694867231e-05, -2.4850055524439085e-06, 6.984117499087006e-05, 6.349007890094072e-05, 1.1864745829370804e-05, 0.00013233722711447626, 6.725924322381616e-06, -9.447425327380188e-06, 3.642857336672023e-05, 6.988658424234018e-05, 7.273475057445467e-05, 4.703967533714604e-06, 4.916373291052878e-05, 8.399056969210505e-05, 6.746845429006498e-07, 1.3230743206804618e-05, -6.398000550689176e-06, -0.00013481358473654836, -2.269875767524354e-05, -0.00012117769801989198, 2.2939992049941793e-05, -4.026614988106303e-05, 0.00011428022116888314, 5.422377853392391e-07, -0.0001709966891212389, 8.890884055290371e-05, 0.0003010283980984241, -3.288873267592862e-05, -7.757963612675667e-05, 2.7720732305169804e-06, -1.6195099306060001e-06, 0.0002164185862056911, 3.219327118131332e-05, 0.00022617980721406639, -2.2754793462809175e-06, -1.052575225912733e-05, 3.7596546462737024e-05, -4.236974746163469e-06, 6.652647243754473e-06, 4.2467589082662016e-05, -0.0001034755478031002, -2.2277718016994186e-05, 2.932873940153513e-05, 0.00013937431504018605, -5.707958189304918e-05, 5.593115201918408e-05, 7.276055112015456e-05, 0.0001383088674629107, -0.00019854705897159874], [-6.643067899858579e-05, 0.0004636151425074786, -0.00016789286746643484, -7.756486593279988e-05, -0.00010233437205897644, -0.0006279681110754609, -0.00021654371812473983, 0.00030093060922808945, -0.0009480545995756984, -0.00038236440741457045, -0.00042159974691458046, -0.0003476564888842404, -3.243624814786017e-05, -7.454665319528431e-05, -0.0002977926342282444, -0.0003251514572184533, -0.00047524389810860157, -0.00019318683189339936, 0.00020058578229509294, 0.0009028143249452114, 0.0005800990620627999, -0.00011596491822274402, 6.887505151098594e-05, -0.0004766460624523461, -0.0006241770461201668, -0.0006862510927021503, 0.00013309746282175183, 0.00027705379761755466, -0.0004493904998525977, -0.00035170596675015986, -0.00044579021050594747, -0.00047132966574281454, 0.00029893277678638697, 0.00022076185268815607, 7.019785698503256e-05, -0.0006263779941946268, 0.00043784212903119624, -0.0003641147050075233, 0.00019187419093213975, 0.00029187346808612347, -0.00014281459152698517, 0.00023255379346664995, 0.000186652789125219, 0.00014583076699636877, 0.0006034650723449886, -0.0001992337784031406, 0.00022839402663521469, -7.675426604691893e-05, -1.677419822954107e-05, 0.00029725790955126286, 0.000513484759721905, 0.00017519899120088667, -0.0005130075151100755, 0.00031540196505375206, -0.00011247373186051846, 0.00019379366131033748, 0.00018434971570968628, 0.0002676749136298895, 7.122445822460577e-05, 0.000397222931496799, 0.0002091944043058902, -5.3499348723562434e-05, 0.0004629750910680741, -9.053960820892826e-05, -0.0007224193541333079, 1.5452194929821417e-05, -0.0007722524460405111, 0.00029543827986344695, 1.1258336598984897e-05, -0.0021605133078992367, -0.0003857679257635027, -0.00053041783394292, 0.0005346967955119908, 0.0004524249234236777, 0.001585236401297152, -0.0001704767346382141, 4.824952338822186e-05, -9.973741543944925e-05, -0.0005172848468646407, 0.0002805129042826593, -0.0005080824485048652, -0.00016726685862522572, -1.3851295079803094e-05, -0.0007576402276754379, -3.2396586902905256e-05, -0.000185733922990039, 9.749172022566199e-05, 0.0001827895757742226, -0.0003829779161605984, 0.00022710373741574585, 0.0005249910755082965, -0.0004797057481482625, -0.00080520921619609, 0.00017744197975844145, 0.00010069835116155446, -0.0002524146402720362], [5.3473828302230686e-05, 9.971318650059402e-05, -0.0003384221054147929, -0.00012217673065606505, 5.484271969180554e-05, -9.286540444009006e-05, -3.18325255648233e-05, 3.894747351296246e-06, 0.0002168303180951625, 0.000503593881148845, 9.893863170873374e-05, 4.981231177225709e-05, -6.41023234493332e-07, 4.3126601667609066e-05, -0.00019975390750914812, -0.00017309558461420238, -1.4532626664731652e-05, 0.00019781883747782558, -0.00017539967666380107, 0.00028494722209870815, 7.635846850462258e-05, -2.9195072784204967e-05, -7.851931150071323e-05, -0.00015477713895961642, 0.0003464993496891111, -0.0002862629189621657, 5.046047590440139e-05, 0.00017014710465446115, -0.00013746734475716949, -2.6363341021351516e-06, 0.0005973838269710541, 1.1523377906996757e-05, 9.190096170641482e-05, -0.00012897452688775957, -0.001306043704971671, -0.0004899326013401151, 0.00016162397514563054, 9.488083014730364e-05, -0.0006487045902758837, 2.5322005967609584e-06, 0.00026042768149636686, -9.056247654370964e-05, 3.8251266232691705e-05, -9.922387107508257e-05, -0.00023780264018569142, -3.463772372924723e-05, -0.00030931143555790186, -4.950855509378016e-05, 5.685898031515535e-06, 7.304858172574313e-06, 0.00014075374929234385, -1.771295501384884e-05, 0.0001833057904150337, -0.00020510565082076937, -3.0549843359040096e-05, -0.00038670178037136793, -4.518758942140266e-05, 6.001385918352753e-05, -2.06024014914874e-05, -0.00012575149594340473, 8.352832082891837e-05, 1.7560871128807776e-05, -9.561357728671283e-05, -2.450876127113588e-05, 0.0001464984961785376, -6.487639620900154e-05, -0.00023524058633483946, 8.464887650916353e-05, 9.874919487629086e-05, -0.00046410452341660857, -0.00029730566893704236, -4.199679096927866e-06, 0.0001638215035200119, 0.0005481586558744311, 0.00031488624517805874, -0.00032777158776298165, -0.00010548086720518768, 0.00015582636115141213, 0.00028667403967119753, 3.615707828430459e-05, 0.00021070949151180685, -1.4313940482679754e-05, -2.624240551085677e-05, -0.00038105814019218087, -1.3435075743473135e-05, 0.00010119344369741157, -7.071881555020809e-05, -0.00018935951811727136, 8.797167538432404e-06, 4.324650944909081e-06, 0.0006154163274914026, -7.031609129626304e-05, 8.856895146891475e-05, 5.247625085758045e-05, 0.0003699347435031086, -0.00017083070997614413], [-8.057011768869415e-08, 2.386869709880557e-05, -4.2914187361020595e-05, -3.1441064493265e-05, 1.2394087889333605e-06, 2.4317494535353035e-05, -3.4495392355893273e-06, -4.596847247739788e-06, 2.8094742447137833e-05, -2.258572931168601e-05, -5.633010914607439e-06, -3.896015914506279e-05, -1.0391119076302857e-06, -4.275722403690452e-06, -2.2913969587534666e-05, 1.7197031354498904e-07, -3.643990567070432e-05, -1.203060401167022e-05, -1.28116207633866e-05, 1.1772403013310395e-05, -2.1530886442633346e-05, -1.1993455700576305e-05, 5.602560577244731e-06, 3.6669650853582425e-06, -5.3749427024740726e-06, -5.641724055749364e-05, -1.0126595384463144e-07, -1.0994010608555982e-06, -3.98681549995672e-06, -1.3628246051666792e-06, 2.0646630218834616e-05, -3.7298443203326315e-05, 1.1859005098813213e-05, 3.5033699532505125e-05, 0.0003795639204327017, -5.582167796092108e-05, 5.894509286008542e-06, 4.738891220767982e-06, 1.8454955352353863e-05, 8.230491403082851e-06, 6.547450175276026e-05, 2.8246456622582627e-06, 1.2670455362240318e-05, 1.974215410882607e-05, -2.895754005294293e-05, -2.790077996905893e-05, 6.527761433972046e-05, -3.7055472148495028e-06, -3.677972017612774e-06, 6.769714673282579e-05, 4.555176928988658e-06, -2.526988964746124e-06, 1.0320742148905993e-05, -2.787293487926945e-05, 7.210742865026987e-07, 3.3495965908514336e-05, 8.834528671286535e-06, 6.607612158404663e-05, 8.718712706468068e-06, 2.846164716174826e-05, 8.964332664618269e-06, 3.023649014721741e-06, 5.0783733058779035e-06, -4.97083874506643e-06, -9.836920071393251e-05, 3.5249174743512413e-06, -4.174819332547486e-05, 1.47325636135065e-06, -2.520585258025676e-05, 4.878103209193796e-05, 2.7221029085922055e-05, -6.651914736721665e-05, 2.788157325994689e-05, 6.835522799519822e-05, -2.6427531338413246e-05, -1.1134683518321253e-05, -4.309737050789408e-06, 9.373659850098193e-06, 3.4177319321315736e-05, 1.8669954442884773e-05, 8.067629096331075e-06, 2.264559498144081e-06, -4.718335731013212e-06, -5.351305844669696e-06, -7.058146138660959e-07, -2.484369724697899e-05, 2.5060505777219078e-06, 6.879145075799897e-06, -1.2864637938037049e-05, 3.52064625985804e-06, 8.912254997994751e-05, -5.447250441648066e-05, 4.4800846808357164e-05, 4.0243499825010076e-05, 2.8724052754114382e-05, -4.199756949674338e-05], [5.311416316544637e-06, 9.140117981587537e-06, -3.6183926567900926e-05, -7.556807304354152e-06, 2.0627014237106778e-05, 3.6407389416126534e-05, 2.5992032533395104e-05, -3.9763406675774604e-05, 3.6765548429684713e-05, 5.344173405319452e-05, -5.7612278396845795e-06, 8.18337284727022e-05, 5.407693151937565e-06, 9.029428838402964e-06, -2.8603051760001108e-05, 4.0039554733084515e-05, 1.3132473213772755e-05, -5.812753443024121e-07, -3.232606832170859e-05, -0.00010643931454978883, -2.869486343115568e-05, -2.6237560177833075e-06, -2.3551006961497478e-05, -1.9309618437546305e-06, 5.104037336423062e-05, -1.6120373402372934e-05, -4.98172948937281e-06, -2.7375710487831384e-05, 3.1236701033776626e-05, 6.97702998877503e-05, 5.1969243941130117e-05, 9.66565785347484e-05, 2.4560011297580786e-05, -2.443831181153655e-05, 0.00016618688823655248, -1.546283601783216e-05, -4.846406227443367e-05, 5.2442297601373866e-05, -5.3046409448143095e-05, -4.2499537812545896e-05, 6.927129288669676e-05, -2.6818461265065707e-05, -3.977137748734094e-05, -1.5010924471425824e-05, -4.9142909119836986e-05, 7.812554031261243e-06, 8.71861630002968e-07, -1.1671447282424197e-05, 3.3289979910477996e-06, -3.996569648734294e-05, -2.011891956499312e-05, -5.436204901343444e-06, 4.5151322410674766e-05, -3.699365697684698e-05, 4.160948719800217e-06, -2.5232802727259696e-05, -8.285000149044208e-06, -2.6907819119514897e-05, -1.9481663912301883e-05, -4.8448699089931324e-05, 1.0163796105189249e-05, -2.608102931844769e-06, -2.7386069632484578e-05, 1.6887330275494605e-05, 0.00010205052240053192, -1.0492569344933145e-05, -1.6341185983037576e-05, -1.9409812011872418e-05, 3.849443601211533e-06, 8.759301999816671e-05, -9.305489584221505e-06, 1.1038502634619363e-05, 1.5724539480288513e-05, 3.855949398712255e-05, -5.287699605105445e-05, -2.2994501705397852e-05, -4.0654040276422165e-06, 2.9607763281092048e-05, 5.1572511438280344e-05, -5.7889144954970106e-05, 5.354333188734017e-05, 7.585721959912917e-06, -9.93251978798071e-06, 7.298651325982064e-05, 4.05965010941145e-06, 2.418473559373524e-05, -3.7504332794924267e-07, -2.3023416360956617e-05, 6.854216917417943e-05, -1.9859948224620894e-05, 2.7306103220325895e-05, 0.00010077879414893687, 7.023878424661234e-05, 5.113633505970938e-06, 2.5154462491627783e-05, -4.236214590491727e-05], [-3.237634246033849e-06, 1.1657396498776507e-05, 2.8734164516208693e-05, 1.9468466234684456e-06, -2.691351983230561e-05, -4.442319550435059e-05, -1.9373568648006767e-05, 2.7631307602860034e-05, -2.7682101062964648e-05, -6.330341420834884e-05, -2.3507077457907144e-06, -1.8556773284217343e-05, -1.322302637163375e-06, -8.127490218612365e-06, 5.9623234847094864e-05, -2.0802661310881376e-05, -2.1231977370916866e-05, -2.447626320645213e-05, 2.9170872949180193e-05, 6.33279123576358e-05, 1.2880585018137936e-05, -5.114776286063716e-06, 2.3299096937989816e-05, 1.5502457245020196e-05, -4.9076737923314795e-05, -9.068031431525014e-06, 2.112540641974192e-06, 7.7059330578777e-06, -1.5576357327518053e-05, -2.4979144654935226e-05, -4.0695875213714316e-05, -3.9218273741425946e-05, -9.031841727846768e-06, 3.460211883066222e-05, -0.00022632992477156222, 5.5880741456348915e-06, 2.3552771381218918e-05, -4.314463149057701e-05, 5.35012295586057e-05, 1.908557169372216e-05, -7.702939910814166e-05, 2.1680361896869726e-05, 1.2018087545584422e-05, 3.0276338293333538e-05, 6.13702941336669e-05, -4.705897026724415e-06, 2.706374834815506e-05, 5.0253265726496466e-06, -1.5064072158565978e-06, 1.1850276678160299e-05, 1.1266984074609354e-05, 5.173410499992315e-06, -2.124191632901784e-05, 5.778625563834794e-05, -2.362109853493166e-06, 3.9884504076326266e-05, 7.686770004511345e-06, 8.7312973846565e-06, 4.751747837872244e-06, 6.875520921312273e-05, 7.2976317824213766e-06, 1.818582404666813e-06, 1.790655733202584e-05, -4.9055997806135565e-06, -7.091417501214892e-05, 6.994823252171045e-06, 1.1850030205096118e-05, 9.658463568484876e-06, -2.3176082322606817e-05, -9.146214870270342e-05, 2.312407195859123e-05, -2.7136709832120687e-05, 1.0775361261039507e-06, 7.060770258249249e-06, 5.676892033079639e-05, 3.1278334063244984e-05, 1.0384136658103671e-05, -2.03300041903276e-05, -2.7055719328927808e-05, 1.7246638890355825e-05, -3.718541483976878e-05, -5.341768428479554e-06, 5.172419719201571e-07, -4.761170566780493e-05, -1.3923425967732328e-06, -1.229488043463789e-05, 2.3906819478725083e-05, 6.23107553110458e-05, -2.086081622110214e-05, 1.269595668418333e-05, -4.5965771278133616e-05, -2.1076975826872513e-05, -6.018966087140143e-05, 9.598123824616778e-07, -9.20163256523665e-06, 1.2762438927893527e-05], [-2.0836490875808522e-05, 0.00016865541692823172, 0.00014694753917865455, -9.705874253995717e-05, -0.00012658181367442012, -1.198807149194181e-05, -0.00014347377873491496, 0.00037770799826830626, -9.925643098540604e-05, -0.00024371118342969567, -0.0001355977583443746, -0.0002474553184583783, -1.266186882276088e-05, -5.6554097682237625e-05, 3.3154283300973475e-05, -0.000348519126418978, -0.00012151078408351168, -8.815372711978853e-05, 2.553892591095064e-05, 0.0007397798472084105, -0.00010299182031303644, -5.284235885483213e-05, 0.0001460553176002577, 5.970408528810367e-05, -0.00047536028432659805, -0.00021444486628752202, 5.425653944257647e-05, 0.00014054126222617924, -0.00016877634334377944, -0.00016544631216675043, -0.00016062494250945747, -0.0004005793889518827, 2.0061143004568294e-05, 0.00017016829224303365, -0.0014832622837275267, -7.047416875138879e-05, 0.0003903412143699825, -0.00032944156555458903, 0.00023972982307896018, 0.0003047630889341235, -0.00043730827746912837, 0.00013211311306804419, 0.0001909939164761454, 0.00014377219486050308, 0.00021853650105185807, -0.00011869983427459374, 0.00018764875130727887, 2.647476867423393e-05, -7.93931212683674e-06, 0.00018290321168024093, 0.00014048258890397847, 2.9451986847561784e-05, -0.00017476518405601382, 7.301846198970452e-05, -2.8738011678797193e-05, 0.00031945633236318827, 0.00016087500262074172, 0.00018407180323265493, 5.3298426792025566e-05, 0.00020871877495665103, 0.00016946328105404973, 8.218853508878965e-08, 0.00018123508198186755, -8.062823326326907e-05, -0.0005875173956155777, 3.880230724462308e-05, -7.022080535534769e-05, 0.00015323063416872174, -0.00013890679110772908, -0.00046274391934275627, 7.069292041705921e-05, -0.00014143696171231568, 8.581329166190699e-05, 0.0003499746962916106, 0.00037782176514156163, 0.00023893604520708323, 7.323268800973892e-05, -0.0001453083095839247, -0.00024257911718450487, 0.00030440057162195444, -4.233257641317323e-05, -2.9611610443680547e-05, -1.6698930267011747e-05, -0.0003846347099170089, -2.1932430172455497e-05, -9.594891162123531e-05, 8.548921323381364e-05, 0.00010459993791300803, -0.00025965983513742685, 0.00016923286602832377, -3.4561271604616195e-05, -0.0003302088880445808, -0.0004912769654765725, 0.00012732109462376684, 1.0755373295978643e-05, -0.00011343942605890334], [-2.8383321932778927e-06, 0.0011722142808139324, -0.0010946810944005847, -0.0004981681704521179, 5.484756547957659e-05, 0.00037771795177832246, 6.088252121116966e-05, -8.589806384406984e-05, 0.00035384827060624957, 0.0005194658297114074, -0.00022430137323681265, -0.0005871427711099386, -8.727966815058608e-06, -6.493509135907516e-05, -0.0011112268548458815, 0.00010189890599576756, -0.0009858447592705488, -0.0006449375068768859, -0.0007326432969421148, -0.0006781129632145166, -0.0005710872355848551, -0.0001598266971996054, 1.950834302988369e-05, -0.0002850755990948528, 0.0008412903407588601, -0.0015781292458996177, 2.6211655494989827e-05, -9.191477874992415e-05, 0.00013455728185363114, -0.00025805688346736133, 0.00012845327728427947, -0.00038024535751901567, 0.0005956473178230226, 0.0006533949635922909, 0.012060916051268578, -0.0018236178439110518, -0.00016141426749527454, 0.00020806174143217504, -0.0003500441671349108, -9.4841823738534e-05, 0.0017896549543365836, -6.714530900353566e-05, 5.532399518415332e-05, 0.0004757718706969172, -0.00041122903348878026, -0.0007236776873469353, 0.0008826048579066992, -0.00013992784079164267, -4.867284224019386e-05, 0.0013947379775345325, 0.00013070569548290223, 1.5329344023484737e-05, 0.0008017683867365122, -0.0003894417022820562, 6.995937837928068e-06, 0.0005957312532700598, 0.00037424085894599557, 0.0012909627985209227, 0.0001227640314027667, 0.00021262766676954925, 0.0005532260402105749, 1.6818783478811383e-05, -8.676693141751457e-06, -3.335117071401328e-08, -0.001571029075421393, 4.128183354623616e-05, -0.0013071252033114433, -0.0001145566493505612, -0.00036174937849864364, 0.001052921055816114, 6.304262205958366e-05, -0.0017633659299463034, 0.0007103042444214225, 0.0017640686128288507, -0.0002141592267435044, -0.0004222770221531391, 0.00011425332195358351, 0.0003201558138243854, 0.0008965711458586156, 0.00021735155314672738, 0.0007469028932973742, 5.7351735449628904e-06, 4.863138747168705e-05, 0.00024803326232358813, 8.449712368019391e-06, -0.0006858602864667773, 0.00030896917451173067, -0.0003299493691883981, -0.00020289962412789464, -6.764403951819986e-05, 0.002058025449514389, -0.0010378401493653655, 0.0007433212012983859, 0.0010821513133123517, 0.0008959643309935927, -0.0013945886166766286], [-1.003555212264473e-06, 1.2850837265432347e-06, 3.997047315351665e-06, -7.09039966295677e-07, -3.78628783437307e-06, -7.6209053077036515e-06, -3.1604242849425646e-06, 2.9779803298879415e-06, -8.118527148326393e-06, -1.054116273735417e-05, -1.1793955536631984e-06, -1.7940169527719263e-06, -2.6859149215852085e-07, -1.630111569284054e-06, 8.331172466569114e-06, -2.8678189210040728e-06, -4.352407358965138e-06, -5.78226081415778e-06, 5.455536665976979e-06, 1.68969199876301e-05, 9.216475518769585e-06, -1.3249083394839545e-06, 3.2970397114695515e-06, 2.082790842905524e-06, -9.886747648124583e-06, -3.1785421015229076e-06, 1.058880684468022e-06, 2.3484931261918973e-06, -5.25074119650526e-06, -5.9791013882204425e-06, -7.87119734013686e-06, -7.081139301590156e-06, 1.6753721183704329e-06, 7.683428520977031e-06, -0.0001758468570187688, 2.349118403799366e-06, 3.8929993024794385e-06, -7.203947006928502e-06, 9.514917110209353e-06, 2.2495978555525653e-06, -1.2062479072483256e-05, 3.2406805985374376e-06, 1.169262986877584e-06, 2.9569939670182066e-06, 9.207969924318604e-06, -4.450083451956743e-06, 7.298887794604525e-06, 9.632902902012574e-07, -2.269166827773006e-07, -2.741590151345008e-06, 4.308869392843917e-06, 1.5088401141838403e-06, -7.907626240921672e-06, 7.359540177276358e-06, -8.936793278735422e-07, 7.088988240866456e-06, 3.1877229957899544e-06, -3.923466010746779e-06, 5.010128347748832e-07, 1.0660256521077827e-05, 6.403951715583389e-07, -3.1494840868617757e-07, 5.067969141236972e-06, -4.86369174268475e-07, -4.852439815294929e-06, 1.2215143669891404e-06, 2.500962409612839e-06, 2.1405444385891315e-06, -3.681847601910704e-06, -2.76625833066646e-05, 3.878075858665397e-06, -3.976011612394359e-06, -6.310701792244799e-07, -2.4967539502540603e-06, 1.4331430065794848e-05, 4.18293166148942e-06, 2.7670014333125437e-06, -3.935855602321681e-06, -8.917692866816651e-06, 1.2568004876811756e-06, -7.279649253177922e-06, -1.5657215044484474e-06, -3.032102995348396e-07, -1.2136750228819437e-05, -2.324164114497762e-07, -2.5863441805995535e-06, 2.953117018478224e-06, 1.1806422662630212e-05, -3.155531658194377e-06, 1.3707925745620742e-06, -9.104740456677973e-06, -5.671922167493904e-07, -1.1348071893735323e-05, -4.524795713223284e-06, -2.1425225895654876e-06, 4.428191459737718e-06], [-3.519446863720077e-06, 4.02654177378281e-06, 3.497488432913087e-05, 2.8146182557975408e-06, -1.8331858882447705e-05, -3.619486597017385e-05, -1.1898726370418444e-05, 1.4518505849991925e-05, -7.032221037661657e-05, -7.053758599795401e-05, -8.759567208471708e-06, -5.505396984517574e-06, -8.054252020883723e-07, -8.125805834424682e-06, 4.926265319227241e-05, -1.365187290502945e-05, -1.7735881556291133e-05, -2.120821227435954e-05, 3.227769411751069e-05, 7.627439481439069e-05, 8.003669790923595e-05, -2.747284725046484e-06, 8.987798537418712e-06, 1.2749581401294563e-05, -7.136692147469148e-05, 3.730725438799709e-06, 3.9248657230928075e-06, 9.451220648770686e-06, -1.869437073764857e-05, -1.7967313397093676e-05, -4.681678910856135e-05, -1.8663518858375028e-05, -9.088996222317292e-08, 1.9773289750446565e-05, -0.00023737359151709825, 2.6023704776889645e-05, 1.6958743799477816e-05, -3.281176395830698e-05, 5.711024277843535e-05, 1.0619111890264321e-05, -7.012057903921232e-05, 1.243160841113422e-05, 5.534521733352449e-06, 1.7027643480105326e-05, 5.836031414219178e-05, -1.167754817288369e-05, 3.110958277829923e-05, 4.669214831665158e-06, -7.334145379900292e-07, -5.537458036997123e-06, 1.4970568372518755e-05, 5.313093879522057e-06, -3.8897371268831193e-05, 4.114183320780285e-05, -3.0526005048159277e-06, 3.478186408756301e-05, 1.5606279703206383e-05, -4.896966402156977e-06, 1.2382482736938982e-06, 5.9692847571568564e-05, -7.040928721835371e-06, -2.1194339296926046e-06, 2.1226205717539415e-05, -2.490070073690731e-06, -1.2438032172212843e-05, 8.042918125283904e-06, 1.758976031851489e-05, 8.898276973923203e-06, -1.8104778064298443e-05, -0.00020719831809401512, 1.6633097402518615e-05, -1.3802408830088098e-05, -1.22165010907338e-05, -2.4662382202222943e-05, 8.199048897949979e-05, 3.128443131572567e-05, 1.0825634490174707e-05, -2.237477201560978e-05, -6.806351302657276e-05, 7.209121122286888e-06, -3.634051245171577e-05, -5.3732928790850565e-06, 8.152293844432279e-07, -5.756751852459274e-05, -1.0886245718211285e-06, -1.1166687727381941e-05, 8.999122655950487e-06, 6.91055174684152e-05, -1.0316466614312958e-05, 7.157729214668507e-06, -5.3533334721578285e-05, -4.066566816618433e-06, -5.011877146898769e-05, -4.902207820123294e-06, -4.519318099482916e-05, 1.960839654202573e-05], [-6.9264228841348086e-06, 6.888649750180775e-06, 5.890264219488017e-06, 8.877445907273795e-07, -5.36286552232923e-06, -6.67192944092676e-05, -2.3411568690789863e-05, 4.016476304968819e-05, -6.258564826566726e-05, 6.723386468365788e-05, -2.5703804567456245e-05, -1.9860995962517336e-05, -2.355705191803281e-06, -1.3263825167086907e-05, -4.2565297917462885e-06, -3.6323879612609744e-05, -2.984399179695174e-05, -1.025900746753905e-05, 5.429730299510993e-05, 0.00010770943481475115, 3.3813368645496666e-05, -7.4750432759174146e-06, 8.126173270284198e-06, 1.01801870187046e-05, -4.410138353705406e-05, -6.028800271451473e-05, 1.0005522199207917e-05, 2.3702254111412913e-05, -4.510577127803117e-05, -2.2504709704662673e-05, -7.467286923201755e-05, -3.721710163517855e-05, -5.427297764981631e-06, -3.7611920561175793e-05, -0.00029763331986032426, -2.644063533807639e-05, 4.55134068033658e-05, -7.393848500214517e-05, -2.430085078231059e-05, 2.9202888981672004e-05, -0.00011561888095457107, 2.618390499264933e-05, 1.6807376596261747e-05, -6.092710464145057e-06, 5.919735849602148e-05, -1.5425405308633344e-06, 4.511155930231325e-05, 6.737739568052348e-06, -2.927787932094361e-07, -3.892356289725285e-06, 3.631714207585901e-05, 1.0818868759088218e-05, -8.203920151572675e-05, 6.555077561642975e-05, -7.65178629080765e-06, -2.444087112962734e-05, 1.0228198334516492e-05, -1.6647197753627552e-06, 4.505880497163162e-06, 7.788985385559499e-05, 1.7891889001475647e-05, -6.4137025219679344e-06, 4.179433744866401e-05, -7.810861461621244e-06, -1.8109945813193917e-05, -1.2401943422446493e-05, 3.154630758217536e-05, 2.561818837421015e-05, -3.74111914425157e-06, -0.00014745631779078394, 7.495184945582878e-06, -3.173955701640807e-05, -1.2572877494676504e-05, 9.375693480251357e-06, 0.00015668368723709136, -0.0001400737528456375, 7.764385372865945e-06, 7.052835280774161e-05, -6.262669921852648e-05, 2.2734557205694728e-05, -8.658965089125559e-05, -1.128904023062205e-05, 5.468405106512364e-06, -7.38924863981083e-05, -3.3212538710358785e-06, -2.8376642148941755e-05, 6.691996532026678e-06, 3.435846883803606e-05, -2.9808259569108486e-05, 1.891503961815033e-05, -4.213673673802987e-05, -1.907023943203967e-05, -8.546809112885967e-05, -6.081559149606619e-06, 0.0001277897390536964, 3.393587394384667e-05], [8.106690074782819e-06, -5.3178315283730626e-05, -2.779773603833746e-05, -9.27185556065524e-06, 1.8048438505502418e-05, 5.6776852943585254e-06, 2.478005990269594e-05, -3.3608346711844206e-05, 6.351620686473325e-05, 0.00010624981950968504, 2.453530760249123e-05, 4.78960919281235e-06, 3.029104163942975e-06, 1.2230163520143833e-05, -3.724264752236195e-05, 3.689977165777236e-05, 6.63585087750107e-05, 9.519502054899931e-05, 1.7256570572499186e-05, -8.227251237258315e-05, 3.0265682653407566e-06, -9.446356671105605e-06, -6.062313696020283e-05, -2.759821836662013e-05, 0.00012631199206225574, 0.00013314741954673082, -2.9160701160435565e-06, -1.1014727533620317e-05, 5.095231972518377e-05, 4.2790321458596736e-05, 4.8743520892458037e-05, 8.118878758978099e-05, -4.088345667696558e-05, -0.0001607925078133121, 0.0008505232981406152, 9.277672506868839e-05, -4.8886962758842856e-05, 1.7257760191569105e-05, -9.997595770983025e-05, -3.3432286727475e-05, 3.0185992727638222e-05, -2.6870970032177866e-05, -1.9748389604501426e-05, -8.282686758320779e-05, -5.071808482171036e-05, 0.00010025533993029967, -0.00015329172310885042, -3.519841266097501e-05, 6.0407674027374014e-06, 2.2238862584345043e-05, -3.851513974950649e-05, -1.0180491699429695e-05, 1.0832040061359294e-05, -1.5173814063018654e-05, 4.953501047566533e-06, -0.0001470633433200419, -4.8807669372763485e-05, 3.7729976611444727e-05, -7.565476607851451e-06, -0.00015264953253790736, -6.532528641400859e-05, -2.1328387447283603e-06, -3.060892049688846e-05, 6.857725111331092e-06, 9.860718273557723e-05, -4.723885649582371e-05, -7.473458936146926e-06, -1.7066413420252502e-05, 8.495654037687927e-05, 0.00013128752470947802, -5.479523315443657e-05, 8.279435860458761e-05, -6.877434799434923e-08, -8.724862709641457e-05, -3.791311974055134e-05, -5.470277392305434e-05, -3.244122490286827e-05, 1.283528035855852e-05, 7.072621519910172e-05, -3.087490767939016e-05, -2.8280937840463594e-05, 1.0997543540725019e-05, -3.2653097150614485e-05, 5.435813363874331e-05, 1.049798697749793e-06, 9.830193448578939e-05, -5.8150260883849114e-05, -8.527849422534928e-05, 5.088249235996045e-05, -1.4652842764917295e-05, 9.245404726243578e-07, 5.8412824728293344e-06, 3.910292434738949e-05, 4.2029689211631194e-05, -4.3406718759797513e-05, 3.3725293178576976e-05], [-1.0560263945080806e-05, -6.035386832081713e-06, -0.0002281172201037407, -2.4465360183967277e-05, -2.8129779821028933e-05, -0.00013298314297571778, -4.6779394324403256e-05, 1.8453929442330264e-05, -0.00017021180246956646, -0.0003308823797851801, -2.0141493223491125e-05, -4.003129288321361e-05, -5.150031938683242e-06, -3.6369638110045344e-05, 0.00015592107956763357, -4.509727659751661e-05, -0.00012223389057908207, -1.3112758097122423e-05, 0.0001488135603722185, 0.0003205765679012984, -0.0003586275561247021, -1.553835318190977e-05, 1.1427787285356317e-05, -0.00016555814363528043, 0.0001253689406439662, 2.4882830985006876e-05, 2.735056114033796e-05, 4.818471643375233e-05, -0.00012141730985604227, -2.3596334358444437e-05, -8.915616490412503e-05, -7.538743375334889e-05, 1.0901315363298636e-05, 8.82982203620486e-05, 0.0006295987404882908, -7.330992957577109e-06, 9.187451360048726e-05, -0.00010833698615897447, 0.000251864199526608, 5.849158696946688e-05, -4.567895666696131e-05, 4.191836342215538e-05, 3.8677761040162295e-05, 5.266631342237815e-05, 0.00010294736421201378, -1.8707680283114314e-05, -0.0002730588603299111, -5.945228258497082e-05, -5.500879524333868e-06, 1.0435449439682998e-05, 9.599654731573537e-05, 2.4312894311151467e-05, -0.00011826691479654983, 6.408172339433804e-05, -1.9276916646049358e-05, 0.00014304656360764056, 6.693814793834463e-05, 1.992946636164561e-05, 8.204077857953962e-06, 0.000296936952508986, -6.660739018116146e-05, -8.86452562554041e-06, 9.173760190606117e-05, -2.0138631953159347e-05, -8.151730435201898e-05, 7.799832928867545e-06, -0.0002078646793961525, 7.127003482310101e-05, -3.7288562452886254e-05, -0.0005115293897688389, -4.7458561311941594e-05, -0.00013188777666073292, 0.0001372943224851042, -1.1293413990642875e-05, 0.0002820421359501779, 6.0541693528648466e-05, -4.8479114411748014e-06, -6.055923586245626e-05, -0.00013635253708343953, 3.812982686213218e-05, -0.00014826426922809333, -2.6451205485500395e-05, -6.809032493038103e-05, -0.00020549108739942312, -7.666702913411427e-06, -4.02561308874283e-05, -1.0369780284236185e-05, -0.00010776272392831743, -6.36520708212629e-05, 5.1455150241963565e-05, 0.0003033819666597992, -4.5493332436308265e-05, -0.00012612366117537022, 6.50059064355446e-06, -0.00014050689060240984, 5.499735561897978e-05], [1.5581492334604263e-05, -0.0002690509718377143, -0.00014624252798967063, 0.00012154771684436128, 5.370388680603355e-05, 1.3267829672258813e-05, 5.79412626393605e-05, -3.6022021959070116e-05, -1.8735663616098464e-06, 0.00027129933005198836, 6.192829459905624e-05, 0.00022036831069272012, 1.2089439223927911e-05, 9.981796756619588e-05, -4.119511868339032e-05, 8.677055302541703e-05, 0.0003738176601473242, 0.0001630058541195467, 9.167814278043807e-05, -0.00022960016212891787, -8.479417010676116e-05, 8.089406037470326e-06, -0.0001296309201279655, -0.00014579514390788972, 0.0006245348486118019, 0.0003501334285829216, -1.5436179410244222e-06, -3.9422586269211024e-05, 0.00015150191029533744, 0.00017272394325118512, 0.00016080924251582474, 0.00024844129802659154, -0.00014471291797235608, -0.0007037200848571956, 0.0014817944029346108, 0.0003103851922787726, -0.0001312080567004159, 8.915324724512175e-05, -0.0001840195618569851, -9.728458826430142e-05, 0.0002493360952939838, -6.454424874391407e-05, -8.848008292261511e-05, -0.0003501004248391837, -1.768893162079621e-05, 0.0004091147275175899, -0.0009483890607953072, -0.00010923267109319568, 4.946356420987286e-05, -0.0002052334457403049, -0.0001210591581184417, -2.308504372194875e-05, 0.0001125017661252059, 1.272004737984389e-05, 1.0886845302593429e-05, -0.00038249240606091917, -0.00013401021715253592, -0.00015417925897054374, -5.750097625423223e-05, -0.000513120205141604, -7.656894740648568e-05, -1.5824074580450542e-05, -0.00010280170681653544, 3.437912528170273e-05, 0.0004449221305549145, -0.0001152500553871505, 0.00029133932548575103, -3.7912886909907684e-05, 0.0004024000954814255, 0.00033366811112500727, -0.0004053438315168023, 0.0006491732783615589, -0.0001801986072678119, -0.0003652677405625582, -6.685878906864673e-05, -0.00019279183470644057, -1.991746830753982e-05, 0.0002379425277467817, -8.118570985971019e-05, -0.00012245606922078878, 3.0973638786235824e-05, 2.2828526198281907e-05, -6.583626964129508e-05, 0.00014696430298499763, 5.091299499326851e-06, 0.000569624884519726, -6.77121861372143e-05, -0.0005879068048670888, 0.00018356999498791993, -4.743253884953447e-05, -0.0003535578434821218, 0.000323254382237792, 6.655472679995e-05, -7.345448102569208e-05, 7.700268724875059e-06, 0.0002039180399151519], [2.3550605874333996e-06, -4.4292817619862035e-05, 3.8990961911622435e-05, 2.0002238670713268e-05, -6.858234701212496e-05, -1.0105755791300908e-05, -9.736638276081067e-06, 2.46761082962621e-05, -2.09807330975309e-05, -2.263361238874495e-05, 9.011136717163026e-05, 7.736074621789157e-06, -8.647348863632942e-07, -2.80871586255671e-06, 6.248701538424939e-05, -2.223962474090513e-05, 3.101214679190889e-05, 3.251843372709118e-05, 3.3998818253166974e-05, -1.347945180896204e-05, 0.0002235634165117517, 1.4633403225161601e-05, 3.1077129278855864e-06, 6.105183274485171e-06, -9.515158308204263e-05, 7.95360974734649e-05, 5.688812962034717e-06, 1.7396709154127166e-05, -1.719700412650127e-05, 6.792388376197778e-06, -5.0446738896425813e-05, -7.949431164888665e-06, -3.93986156268511e-05, 1.768596575857373e-07, -0.0015892911469563842, 1.669451557972934e-05, 2.9838520276825875e-05, -8.694583084434271e-05, 1.04827486211434e-05, 2.1509504222194664e-05, -0.0001357026194455102, 1.4093262507230975e-05, 7.947523954499047e-06, -9.545294233248569e-06, 4.592745244735852e-05, 8.634736150270328e-05, -4.4579584937309846e-05, 6.5516733229742385e-06, 8.367052032554056e-06, -3.7319845432648435e-05, 1.1630017070274334e-05, -2.0868847059318796e-06, -5.395546031650156e-05, 4.6305929572554305e-05, -5.2525283535942435e-06, -1.5163084754021838e-05, -9.078369475901127e-05, -4.1761530155781657e-05, -6.897156481500133e-07, 9.691796003608033e-05, -3.300162643427029e-05, 4.607677965395851e-06, 5.583934125752421e-06, -5.100788712297799e-06, 1.549903754494153e-05, 1.810118010325823e-05, 6.303015106823295e-05, 2.123466765624471e-05, -1.614722714293748e-05, -0.0006283248658291996, -2.648635199875571e-05, 6.604145892197266e-05, -4.711499059339985e-05, -0.00012736023927573115, -0.00015845854068174958, 8.83355678524822e-05, -2.7171412511961535e-05, -3.90827699447982e-05, -9.834550291998312e-05, 4.377763616503216e-06, -0.0001388542732456699, -2.112260062858695e-06, 8.841711860441137e-06, 6.527705409098417e-05, -2.849734073606669e-06, 4.470022031455301e-05, -5.1297385653015226e-05, 0.00017123707220889628, -1.3026095075474586e-05, 1.719011015666183e-05, -0.00014835811452940106, 1.5521687600994483e-05, -4.3105348595418036e-05, -4.835835352423601e-05, -0.0001252800866495818, 5.204167973715812e-05], [-2.1269845092319883e-05, 0.00023049487208481878, -2.953185685328208e-06, -8.184328180504963e-05, -6.241890514502302e-05, -9.903158934321254e-05, -8.058121602516621e-05, 0.00011323594662826508, -0.00011585363245103508, -0.0001363143528578803, -4.5629582018591464e-05, -0.00029093449120409787, -1.4599282621929888e-05, -5.081107883597724e-05, -3.5731191019294783e-05, -0.00011460104724392295, -0.00023566260642837733, -0.00018375611398369074, 2.4401713744737208e-05, 0.0003171006392221898, 0.00013624632265418768, -4.898042243439704e-05, 0.00011486263247206807, 2.6193822122877464e-05, -0.0001528829598100856, -0.0002910898474510759, 3.0161072572809644e-05, 5.779273487860337e-05, -0.00013678197865374386, -0.00020168298215139657, -0.00013718713307753205, -0.0003178801853209734, 5.1071074267383665e-05, 0.0001649305340833962, -0.00018568785162642598, -0.00014826064580120146, 0.00016085506649687886, -0.0002494733198545873, 9.279018559027463e-05, 0.0001410580734955147, -0.0001678562257438898, 8.267878729384392e-05, 0.00011777679901570082, 0.0001172886768472381, 0.00017343884974252433, -0.00011199442087672651, 0.00017587309412192553, 1.7826270777732134e-05, -8.738132237340324e-06, 0.0002930179762188345, 0.0001384345960104838, 2.9079339583404362e-05, -4.329531657276675e-05, 0.0001532339520053938, -2.3183709345175885e-05, 0.0001885797391878441, 0.00019160672673024237, 0.0002880175306927413, 6.170647975523025e-05, 0.00021440256386995316, 0.00015033120871521533, 8.648943548905663e-06, 0.00014259408635552973, -4.799638918484561e-05, -0.0006090686074458063, 4.159642776357941e-05, -3.3857562812045217e-05, 7.241684215841815e-05, -0.00011610248475335538, -8.797144255368039e-05, 0.00010394006676506251, -0.0003084415220655501, 5.1570983487181365e-05, 0.00025403505424037576, 0.0002471448387950659, 0.0001252233487321064, 6.284385017352179e-05, -5.020210664952174e-05, -2.112259971909225e-05, 0.000193415442481637, -6.970851245569065e-06, -3.661258233478293e-05, 2.0764914552273694e-06, -0.0002467812446411699, -1.0438689059810713e-05, -0.00012130224786233157, 0.0001066792756319046, 0.00010187645966652781, -0.00022385100601240993, 8.520577830495313e-05, 0.00017155168461613357, -0.00039152946555987, -0.00012554938439279795, 0.0002442777913529426, -1.4756968084839173e-05, -9.607203537598252e-05], [0.0023827163968235254, 0.0006307556759566069, -0.006206595338881016, -0.016827188432216644, 0.007371922954916954, 0.007261509075760841, 0.012540350668132305, -0.029128126800060272, 0.01496885810047388, 0.010396314784884453, 0.004623561631888151, 0.03953385725617409, 0.0027448951732367277, 0.0005205048946663737, -0.01712564192712307, 0.019458619877696037, -0.0015521461609750986, 0.008117839694023132, -0.005604641977697611, -0.047072164714336395, -0.018283121287822723, 0.0002278628817293793, -0.01872148923575878, -0.009888001717627048, 0.018579281866550446, -0.017956160008907318, -0.002439598785713315, -0.009128461591899395, 0.010837853886187077, 0.035019200295209885, 0.015429114922881126, 0.05705127492547035, 0.0024506847839802504, -0.00569705618545413, 0.2888394594192505, -0.006012343801558018, -0.020870720967650414, 0.01719643920660019, -0.012383665889501572, -0.024730945006012917, 0.022245170548558235, -0.01186488289386034, -0.023515693843364716, 0.0008166079642251134, -0.022327829152345657, -0.00763501413166523, -0.00733686238527298, -0.003919187933206558, 0.0026019765064120293, -0.03133781626820564, -0.00657303910702467, -0.00474071828648448, 0.0022732852958142757, -0.020414013415575027, 0.0031080911867320538, -0.0037203056272119284, 0.0010102386586368084, -0.033580899238586426, -0.010801783762872219, -0.009135427884757519, -0.013428677804768085, -0.0032506431452929974, -0.007695342879742384, 0.00970509834587574, 0.0777650699019432, -0.010451740585267544, -0.010755850933492184, -0.010719021782279015, 0.010226389393210411, 0.06063598766922951, -0.0025458424352109432, -0.00019858786254189909, 0.0003792193892877549, 0.017558636143803596, -0.030985014513134956, -0.020943500101566315, -0.0044644796289503574, 0.0005188469076529145, 0.025159427896142006, -0.03888038545846939, 0.015159343369305134, 0.006206779275089502, 0.00048628702643327415, 0.027895547449588776, 0.0026055031921714544, 0.01137565914541483, -0.005803588777780533, -0.021073253825306892, 0.035367451608181, -0.010629341937601566, 0.01892707496881485, 0.053537189960479736, 0.024907052516937256, -0.028819460421800613, 0.023871371522545815, -0.01250420231372118], [-6.264341664063977e-06, 0.000840087712276727, -0.00025396078126505017, -0.0003496312419883907, 0.00014067866140976548, 0.00036333006573840976, 2.4426586605841294e-05, -0.00011970257037319243, 0.00045823241816833615, 0.0008861770620569587, -0.0001485717948526144, -0.00024733395548537374, 1.3033213690505363e-06, 1.0676167221390642e-05, -0.000381428690161556, 0.00010160569217987359, -0.0006072630640119314, -0.0003875107504427433, -0.0004950279253534973, -0.0010464262450113893, -0.0006093935226090252, -0.00012957179569639266, -0.00015557931328658015, -0.00014303547504823655, 7.169357559178025e-05, -0.0012598854955285788, 2.7868911274708807e-05, -3.945839489460923e-05, 4.369681118987501e-05, -0.00011597511183936149, 0.00033039183472283185, -0.00028443674091249704, 0.00028430004022084177, 0.00011405580153223127, 0.008121307007968426, -0.0003849550266750157, -0.00010392736294306815, 0.00015206326497718692, -0.00022539347992278636, -8.280922338599339e-05, 0.00033496576361358166, -2.9939790692878887e-05, -3.8448160921689123e-07, 0.00017666361236479133, -0.0008988642366603017, -0.00035273429239168763, 0.0003793095238506794, -6.675106124021113e-05, -2.056602170341648e-05, 0.0005705137737095356, 7.430361438309774e-05, 4.8000038077589124e-06, 0.0013243950670585036, -0.00038223748560994864, 2.878750365198357e-06, 0.00012446420441847295, 0.0005142883164808154, 0.0005304731894284487, 4.335054836701602e-05, -0.00011579899728531018, 0.0004024792870040983, 1.0013466180680552e-06, 2.3554659492219798e-05, 1.069072459358722e-05, -0.0007750767399556935, -9.093114931602031e-05, -0.0006095342105254531, -5.819671423523687e-05, -0.00016049442638177425, 0.0008813833119347692, 3.808011024375446e-05, -0.0009510965319350362, 0.0002711996785365045, 0.0012236968614161015, -0.0005358656635507941, -0.000650271656922996, 1.2981945474166423e-05, 0.00014419002400245517, 0.0004859547480009496, 6.843455776106566e-05, 0.0004354219126980752, 3.570085027604364e-06, 1.3003875210415572e-05, 0.00018636065942700952, 4.154071575612761e-06, -0.0002871749456971884, 0.00017005806148517877, -8.286282536573708e-05, -5.1177026762161404e-05, -4.531966624199413e-05, 0.0006848032353445888, -0.00032059321529231966, 0.0005507808527909219, 0.0005174898542463779, 0.0009746942669153214, -0.0006607421091757715], [-3.7413230984384427e-06, 3.158899926347658e-05, 3.0326718842843547e-05, -2.427055915177334e-05, -2.8451016987673938e-05, -3.5839519114233553e-05, -1.682778020040132e-05, 3.209752685506828e-05, -3.0510987926390953e-05, -5.983217852190137e-05, -3.712188845383935e-05, -2.9274040571181104e-05, -1.5071902907948243e-06, -1.6022899217205122e-05, 7.256397657329217e-05, -2.61718851106707e-05, -5.02061920997221e-05, -8.002200775081292e-05, 3.4226355637656525e-05, 9.43183695198968e-05, 3.51941998815164e-05, -2.2062482457840815e-05, 2.8170979931019247e-05, 2.561289511504583e-05, -0.00011998684203717858, -0.00010431568080093712, 4.197801899863407e-06, 9.793357094167732e-06, -2.8979078706470318e-05, -2.5048117095138878e-05, -7.437714521074668e-05, -4.934327080263756e-05, -1.9212263850931777e-06, 5.7306551752844825e-05, 0.00014624028699472547, -4.8338042688556015e-05, 3.124511204077862e-05, -6.18651247350499e-05, 8.201668242691085e-05, 2.3659691578359343e-05, -0.00010158136865356937, 1.9263037756900303e-05, 1.4025189557287376e-05, 4.884935697191395e-05, 9.201490320265293e-05, -4.6049819502513856e-05, 0.00010035942250397056, 7.846505468478426e-06, -2.265147031721426e-06, 4.4220691052032635e-05, 2.3142818463384174e-05, 5.53213203602354e-06, -3.522135739331134e-05, 7.749053474981338e-05, -3.1066360861586872e-06, 0.00010351893433835357, 2.0339350157883018e-05, 3.446840128162876e-05, 7.394402928184718e-06, 0.00011823834938695654, 5.550119749386795e-05, -8.682430916451267e-07, 3.212438241462223e-05, -5.528481324290624e-06, -9.862271690508351e-05, 8.665194400236942e-06, 1.0038942491519265e-05, 1.1297728633508086e-05, -5.145165414432995e-05, -4.960272053722292e-05, 3.8773443520767614e-05, -7.047773397061974e-05, 9.772148587217089e-06, 7.820611062925309e-05, 0.00014938361709937453, 1.702504960121587e-05, 2.7720567231881432e-05, -2.111210415023379e-05, -7.522921077907085e-05, 2.0907060388708487e-05, -4.832769627682865e-05, -5.462627996166702e-06, 3.0027495085960254e-06, -7.590419409098104e-05, -1.7295933503191918e-06, -3.808395558735356e-05, 4.737887502415106e-05, 8.964306471170858e-05, -2.6745170544018038e-05, 1.5656298273825087e-05, -2.9080634703859687e-05, -3.733646735781804e-05, -5.694681021850556e-05, 2.2769654606236145e-05, 3.364005533512682e-05, 2.828066953952657e-06], [-1.2714150216197595e-05, 8.2939222920686e-05, 0.0003752940974663943, -2.1548861695919186e-05, -0.0002470319450367242, -0.000215185311390087, -0.0001217279932461679, 0.0002522227878216654, -0.00031386310001835227, -0.000891387346200645, -0.00016488501569256186, -0.0001775306445779279, -9.641102224122733e-06, -8.532505307812244e-05, 0.0010012276470661163, -0.0001810276007745415, -0.00023430628061760217, -0.00037098454777151346, 0.0002841563255060464, 0.0006092794355936348, 0.0004013933357782662, -6.623007357120514e-05, 0.00023560694535262883, 0.0001717774721328169, -0.0008028818992897868, -1.1782964065787382e-05, 9.383591532241553e-06, 4.925972825731151e-05, -0.00014361760986503214, -0.00016097622574307024, -0.000423930527176708, -0.0003096258733421564, -0.0001206063898280263, 0.0005267917294986546, -0.0025075222365558147, 0.00013087672414258122, 0.0002051606134045869, -0.00040140055352821946, 0.0006492863176390529, 0.00020594903617165983, -0.0007237240788526833, 0.00013782970199827105, 0.00010694072261685506, 0.00026262988103553653, 0.0006723771803081036, -8.727364183869213e-05, 0.00042905937880277634, 6.225344259291887e-05, -1.194998185383156e-05, 0.0001432334684068337, 8.546528988517821e-05, 2.3187607439467683e-05, -0.00025725961313582957, 0.0005858504446223378, -1.1164874194946606e-05, 0.0006115928408689797, 4.308182906243019e-05, 0.00012475957919377834, 4.604171044775285e-05, 0.0007672624196857214, 0.00019144313409924507, 2.265506554977037e-05, 0.0001605450815986842, -4.835857544094324e-05, -0.0004728514759335667, 7.285433093784377e-05, 0.00013459232286550105, 5.215506098465994e-05, -0.0003027243947144598, -0.0007551064481958747, 0.00032474941690452397, -0.0002541822905186564, 6.921445674379356e-07, -3.176974132657051e-05, 0.0006001052679494023, 0.0007835006108507514, 0.00017123199359048158, -0.0003810629714280367, -0.000583135464694351, 0.00016344313917215914, -0.00037293139030225575, -2.7050633434555493e-05, 2.287899587827269e-05, -0.00041609822073951364, -1.0142905011889525e-05, -0.00014570957864634693, 0.00022391068341676146, 0.0007455769809894264, -0.0001753986143739894, 0.0001248833432327956, -0.000398327101720497, -0.0002252085250802338, -0.0004303744644857943, 6.762396515114233e-05, -0.00046129280235618353, 0.00014009412552695721], [-1.7988502804655582e-05, 9.306262654718012e-05, 0.00010942799417534843, -4.777782305609435e-05, -0.00010271870269207284, -0.00017976197705138475, -0.00010766424384200945, 0.00018607478705234826, -8.543131116311997e-05, -0.00020421770750544965, -2.2411284589907154e-05, -8.592201629653573e-05, -5.8869591157417744e-06, -4.4130676542408764e-05, 0.00012096231512259692, -0.00017398418276570737, -0.00019428969244472682, -0.00014436294441111386, 0.00010857225424842909, 0.00044532856554724276, 7.458565232809633e-05, -5.5839947890490294e-05, 7.098352944012731e-05, 7.30621613911353e-05, -0.00020866321574430913, -0.0001836586743593216, 3.147602183162235e-05, 6.935515557415783e-05, -0.0001586068538017571, -4.794257984030992e-05, -0.0001753549004206434, -0.00015321411774493754, -4.364944834378548e-05, 0.00018295188783667982, 0.0001724374305922538, 1.6144516848726198e-05, 0.0002060381229966879, -0.00030693793087266386, 0.000158108799951151, 0.00017544599540997297, -0.0003098592860624194, 0.00012142804189352319, 6.732485780958086e-05, 0.00015688540588598698, 0.00022031139815226197, -5.8795259974431247e-05, 0.00017006866983138025, 8.986143257061485e-06, 2.4739972559473244e-07, -1.6779413272161037e-06, 0.0001064741300069727, 2.394308103248477e-05, -0.00017631299851927906, 0.0002523015718907118, -2.1609215764328837e-05, 0.0002260603359900415, 6.445395410992205e-05, 1.163416527560912e-06, 1.3115424735588022e-05, 0.00035487921559251845, 0.0001376244326820597, 3.2651096262270585e-06, 0.0001411496486980468, -3.0343411708599888e-05, -0.00016775638505350798, 2.443703488097526e-05, 7.883338184910826e-06, 0.00010038865730166435, -0.00012335508654359728, -0.00032839018967933953, 8.422501559834927e-05, -0.00017436860071029514, 6.663385283900425e-05, 0.00017180058057419956, 0.00030314037576317787, 0.00014732709678355604, 5.5705575505271554e-05, -8.42278532218188e-05, -0.00018646522948984057, 0.0001001490672933869, -0.00021921169536653906, -3.121043846476823e-05, -2.1897063561482355e-05, -0.000335957040078938, -9.481576853431761e-06, -3.839339842670597e-05, 0.0001246159226866439, 0.0002706525847315788, -0.00011960043048020452, 0.0001289272913709283, -0.00016410394164267927, -6.34367170277983e-05, -0.00027093588141724467, -8.095373232208658e-06, -9.763761045178398e-05, 4.753030225401744e-05], [3.0217995572456857e-06, 2.2155076294438913e-05, 1.7595612007426098e-06, -1.9867258743033744e-05, -1.57848098751856e-05, 1.582931145094335e-05, 4.149421329202596e-06, -1.6570979823882226e-06, -1.3899380064685829e-05, -4.638567043002695e-05, -3.375017513462808e-06, -7.109005082384101e-07, 1.0268712458127993e-06, -4.684764917328721e-06, 2.1693262169719674e-05, 1.3336109532247065e-06, -2.0533925635390915e-05, -6.930275412742049e-05, -1.1029183951904997e-05, -4.081012593815103e-05, 4.4430991692934185e-05, -1.2216445611556992e-05, -7.340449428738793e-06, 1.1523592547746375e-05, -5.216141289565712e-05, -8.11560166766867e-05, -2.4506227873644093e-06, -5.689803856512299e-06, 4.696402811532607e-06, 1.9534010789357126e-05, 3.7543186408584006e-06, 1.3737069366470678e-06, -2.8048532385582803e-06, 9.14619886316359e-05, 0.0006000852445140481, -3.3101208828156814e-05, -2.5082167667278554e-06, -1.611558036529459e-05, 3.3927390177268535e-05, -4.0207737583841663e-07, 1.8922582967206836e-06, -2.170106881749234e-06, -3.7990298551449087e-06, 3.977434244006872e-05, 2.411712921457365e-05, -3.7464626075234264e-05, 6.457951531047001e-05, 