{"lstm.weight_ih_l0": [[0.060149360448122025], [1.1071933507919312], [0.041371140629053116], [-0.13100449740886688], [0.029516169801354408], [-0.2274126410484314], [-0.22255028784275055], [0.1881830096244812], [-0.011970342136919498], [0.24975234270095825], [-0.21631741523742676], [-0.023478934541344643], [0.28767651319503784], [0.2523711025714874], [-0.09282960742712021], [-0.19841241836547852], [-0.09524106234312057], [4.45626163482666], [-0.10724776983261108], [-0.005386113654822111], [-0.10845909267663956], [-0.3319668471813202], [0.15875370800495148], [0.12712274491786957], [-0.1156633272767067], [0.07949773222208023], [-0.3829415738582611], [-0.0606306716799736], [0.06165965646505356], [-0.568327784538269], [0.25119638442993164], [-0.021025527268648148]], "lstm.weight_hh_l0": [[-0.5096690654754639, -0.28430068492889404, -0.9694913625717163, 0.36012572050094604, -0.22176672518253326, 0.4786303639411926, 0.34070366621017456, 0.0952121913433075], [0.19067607820034027, 0.22733157873153687, -0.33739393949508667, 0.3683353364467621, -0.1205046996474266, -0.5497369766235352, -0.12886589765548706, 0.07813828438520432], [-0.6292779445648193, 0.39171722531318665, -0.1621624231338501, 0.25453007221221924, 0.0632232129573822, 0.5475079417228699, 0.6317684650421143, -0.2660987675189972], [-0.523040235042572, -0.3045707941055298, -1.312674641609192, 0.6891959309577942, 0.5383583307266235, 0.6757597923278809, 0.503391683101654, 0.04471882805228233], [-0.2805091440677643, -0.1972658634185791, -0.8994949460029602, 0.873837411403656, -0.2502070963382721, 0.363882839679718, 0.228377565741539, 0.2154415249824524], [-0.5488746166229248, -0.3269948959350586, -1.1644387245178223, 0.16987808048725128, 0.41325312852859497, 0.7888073325157166, 0.8962605595588684, 0.04437468573451042], [-0.35418933629989624, -0.2520148456096649, -2.0088205337524414, 0.25201135873794556, -0.20937399566173553, 0.6128666996955872, 0.6527047753334045, 0.36202752590179443], [-0.1375138908624649, -0.415017694234848, 0.05876100808382034, -0.23368488252162933, -0.12853963673114777, -0.31597569584846497, 0.21215622127056122, 0.14187774062156677], [0.1507260650396347, 0.42081737518310547, 0.5540375113487244, -0.0049840426072478294, 0.21839070320129395, 0.6344825625419617, 0.6249731183052063, -0.23574107885360718], [0.3929974138736725, 0.5384814739227295, 0.45570108294487, -0.15931642055511475, 0.147621750831604, -0.5209088325500488, -0.8508409857749939, 0.11711618304252625], [-0.19879966974258423, -0.016181033104658127, 0.7598485946655273, 0.5600762367248535, -0.4876808226108551, 0.19009429216384888, -0.47972631454467773, -0.23410648107528687], [1.1712347269058228, 0.5953999757766724, 1.092064619064331, 0.08256832510232925, -0.58832848072052, -1.010306715965271, -0.0487770177423954, 1.1107252836227417], [0.44558092951774597, 0.34120792150497437, 0.8942775130271912, -0.21318665146827698, -0.047599468380212784, -0.44422489404678345, -0.5565375089645386, 0.35266029834747314], [0.0843653455376625, 0.3958493769168854, 0.5135303735733032, 0.7621180415153503, -0.46519702672958374, -0.09746219217777252, -0.3325660228729248, 0.35452011227607727], [1.6796810626983643, 0.23021681606769562, 0.7723102569580078, -0.6127830743789673, 0.6293113231658936, -0.33289819955825806, -0.7767598032951355, 0.35558417439460754], [-0.21933165192604065, 0.1962675005197525, 1.8155021667480469, 0.33469927310943604, 0.3447645604610443, -0.5303393006324768, -0.13400427997112274, 0.14631009101867676], [0.11688631027936935, -0.32008829712867737, 0.12159847468137741, 0.4236277937889099, 0.13720226287841797, -0.08003904670476913, 1.024315595626831, -0.514165461063385], [0.1653328835964203, 0.7361555695533752, -0.08342234790325165, 0.14798277616500854, 0.0896320790052414, 0.2420017123222351, -0.2220391035079956, -0.04134662449359894], [-0.3411727845668793, -0.2854897081851959, -0.05076214671134949, 0.8350462913513184, -0.40087538957595825, 0.4984329044818878, -0.025092914700508118, -0.23616911470890045], [0.031210459768772125, 0.006973566021770239, -0.07609780132770538, 1.1220107078552246, -0.9243170619010925, 0.18455085158348083, -0.5942689776420593, 0.028695398941636086], [0.49362626671791077, -0.08243852108716965, 0.3757086992263794, 0.19838638603687286, -0.08365575969219208, 0.36362922191619873, 0.5982380509376526, 0.7132375836372375], [-0.07484438270330429, 0.18423576653003693, -0.05037916824221611, 0.3154127299785614, 0.25458255410194397, 0.6681221127510071, -0.28347766399383545, -0.429422527551651], [-0.5590683817863464, 0.5780993103981018, 0.24826009571552277, 0.5143647789955139, -0.2660740911960602, 0.07038149982690811, 0.8914428353309631, -0.36150211095809937], [1.1715999841690063, 0.30664706230163574, 0.20367646217346191, 0.9273731112480164, 0.007182147819548845, 0.18507307767868042, 0.2538144886493683, 0.44680240750312805], [-0.2979428172111511, -0.8587105870246887, 0.48175549507141113, 0.17918477952480316, 0.6779440641403198, -0.12019698321819305, -0.4358256459236145, 0.18918785452842712], [0.12524940073490143, -0.021517693996429443, -0.015745393931865692, -0.18587756156921387, 0.029472986236214638, 0.4195705056190491, 0.828609049320221, -0.23276835680007935], [0.5882327556610107, -0.434169739484787, 0.984849214553833, 0.31394463777542114, 0.4027636647224426, 0.24821807444095612, -0.2523334324359894, 0.6793643832206726], [0.0783643126487732, 0.060775820165872574, 0.1902734488248825, 0.7414131760597229, -1.9568238258361816, 1.0781246423721313, -0.48261114954948425, -1.162554383277893], [0.7620709538459778, 0.04930635541677475, 0.2606367766857147, -0.5409703254699707, -0.6854546666145325, -0.22434037923812866, -0.190871000289917, -0.27995720505714417], [0.5482960343360901, 0.25826698541641235, -0.016593288630247116, 0.08240225166082382, -0.20016534626483917, -0.47781842947006226, -0.3143251836299896, -1.167297124862671], [0.2672364115715027, -0.14412014186382294, 0.5562701225280762, -0.04598238319158554, -0.05837602540850639, -0.02093191258609295, -0.10104762762784958, -0.8514969348907471], [0.5308862924575806, 0.5052323937416077, -0.3572580814361572, -1.3991224765777588, -0.6481510996818542, -0.7423648238182068, -0.14585933089256287, -1.1092277765274048]], "lstm.bias_ih_l0": [-0.6087210774421692, 0.3278147578239441, -0.36697232723236084, -1.162422776222229, -0.9819332361221313, -1.011832356452942, -0.832237720489502, -0.6297694444656372, 1.4090200662612915, 0.3734896183013916, 0.7805649638175964, 1.816664218902588, 1.4678245782852173, 1.6707500219345093, 1.4663279056549072, 0.5673168301582336, 0.11566169559955597, 0.08661802113056183, 0.41245853900909424, -0.1480327993631363, 0.11613944917917252, -0.09251165390014648, -0.010074079968035221, -0.17739620804786682, 0.5375182032585144, 0.19483132660388947, 0.639863133430481, 0.24833613634109497, 0.5062886476516724, 0.028137551620602608, 0.40101054310798645, 0.4360257685184479], "lstm.bias_hh_l0": [-0.5903284549713135, 0.4170823097229004, -0.36301136016845703, -0.95988529920578, -0.9504224061965942, -0.9666405320167542, -0.9598730206489563, -0.6995093822479248, 1.4401618242263794, 0.3216193914413452, 0.8445127010345459, 1.5957447290420532, 1.46295964717865, 1.790595293045044, 1.3684240579605103, 0.41880887746810913, -0.06887059658765793, -0.05198070779442787, 0.22008226811885834, 0.06757654994726181, -0.27724096179008484, 0.03292197361588478, -0.3878401517868042, -0.022755831480026245, 0.5791014432907104, -0.05807305872440338, 0.7647103071212769, 0.18250258266925812, 0.5006937980651855, 0.14043384790420532, 0.08259832859039307, 0.4413646161556244], "dense.weight": [[0.07471657544374466, -0.06612544506788254, -0.028399642556905746, -0.4449605345726013, -0.8974459767341614, 0.5213263630867004, -0.15006119012832642, 0.4150693118572235]], "dense.bias": [0.0014003985561430454]}