{"lstm.weight_ih_l0": [[0.20667988061904907], [0.005173943471163511], [0.015707731246948242], [0.0008958652033470571], [0.04717199504375458], [-0.002466884208843112], [-0.013159384950995445], [-0.09515511244535446], [5.616777343675494e-05], [-0.01202709972858429], [-0.0013094372116029263], [0.03459416329860687], [-0.0019646943546831608], [-0.02000414952635765], [-0.06954117119312286], [-0.0023141861893236637], [0.7998775243759155], [-0.008030068129301071], [-0.014672420918941498], [-0.18582601845264435], [-0.02357415482401848], [0.05730108171701431], [-0.009756491519510746], [-0.0034527324605733156], [0.03624311089515686], [-0.024464750662446022], [0.0069578420370817184], [-0.0213906429708004], [-0.00598266813904047], [-0.0010415030410513282], [-0.012761957012116909], [-0.10440602898597717], [0.21936888992786407], [0.007161980029195547], [0.012343336828052998], [0.00036039401311427355], [0.06614801287651062], [-0.0027519743889570236], [-0.010692260228097439], [-0.09729534387588501], [-0.03767917677760124], [-0.009182109497487545], [-0.0009963891934603453], [0.03810003399848938], [-0.007549422327429056], [-0.013152834959328175], [-0.05910901352763176], [-0.002176170004531741], [1.2667375802993774], [-0.005975272506475449], [-0.009699154645204544], [-0.13639949262142181], [-0.024909699335694313], [0.03610868379473686], [-0.007078266702592373], [-0.0028026304207742214], [0.037353966385126114], [-0.014310106635093689], [0.008487548679113388], [0.03954482823610306], [-0.005789801478385925], [-0.0009485806222073734], [-0.01394499558955431], [-0.08757173269987106], [-0.07531198114156723], [0.01732802204787731], [0.1219085231423378], [0.07980486005544662], [-0.36091622710227966], [0.0570400096476078], [-0.05507367104291916], [0.2066667675971985], [0.12536007165908813], [0.05831423029303551], [0.06767669320106506], [0.00985893327742815], [-0.024564199149608612], [-0.1541852205991745], [0.1752396672964096], [0.10028039664030075], [0.5496158599853516], [-0.0502721332013607], [0.05938611552119255], [-0.3344915211200714], [-0.01693132147192955], [-0.12390106171369553], [-0.08467825502157211], [-0.015574997290968895], [-0.10928449034690857], [0.2521008849143982], [0.029361065477132797], [-0.42071858048439026], [-0.01852170005440712], [-0.024236837401986122], [0.0014246641658246517], [0.19558770954608917], [0.14816975593566895], [0.0067667304538190365], [0.014003388583660126], [0.003169137518852949], [0.058339327573776245], [-0.0018382734851911664], [-0.013236727565526962], [-0.04116753488779068], [-0.028488388285040855], [-0.011757885105907917], [-0.0002926719025708735], [0.022740261629223824], [-0.0008607754716649652], [-0.0204278826713562], [-0.06802216172218323], [-0.0024645463563501835], [0.9417169690132141], [-0.007928377948701382], [0.003768926952034235], [-0.16998381912708282], [-0.012235508300364017], [0.047540828585624695], [-0.00936551857739687], [-0.003079991554841399], [0.0601644292473793], [-0.021966854110360146], [0.007299616001546383], [-0.03443942219018936], [-0.0060394988395273685], [-0.0023210805375128984], [0.008692238479852676], [-0.10982279479503632]], "lstm.weight_hh_l0": [[0.05794801563024521, 0.031610723584890366, 0.05182300880551338, -0.04885833337903023, 0.006086233537644148, -0.003987577278167009, 0.011557841673493385, 0.088679239153862, 0.020221108570694923, 0.003240087302401662, 0.008202500641345978, -0.007570657879114151, -0.00164769624825567, 0.008109265938401222, -0.006514664273709059, -0.012317727319896221, 0.146062970161438, 0.00490355072543025, 0.0016984418034553528, -0.01586800441145897, 0.046097297221422195, 0.09642603248357773, 0.007215786259621382, -0.002535866340622306, 0.14630310237407684, -0.0339779369533062, 0.00588903808966279, -0.01767786592245102, 0.001091723213903606, -0.029837777838110924, -0.0665552094578743, -0.019901134073734283], [0.006222727708518505, -0.0005367000703699887, 0.0028593388851732016, 3.9480175473727286e-05, 0.018404729664325714, 1.3551270058087539e-05, -6.566965021193027e-05, 0.0019721142016351223, 0.006329376716166735, 4.97066412208369e-06, 2.3530123144155368e-05, 0.004577968269586563, 1.8411537894280627e-05, -6.932496762601659e-05, 0.00024662233772687614, 5.4133568482939154e-05, -0.001658329158090055, -4.495570101425983e-05, 0.004096062853932381, -7.666753663215786e-05, 0.0004579818050842732, 0.0005584434838965535, -7.199355604825541e-05, -9.465769107919186e-05, 0.005121072754263878, 6.768944149371237e-05, 8.351747965207323e-05, 6.739242235198617e-05, 1.6042387869674712e-05, -0.007368618622422218, -0.002385358791798353, -0.00022230630565900356], [0.023109978064894676, -0.0003443464229349047, 0.0018055008258670568, 0.005214125849306583, 0.008793425746262074, 4.0247930883197114e-05, 0.001052719191648066, -0.022776544094085693, 0.00633891811594367, 0.00020175377721898258, -0.0001611649349797517, 0.022550834342837334, 0.0005417174543254077, -0.00031096706516109407, -0.006893691141158342, 0.00018567551160231233, 0.002745251404121518, -0.00022705852461513132, 0.005063251126557589, -0.0020853525493294, -0.0008927935850806534, -0.0005552673828788102, -0.0002369209105381742, 0.00022748857736587524, 0.010545245371758938, 0.0007545684347860515, -0.00036405870923772454, -0.0023354063741862774, -9.732503531267866e-05, -0.019257307052612305, 0.006505545228719711, 0.0028634637128561735], [-0.0011204453185200691, 0.0002006425493163988, 0.0002939508995041251, -0.0009387282771058381, -0.00331691256724298, -7.97859684098512e-05, 0.00013745843898504972, 0.0044459751807153225, 0.0015233387239277363, -8.750100096222013e-05, 6.689768633805215e-05, 0.00027951804804615676, -0.00011634149996098131, 5.7090834161499515e-05, -0.00024303028476424515, -4.3432410166133195e-05, -0.004939504899084568, 3.459320942056365e-05, 7.736362749710679e-05, 0.0009782257257029414, 0.0002482533745933324, 0.0013012727722525597, -2.0132623831159435e-05, 0.00014902597467880696, 0.005145741160959005, -0.0003535949799697846, 0.0002645074564497918, 0.0017100721597671509, 8.222152973758057e-05, 0.001440305495634675, -0.009592094458639622, -0.00038046203553676605], [0.04159865528345108, -0.0024234012234956026, -0.0014454182237386703, -0.005949823185801506, -0.0023409768473356962, 0.0006726332940161228, 0.007559706922620535, 0.057240258902311325, 0.03219161555171013, -0.0026435989420861006, 0.0002660253085196018, 0.0013789704535156488, 0.0026903697289526463, 0.004240014124661684, -0.008574694395065308, -0.00039469849434681237, 0.0872364193201065, 0.0059663960710167885, -0.011897144839167595, 0.0038810221012681723, 0.002784943440929055, 0.00892260205000639, 0.005627698265016079, 0.0027461114805191755, 0.051204606890678406, -0.006239456124603748, 0.0008329359698109329, 0.022261489182710648, 0.0026279527228325605, -0.020332420244812965, -0.02124849334359169, -0.006463990081101656], [0.002869680058211088, -2.42893656832166e-06, 0.0005854109767824411, -0.00036156116402707994, 0.002191218314692378, 0.0009236705955117941, 0.0014226355124264956, 0.0013508701231330633, 0.0019238380482420325, -0.00037360659916885197, 0.0007481361972168088, 0.00030696220346726477, 0.0005942323477938771, 0.0005732587305828929, -0.001229482120834291, 0.0005592007073573768, -0.019436178728938103, 0.0006270169396884739, 0.001159168197773397, 0.002970188856124878, 0.00027329224394634366, 0.00060478929663077, 0.0003917034191545099, 0.0002474771754350513, 0.0018792581977322698, -0.0017301501939073205, 0.0007398067973554134, 0.002050584414973855, 0.0006886855699121952, -0.000691076333168894, -0.0008402559906244278, -0.001451983000151813], [0.013539541512727737, 4.064575477968901e-06, 0.0003352306957822293, -0.00048106894246302545, 0.010868920013308525, 0.0010727493790909648, 0.000885259360074997, 0.005949208978563547, 0.002364808227866888, -0.0011374338064342737, 0.0011685807257890701, 0.0010671268682926893, -0.0005410921876318753, 0.0020110756158828735, -0.001899263821542263, 0.0002035653596976772, -0.020016498863697052, 0.0009121006587520242, 0.0028366446495056152, 0.0029666894115507603, -0.0007348041399382055, 0.0013216123916208744, 0.001067369244992733, 0.0005933078355155885, 0.00538122421130538, -0.0033177032601088285, 0.0008472935878671706, 0.004422356374561787, 0.0006998352473601699, -0.00269554415717721, -0.0022233864292502403, -0.0020139766857028008], [0.09488211572170258, 0.012066368944942951, 0.01922440715134144, -0.06313536316156387, 0.07932981848716736, -0.0008271147962659597, 0.004309460986405611, 0.045665789395570755, 0.050211284309625626, -0.002417562995105982, -0.004382841754704714, -0.05619160830974579, -0.016643261536955833, 0.013779656030237675, -0.03879416361451149, -0.0055413939990103245, -0.14691771566867828, 0.0025558865163475275, 0.06241150572896004, 0.04238363355398178, 0.045657988637685776, 0.029139533638954163, 0.004651250783354044, 5.998340202495456e-05, 0.07464554160833359, -0.0391816608607769, 0.00874423235654831, 0.06129299849271774, 0.005031322129070759, -0.04802288860082626, -0.1003374457359314, -0.028504999354481697], [0.11192589998245239, 0.02190478891134262, 0.0110189039260149, -0.03234516456723213, -0.014013121835887432, -0.0048585571348667145, 0.022052288055419922, -0.05251561105251312, 0.022396506741642952, -0.0002778716734610498, -0.005057001020759344, 0.03273645043373108, -0.0073458002880215645, 0.013839899562299252, 0.03431679308414459, -0.008596044965088367, -0.06945401430130005, 0.0033684242516756058, -0.026090947911143303, 0.022815395146608353, 0.05823063477873802, 0.10113316029310226, 0.0076300580985844135, -0.009274287149310112, 0.0210178941488266, -0.03998894616961479, 0.011052402667701244, 0.062176309525966644, 0.0016351708909496665, -0.006501978263258934, -0.08719652146100998, 0.014214283786714077], [0.013513555750250816, 0.000435246474808082, -7.406373333651572e-05, -0.0006309690652415156, 0.010247728787362576, 0.00029552457272075117, 0.0008393515017814934, 0.006183953490108252, 0.002900490304455161, -0.0004886374226771295, 0.0004152492037974298, 0.00028329805354587734, -0.00020984116417821497, 0.0012183485087007284, -0.0011681437026709318, 7.335137343034148e-05, -0.017223374918103218, 0.0006958864396438003, 0.0035389342810958624, 0.002785132732242346, 3.145541995763779e-05, 0.0016289514023810625, 0.0007988130673766136, 0.0006035069818608463, 0.005217996891587973, -0.001880728523246944, 0.0005733251455239952, 0.003608949249610305, 0.0005578622804023325, -0.001156157930381596, -0.003215882694348693, -0.001607393380254507], [0.002297953935340047, -9.82057026703842e-05, 0.0004332774260547012, -0.0002714180154725909, 0.001592258457094431, 0.0004852102720178664, 0.0010054686572402716, 0.0009875618852674961, 0.0012739782687276602, -0.0002137243573088199, 0.0003887761558871716, 0.0002813968458212912, 0.000611014838796109, 0.00037023640470579267, -0.0008603028254583478, 0.0001606871373951435, -0.019269829615950584, 0.00012089400843251497, 0.0008422377286478877, 0.0020429170690476894, 0.00019345554756000638, 0.0004518615023698658, -0.0002947277680505067, 6.511592800961807e-05, 0.0013778700958937407, -0.00115883385296911, 0.0005024844431318343, 0.0013718821574002504, 0.0004805718781426549, -0.0005165294860489666, -0.0006414097151719034, -0.0010464686201885343], [0.030556485056877136, -0.0045222146436572075, 0.004224282223731279, -0.005556988064199686, -0.002768338890746236, -0.00020416452025528997, -4.806069046026096e-05, 0.009373488835990429, 0.015109149739146233, 0.0011117873946204782, -0.0007477056351490319, 0.01113358698785305, 0.0021165120415389538, -0.0021801318507641554, -0.0014275334542617202, 0.0003848407359328121, 0.00809046346694231, -0.0009224247769452631, 0.0027351784519851208, -0.007147766184061766, 0.0034008866641670465, -0.004644365981221199, -0.0011977056274190545, -0.0006741704419255257, 0.03127952665090561, 0.004370132461190224, -0.0012488464126363397, -0.010641878470778465, -0.0006159114418551326, -0.008312181569635868, 0.009613380767405033, -0.00294411345385015], [0.012547818012535572, 0.0005483300192281604, -0.0021953126415610313, -0.00044768123188987374, 0.0023443649988621473, -0.0008891290635801852, 0.0001648104516789317, 0.008221969939768314, -0.0035465836990624666, 0.0016957217594608665, -0.0008349999552592635, -0.0019027129746973515, 0.004153815563768148, 0.0006024844478815794, -0.0015948038781061769, 0.0020572340581566095, -0.00637308694422245, -0.001068565994501114, -0.000768203055486083, -0.0005921697011217475, 0.000355313066393137, 0.0007733817910775542, -0.0008818866917863488, -8.548086043447256e-07, 0.0005023808917030692, 0.0009668042184785008, -0.0009892249945551157, 0.004678270313888788, -0.001713401754386723, 8.043787238420919e-05, 0.0005952570354565978, -0.002564620226621628], [0.01892569288611412, 0.0003604418016038835, -0.0007791813695803285, -0.000539307773578912, 0.011655363254249096, 0.0008764217491261661, 0.0010557427303865552, 0.006742897443473339, 0.0026936985086649656, -0.0010560819646343589, 0.001386489369906485, -0.0004024456429760903, -0.0003250380395911634, 0.0009475558763369918, -0.0016976954648271203, 9.036682604346424e-05, -0.026286128908395767, 0.0005621593445539474, 0.0029433753807097673, 0.0018417065730318427, -0.0008190914522856474, 0.0012561670737341046, 0.0007913283770903945, 0.0010320240398868918, 0.006546319462358952, -0.0017745011718943715, 0.0005885098362341523, 0.005115670617669821, 0.001212514005601406, -0.0005510580376721919, -0.002209816128015518, -0.002832390135154128], [0.03928901255130768, -0.00037644326221197844, 0.006556786596775055, -0.007112656254321337, 0.04835816100239754, 0.0005332864238880575, 0.004771626088768244, 0.007940312847495079, 0.015154621563851833, -0.002155247377231717, 0.0010670622577890754, -0.004925703164190054, -0.0019328827038407326, 0.004726790823042393, -0.008196092210710049, -0.0007533025927841663, -0.04739378020167351, 0.0016575893387198448, 0.010320698842406273, 0.009660516865551472, -0.0006645044777542353, 0.005795700009912252, 0.002102521015331149, 0.0020013637840747833, 0.015691732987761497, -0.007043715566396713, 0.0013683345168828964, 0.022146882489323616, 0.0003793489304371178, -0.014039425179362297, 0.006285747047513723, -0.007175116334110498], [0.0021801055409014225, 0.00010010811820393428, 0.00013008099631406367, -7.753125828457996e-05, 0.0008947093156166375, 0.00018471470684744418, 0.00026980871916748583, 0.001366419717669487, 0.000478685658890754, -6.954272976145148e-05, 0.00020231216331012547, 0.00012161188351456076, 0.00040850177174434066, -0.00014684113557450473, -0.0002759472408797592, -3.491841198410839e-05, -0.00444761011749506, 0.00017253533587791026, 0.0006674661999568343, 0.0004726391634903848, -4.950376751367003e-05, 0.00018231026479043067, 0.0001415931765222922, 0.00012216207687743008, 0.0007972556632012129, -0.0002734169247560203, 0.00014361980720423162, 0.0007880665361881256, 0.00018747508875094354, -0.00027589223464019597, -0.0004900284693576396, -0.00038520575617440045], [-0.025874266400933266, -0.055987920612096786, 0.07682467252016068, 0.01450048666447401, -0.10700932145118713, -0.024885334074497223, -0.03359431400895119, 0.06211553514003754, 0.02364870347082615, 0.010130919516086578, -0.028898464515805244, 0.08942899107933044, 0.00346182263456285, -0.04325146973133087, 0.060066159814596176, -0.021926406770944595, 0.49166497588157654, -0.03101537562906742, -0.0013360899174585938, -0.22520577907562256, 0.0235446710139513, -0.03486698865890503, -0.018237056210637093, -0.002439844887703657, -0.016372933983802795, 0.1021379679441452, -0.0482628270983696, -0.18043605983257294, 0.0034645446576178074, -0.047422852367162704, -0.06764853000640869, 0.06095139682292938], [0.010918957181274891, 0.00026545851142145693, -0.0004452330176718533, -0.000278423452982679, 0.005908527411520481, 0.00025021808687597513, 0.0009485720656812191, 0.0024532305542379618, 0.00039981561712920666, -0.0006405676831491292, 0.000714606954716146, -0.00028060763725079596, 0.00011305682710371912, 0.0008205064223147929, -0.0015536824939772487, 0.00014665347407571971, -0.019815275445580482, 0.0005144763854332268, 0.0010351707460358739, 0.001363612012937665, -0.0002725753001868725, 0.0009180842898786068, 0.0005818911013193429, 0.0006339597748592496, 0.0023348783142864704, -0.0017135817324742675, 0.0006240509683266282, 0.002439826261252165, 0.0004785112105309963, -0.00041178922401741147, 3.597169416025281e-05, -0.0025517744943499565], [-0.037086378782987595, 0.0017446863930672407, 0.012953896075487137, -0.00026983945281244814, 0.02606300637125969, -0.0004754681431222707, 0.002116791671141982, -0.03663445636630058, 0.03968522697687149, -0.0006369992042891681, -0.0024087978526949883, -0.003029715968295932, -0.002148656640201807, 0.0024685077369213104, 0.003546187188476324, -0.0008693209965713322, -0.028060471639037132, 0.0009684764663688838, 0.004192517604678869, 0.00674816919490695, 0.01861441507935524, 0.04483582079410553, 0.0012756583746522665, 0.00032663598540239036, 0.034621935337781906, -0.0062397741712629795, 0.0016049857949838042, 0.00370227312669158, 0.0009836662793532014, -0.010498322546482086, -0.04499199986457825, -0.0110714016482234], [0.07818757742643356, 0.011455340310931206, -0.0073816170915961266, -0.004355933517217636, 0.07055971771478653, 0.005183511879295111, 0.010168492794036865, 0.02222575433552265, 0.015094791539013386, -0.005525144748389721, 0.011198827065527439, -0.0054025109857320786, -0.01181096863001585, 0.007821844890713692, -0.018178468570113182, -0.0013768342323601246, -0.09554215520620346, 0.004690990783274174, 0.018167946487665176, 0.03396693989634514, -0.013599686324596405, 0.014361022040247917, 0.004780526738613844, 0.009900971315801144, 0.03742025047540665, -0.020013242959976196, 0.0036002055276185274, 0.057887401431798935, 0.010363650508224964, -0.006813570391386747, -0.013065372593700886, -0.0221482552587986], [0.0014302890049293637, 0.0008488578023388982, -0.0020478859078139067, -0.001827260828576982, 0.011245081201195717, 0.0003610168059822172, 0.00220108637586236, 0.009312327951192856, 0.00812915526330471, -0.0010839472524821758, 0.0008383418899029493, -0.002925517503172159, -0.004722272977232933, 0.004611732438206673, -0.0051384009420871735, -0.0007150043384172022, -0.0500199981033802, 0.002585143316537142, 0.02896139584481716, 0.008722441270947456, 0.006943087559193373, 0.006290246266871691, 0.003108936594799161, 0.001359666814096272, 0.018434928730130196, -0.007345531135797501, 0.0021630139090120792, 0.017996694892644882, 0.001503526233136654, 0.008621915243566036, -0.01803462579846382, -0.0050401948392391205], [0.1107591837644577, -0.0035457813646644354, 0.014823751524090767, -0.01947692036628723, 0.00221549766138196, -0.0001612797932466492, 0.0003867203777190298, 0.0652952715754509, 0.04872968792915344, 0.00023548331228084862, -0.00217632669955492, -0.012497670948505402, 9.384080476593226e-05, 0.00032226560870185494, 0.0024174342397600412, -0.00039575088885612786, -0.0028672204352915287, 4.918535705655813e-05, 0.0007745734765194356, -0.0017044356791302562, 0.008320599794387817, -0.0008084460278041661, 0.00012665829854086041, -0.000980248092673719, 0.04968363046646118, -0.002083761850371957, 9.942429460352287e-05, -0.000471277569886297, 0.00041804491775110364, -0.028155455365777016, -0.06682340055704117, -0.002214329084381461], [0.011855170130729675, -9.581184713169932e-06, -0.00038932173629291356, -0.000416122522437945, 0.006297573912888765, 9.316063369624317e-06, 0.0009778673993423581, 0.0029486597049981356, 0.0004270471981726587, -0.0006395098171196878, 0.000380762736313045, -0.00011219532461836934, 0.00033358813379891217, 0.000869083683937788, -0.0016545074759051204, 2.951568239950575e-05, -0.01979091204702854, 0.000514945772010833, 0.0011325099039822817, 0.0015773535706102848, -0.00023877786588855088, 0.0012013231171295047, 0.0005344998207874596, 0.0005549184279516339, 0.0027651535347104073, -0.0019066337263211608, 0.0005615052068606019, 0.002581018954515457, 7.690046913921833e-05, -0.0004680276324506849, -8.499155228491873e-05, -0.0024969042278826237], [0.015265211462974548, -0.00011776864994317293, 0.00015808871830813587, -0.000696405884809792, 0.0003105409268755466, 0.00010685190500225872, 0.0004904523957520723, 0.00957836490124464, 0.0018280264921486378, -0.00020690930250566453, 0.0001871756394393742, 0.0018838652176782489, -0.0001622641138965264, 0.00045204657362774014, -0.0013447403907775879, -1.0393117918283679e-05, -0.006772419437766075, 0.0001722193119348958, 0.005921201780438423, 0.0013175487983971834, 5.724223956349306e-05, 0.0010425193468108773, 0.0001875473535619676, 0.00011504175199661404, 0.006125689949840307, -0.000853127334266901, 0.00021285498223733157, 0.0029097050428390503, 0.00011367264232831076, 0.002423531375825405, -0.0048482767306268215, -0.000995857990346849], [0.029066497460007668, 0.001983124064281583, -0.006427309941500425, -0.0009922365425154567, 0.01958344876766205, 0.0009716553031466901, 0.001623776275664568, -0.00045355758629739285, 0.00710639450699091, -0.0005950794438831508, 0.0013946477556601167, 0.0029943331610411406, -0.0032299673184752464, 0.0011453456245362759, -0.0009088059305213392, 0.00026479532243683934, -0.027095379307866096, 0.0009936596034094691, 0.005438659805804491, 0.00517889903858304, 0.003367480356246233, 0.010746615938842297, 0.0008569397032260895, 0.0003049286606255919, 0.037899915128946304, -0.003412641119211912, 0.002116600051522255, 0.006626242306083441, 0.001324207172729075, -0.013325236737728119, -0.032395943999290466, -0.00028199737425893545], [0.027699824422597885, 0.0009855004027485847, -0.000921945902518928, -0.0018389004981145263, 0.023342706263065338, 0.0019287941977381706, 0.0021708637941628695, 0.016341429203748703, 0.006706295069307089, -0.001677567372098565, 0.0020268592052161694, 0.0007268402841873467, -0.001700985711067915, 0.0019792658276855946, -0.004411638248711824, 0.00030887965112924576, -0.02384510077536106, 0.0014449968002736568, 0.008803670294582844, 0.0058975680731236935, -0.000583243032451719, 0.0049712760373950005, 0.0016983593814074993, 0.002396998228505254, 0.015411253087222576, -0.0043425471521914005, 0.0008766304235905409, 0.013391767628490925, 0.00274492334574461, -0.0029225503094494343, -0.005883892998099327, -0.0051008062437176704], [0.008063486777245998, -0.0003705186245497316, 0.0012553638080134988, -0.001321656396612525, 0.00941314734518528, 0.00037882148171775043, 0.00012148267705924809, 0.01088134478777647, 0.0069185104221105576, 5.399901419878006e-05, 8.922544657252729e-05, 0.0014806900871917605, 0.0004375516145955771, -0.00017313234275206923, -0.0003078011504840106, 0.000327903195284307, -0.014724529348313808, -2.6178526240983047e-05, 0.00687464838847518, -0.0007928283885121346, 0.0010048316325992346, 0.0014986273599788547, -0.00011278841702733189, -8.943465945776552e-05, 0.008449425920844078, 0.00039018323877826333, -1.3421552466752473e-05, 0.002041352679952979, 0.00019616236386355013, -0.0015099815791472793, -0.007828576490283012, 0.00011962100688833743], [0.07236386835575104, -0.0012734796619042754, 0.0032760114409029484, -0.0012554549612104893, 0.07007850706577301, 0.000616194331087172, 0.011812392622232437, 0.03199480101466179, 0.02868165262043476, -0.004558908753097057, 0.0006236701738089323, 0.006909040734171867, -0.003042967524379492, 0.008154562674462795, -0.01391217764467001, -0.0022220297250896692, 0.05372903496026993, 0.007928886450827122, -0.001674252562224865, 0.016896044835448265, -0.00015608835383318365, 0.009687799029052258, 0.0074849361553788185, 0.00503369839861989, 0.012279375456273556, -0.01655305176973343, 0.003113933838903904, 0.02452835813164711, 0.00451503973454237, -0.0029030386358499527, 0.0033729253336787224, -0.018405139446258545], [0.003319726325571537, -2.8810400181100704e-05, 0.00020652548118960112, -0.00020064202544745058, 0.0021104058250784874, 0.00016320082067977637, 0.0003246426349505782, 0.0016881786286830902, 0.0010556961642578244, -7.809692033333704e-05, 0.0002292440622113645, 0.00025681013357825577, -0.0001798500306904316, -4.418674507178366e-05, -0.0004132042813580483, 6.20652426732704e-05, -0.009007340297102928, 0.00019665295258164406, 0.0009297229698859155, 0.001219592522829771, -1.0289440979249775e-06, 0.0004907241673208773, 0.00019408349180594087, 0.00010255923552904278, 0.0015911805676296353, -0.0007790626841597259, 0.00021628462127409875, 0.0011526047019287944, 0.00015964597696438432, -0.0004235149244777858, -0.000880756473634392, -0.0005054771900177002], [0.008798298425972462, -0.00032975131762214005, 0.001831081579439342, 6.707666761940345e-05, 0.002677768701687455, 0.00024946691701188684, 0.00013468199176713824, 0.0002504220465198159, 0.002469208324328065, -0.00023724835773464292, 9.6871517598629e-05, 0.0019737763796001673, 0.00019750758656300604, 0.0004326780908741057, -0.00011740182526409626, 7.038386684143916e-05, 0.0020997202955186367, 0.00011881889076903462, 0.0024366399738937616, -0.0001540195371489972, 0.0002396785275777802, 0.0003065496275667101, 0.00015282139065675437, 6.637524347752333e-05, 0.0010745538165792823, -0.0004932523006573319, -1.2251375665073283e-06, 0.0003560330078471452, 5.767393668065779e-05, 0.0009927225764840841, -0.0021657301113009453, -0.00042595810373313725], [0.07641341537237167, 0.003262862330302596, 0.002823726274073124, -0.015246313065290451, 0.008162237703800201, 0.0005884991260245442, 0.0035187378525733948, 0.028697259724140167, 0.03370870277285576, -0.0013023820938542485, 0.0015836568782106042, 0.00818120501935482, -0.005581400822848082, 0.00436705257743597, -0.009334614500403404, -0.0007604992133565247, -0.05422243848443031, 0.0021067773923277855, -0.016598574817180634, 0.011406231671571732, 0.012428276240825653, 0.024125168099999428, 0.0025453006383031607, 0.0006241889204829931, 0.024532755836844444, -0.00945284217596054, 0.002962665632367134, 0.028252005577087402, 0.002004454843699932, 0.014476467855274677, -0.01976904645562172, -0.006049749907106161], [0.003244267776608467, 0.0010084265377372503, -0.004793544299900532, -0.00759233720600605, 0.04736317694187164, 0.0007721541915088892, 0.006193563342094421, 0.015358136035501957, -0.004019174724817276, -0.0037109674885869026, 0.0020239020232111216, 0.007744980975985527, -0.004016246180981398, 0.008003461174666882, -0.009811930358409882, -0.0013275386299937963, -0.06564787030220032, 0.0030973253306001425, -0.009466041810810566, 0.017207693308591843, -0.003177973674610257, 0.005757481325417757, 0.0037882470060139894, 0.0034372189547866583, 0.016794074326753616, -0.01176379807293415, 0.00258668907918036, 0.022887632250785828, 0.0008666375069878995, -0.01640135794878006, -0.0054403929971158504, -0.0134006692096591], [-0.026531603187322617, -0.009930595755577087, 0.08176710456609726, 0.01911262236535549, 0.10095787048339844, 0.0020291339606046677, -0.004408277105540037, 0.03389635309576988, 0.1408574879169464, 0.011294165626168251, -0.00986558198928833, -0.030659671872854233, -0.0010960591025650501, 0.007571173366159201, 0.06996235251426697, -0.003131737234070897, 0.15021713078022003, -0.0067470925860106945, 0.09339281171560287, -0.007819704711437225, 0.060916680842638016, 0.04069002717733383, -0.0005826432025060058, -0.008602400310337543, 0.06959560513496399, -0.01792033389210701, 0.01261602621525526, -0.027921462431550026, -0.003013475565239787, 0.10019522160291672, -0.06188225746154785, 0.05372003838419914], [0.03872506320476532, -0.0015021341387182474, -0.000876578560564667, -0.003590288106352091, -0.007049212232232094, 7.735387771390378e-05, 0.00014706820365972817, 0.017539402469992638, 0.0008078865357674658, 1.8458140402799472e-05, 6.447966734413058e-05, 0.009053110145032406, -0.00011253754200879484, -0.00010891336569329724, -0.0003882296441588551, 0.0001002288336167112, -0.0006906865746714175, -0.00010072242002934217, -0.006624591536819935, -0.00037556487950496376, 0.00040600611828267574, 0.001797088305465877, -0.0001229720946867019, -2.253059938084334e-05, 0.006200093310326338, 0.00021230714628472924, 3.1567640689900145e-05, -0.0009351273765787482, -3.5209425277571427e-06, -0.0005560324643738568, -0.002356219105422497, -2.107383443217259e-05], [0.0596609003841877, -0.0007526560802944005, 0.0014984648441895843, 0.005539574194699526, 0.014756522141397, 2.9551318220910616e-05, 0.0001360962342005223, 0.03110465779900551, -0.001808660919778049, 0.00017067429143935442, 5.424069968285039e-06, 0.012474671937525272, 0.0005114041268825531, -0.0002686135994736105, -0.0013730903156101704, 0.00010618396481731907, 0.0008665316272526979, -0.00017313430726062506, -0.014798611402511597, -0.0016545304097235203, 0.0004618825623765588, 0.0034817238338291645, -0.0001919781934702769, 0.00029808052931912243, 0.0012248834827914834, 0.0005975068779662251, -0.0002856031933333725, -0.004775417968630791, -0.00011187980999238789, -0.02388281188905239, 0.0022331918589770794, -0.004659387283027172], [-0.0013202587142586708, 9.026478073792532e-05, 0.0003196356992702931, -0.003285743296146393, 0.0005279243923723698, -7.253426156239584e-05, 0.0001528952707303688, 0.01068639662116766, 0.005127760581672192, -6.712025060551241e-05, 3.811461283476092e-05, -0.00011507306771818548, -8.056401566136628e-05, 6.467754428740591e-05, -0.0006213192827999592, -4.817809895030223e-05, -0.005762376356869936, 3.3678199542919174e-05, 0.009639631025493145, 0.0008444295381195843, 0.00031212923931889236, 0.0015393947251141071, -3.1746756576467305e-05, 9.72422567429021e-05, 0.006828627549111843, -0.0003519566380418837, 0.00021188035316299647, 0.0015129464445635676, 8.863554830895737e-05, -0.0006675431504845619, -0.010149119421839714, -0.00038213422521948814], [0.028588194400072098, -0.0007428619428537786, 0.005169558338820934, -0.012985632754862309, 0.04160729795694351, 0.0011404207907617092, 0.008301204070448875, -0.014908946119248867, 0.018300026655197144, -0.0029677569400519133, 0.001285410369746387, 6.276237400015816e-05, 0.0016135695623233914, 0.004274647682905197, -0.010167515836656094, 0.00013791525270789862, 0.07488413155078888, 0.006698934826999903, 0.017983075231313705, 0.009289083071053028, -0.00265774829313159, 0.00877055898308754, 0.005975769367069006, 0.003277780022472143, -0.00015442093717865646, -0.006479622796177864, 0.0019278809195384383, 0.01185626070946455, 0.002523422008380294, 0.004941930994391441, -0.03245151787996292, -0.0067388443276286125], [0.003210508730262518, -4.081597217009403e-05, 0.0006621690117754042, -0.0003863663587253541, 0.0023167210165411234, 0.0009132219711318612, 0.0013729128986597061, 0.0016788860084488988, 0.0020867937710136175, -0.0003758115344680846, 0.0007057900074869394, 0.00037653028266504407, 0.0006156269810162485, 0.000336589349899441, -0.0011474142083898187, 0.0005466435104608536, -0.01931796222925186, 0.000539176631718874, 0.0012836502864956856, 0.0027686767280101776, 0.0003484903136268258, 0.0006472975364886224, 0.00029778259340673685, 0.00020598509581759572, 0.0020628643687814474, -0.001674093771725893, 0.0006673868047073483, 0.001958985812962055, 0.000660687917843461, -0.0007171727484092116, -0.0010195228969678283, -0.0013101239455863833], [0.01100657694041729, 0.00010179610399063677, 0.0004261373251210898, -0.00028958157054148614, 0.010137725621461868, 0.0010495423339307308, 0.0008736512390896678, 0.005465774331241846, 0.0016527087427675724, -0.0009659480419941247, 0.001088774180971086, 0.0006734579219482839, -0.0006387155153788626, 0.001784980297088623, -0.001936322427354753, 0.00023299064196180552, -0.019186705350875854, 0.0007912210421636701, 0.003657597815617919, 0.0026509175077080727, -0.0008477979572489858, 0.001045729499310255, 0.000934117182623595, 0.0005872701876796782, 0.0040794662199914455, -0.0028780163265764713, 0.0007450543926097453, 0.004338676109910011, 0.0006048564100638032, -0.0008578425622545183, -0.0012217122130095959, -0.001982745947316289], [0.1268358826637268, 0.016407808288931847, -0.008861019276082516, -0.06958458572626114, 0.09463105350732803, -0.0006007123738527298, 0.00738240871578455, 0.024858299642801285, 0.059792518615722656, -0.0020888946019113064, 0.004937356803566217, 0.002660827711224556, -0.01687323860824108, 0.013419932685792446, -0.018385780975222588, -0.005691758822649717, -0.14335830509662628, 0.0024083899334073067, -0.018836991861462593, 0.02981642819941044, 0.00498695345595479, 0.06297643482685089, 0.004617033991962671, 0.0006595900049433112, 0.019394787028431892, -0.03695297613739967, 0.008286536671221256, 0.044818539172410965, 0.0046565053053200245, 0.022164419293403625, -0.06839210540056229, -0.031930502504110336], [0.028718559071421623, 0.04167928174138069, 0.040133628994226456, -0.09982849657535553, 0.012079502455890179, -0.005081030540168285, -0.000903547101188451, -0.024660278111696243, -0.03152032196521759, 0.004884035792201757, 0.010991125367581844, -0.07662513107061386, -0.006962838117033243, 0.013255412690341473, -0.0030124911572784185, -0.01567971706390381, -0.011868570931255817, 0.004325134679675102, -0.04831812530755997, 0.021836459636688232, 0.08351678401231766, 0.02410355769097805, 0.005735981278121471, -0.008043190464377403, 0.09870745986700058, -0.04762548208236694, 0.014139818958938122, 0.05429767444729805, -0.0007974670734256506, -0.05256514623761177, -0.1218382939696312, 0.02319588139653206], [0.010126285254955292, 0.00045870570465922356, -0.00016251273336820304, -0.00044006219832226634, 0.009335118345916271, 0.0002912738127633929, 0.0007245673332363367, 0.004253731574863195, 0.0017862720414996147, -0.0004205122240819037, 0.00040129758417606354, 7.154772902140394e-05, -0.00029067054856568575, 0.0011194281978532672, -0.0009748896700330079, 0.00013483318616636097, -0.012909113429486752, 0.0006608120747841895, 0.0017435252666473389, 0.0026015699841082096, -0.0001085742114810273, 0.0011771505232900381, 0.000770108075812459, 0.0005748880212195218, 0.0034207243006676435, -0.0015234617749229074, 0.0005144179449416697, 0.0030302845407277346, 0.0005273499409668148, -0.0008558169938623905, -0.0017648576758801937, -0.0013289396883919835], [0.002317260019481182, -0.00013405609934125096, 0.0005000840174034238, -0.0002650120004545897, 0.0015213510487228632, 0.0005136264371685684, 0.000985601800493896, 0.0011237008729949594, 0.0014261972391977906, -0.00017905673303175718, 0.00038241027505137026, 0.00031288564787246287, 0.0007312659872695804, -0.00017643457977101207, -0.0008572434890083969, 0.00031220485107041895, -0.019775692373514175, 3.941355680581182e-05, 0.0008903723210096359, 0.0019228491000831127, 0.0002474286302458495, 0.0004229111655149609, -0.00020796983153559268, 2.0481347746681422e-05, 0.0014584747841581702, -0.0011053824564442039, 0.0004911291762255132, 0.0014016896020621061, 0.0004355643759481609, -0.0005105056334286928, -0.0006541331531479955, -0.001017989357933402], [-0.021599210798740387, -0.0032034136820584536, 0.01747048646211624, 0.005436982959508896, 0.053608108311891556, -5.450823300634511e-05, 0.0006893397658132017, 0.03839128091931343, 0.03144596144556999, 0.000987307052128017, -0.0006732213660143316, 0.013343616388738155, 0.0016128021525219083, -0.0020670504309237003, 0.0042444500140845776, 0.0004968374269083142, 0.007815685123205185, -0.0007773425313644111, 0.004709949716925621, -0.007037532515823841, 0.004654029384255409, -0.0033077318221330643, -0.0010544094257056713, 0.0004212155763525516, -0.0028628285508602858, 0.0041550337336957455, -0.0011636193376034498, 0.0012190570123493671, -0.0005209299852140248, -0.01264941319823265, -0.0324585996568203, -0.007194844540208578], [0.0083972392603755, 0.00015657453332096338, -0.002121014054864645, -0.00035039655631408095, 0.001408277079463005, -0.0002281557535752654, 0.0002053097850875929, 0.002126305364072323, -0.00422544265165925, 0.001662985421717167, -0.001185310771688819, -0.0015624944353476167, 0.006227253004908562, 0.00043949473183602095, -0.0012871618382632732, 0.0022185815032571554, -0.0062310462817549706, -0.0009047546191141009, -0.0019915455486625433, -0.001110689714550972, 0.002624538727104664, 0.0007448458927683532, -0.0007823691703379154, -0.0001391393889207393, -0.0020904859993606806, 0.002035642508417368, -0.0006475351401604712, 0.003923623822629452, -0.0013752292143180966, 0.00038969016168266535, 0.0027313269674777985, -0.0017046051798388362], [0.012115702964365482, 0.0005292531568557024, -0.0008888955926522613, -0.00022691894264426082, 0.008028432726860046, 0.0009002044680528343, 0.001031362684443593, 0.003141779685392976, 0.0008159648277796805, -0.0009296630742028356, 0.0014376803301274776, -0.0006333134952001274, -0.00037922675255686045, 0.0007799717132002115, -0.0015209588455036283, 0.00016446950030513108, -0.021510008722543716, 0.0005363941309042275, 0.0013685435988008976, 0.0017676821444183588, -0.0010492022847756743, 0.0006815204978920519, 0.0007203269051387906, 0.0010231854394078255, 0.0035751829855144024, -0.0014528199099004269, 0.0005687810480594635, 0.003969123121351004, 0.0010295279789716005, -0.0002330868737772107, -0.0005970755591988564, -0.0027027109172195196], [0.04980812594294548, 0.00022497405007015914, 0.0008236309513449669, 0.001155453035607934, 0.03326430171728134, 0.0006395106902346015, 0.004023175686597824, -0.0047483597882092, -0.000362320919521153, -0.0022022249177098274, 0.0012562209740281105, -0.004139563534408808, -0.002452163491398096, 0.0043870629742741585, -0.012153424322605133, -0.0006707813590764999, -0.0357682928442955, 0.0016324410680681467, 0.007237255573272705, 0.009206040762364864, -0.0020650294609367847, 0.00019240471010562032, 0.0020607297774404287, 0.002315585035830736, 0.01943940483033657, -0.006365994922816753, 0.001407855423167348, 0.018356027081608772, 0.000396442279452458, -0.0035284911282360554, 0.00872446596622467, -0.006879993248730898], [0.0017251622630283237, 0.00014819440548308194, 7.710179488640279e-05, -1.630106635275297e-05, 0.0006816707900725305, 0.00015121175965759903, 0.00022918857575859874, 0.0009166436502709985, 0.00015366257866844535, -6.94427581038326e-05, 0.00023109119501896203, 6.784641300328076e-05, 0.0003772089257836342, -0.0003149366530124098, -0.00022190253366716206, 1.3815651982440613e-06, -0.0034556302707642317, 0.0001795734278857708, 0.00039080396527424455, 0.0005830101436004043, -0.00011272185656707734, 6.872856465633959e-05, 0.00013820247841067612, 0.00012286908167880028, 0.00042948281043209136, -0.00026229035574942827, 0.0001392651756759733, 0.0005877931253053248, 0.0001608480088179931, -0.00021331306197680533, -0.00018023212032858282, -0.0003540466714184731], [-0.44583261013031006, 0.02690023183822632, -0.024744801223278046, 0.1971413791179657, -0.311107337474823, 0.011122125200927258, -0.14629799127578735, -0.20017467439174652, -0.2865976095199585, 0.0758485198020935, -0.012414896860718727, -0.04003564268350601, -0.03949936106801033, -0.17346006631851196, 0.2067285180091858, 0.04666115343570709, 0.650915801525116, -0.10539866238832474, -0.2209988832473755, -0.3044394552707672, -0.1350630521774292, -0.2398480921983719, -0.11258469521999359, -0.019994990900158882, -0.3382548987865448, 0.2752131223678589, -0.11330829560756683, -0.4196593761444092, -0.021930409595370293, 0.1043907180428505, 0.2146046757698059, 0.23562408983707428], [0.006671986076980829, 0.00031483726343140006, -0.00040493503911420703, -0.00016600510571151972, 0.003720525885000825, 0.00026524675195105374, 0.000874158286023885, 0.0007487856782972813, -0.0003336495428811759, -0.0005597254494205117, 0.0006159303593449295, -0.0003004068275913596, 8.391813025809824e-05, 0.0006747093866579235, -0.0013984725810587406, 0.00017234429833479226, -0.014476416632533073, 0.00046803741133771837, 0.00033001258270815015, 0.0013031951384618878, -0.0004088116402272135, 0.0007328510982915759, 0.0005053190398029983, 0.0005567988846451044, 0.0009586052619852126, -0.0014469597954303026, 0.0005548702320083976, 0.0018275241600349545, 0.0005097737885080278, -0.0002975142269860953, 0.0005210844101384282, -0.0022175658959895372], [-0.04843447357416153, -0.004379237070679665, 0.01551656424999237, -0.0365753173828125, 0.0595773383975029, -0.0001771551906131208, -0.00016563042299821973, 0.010972031392157078, 0.02646659128367901, -0.00046357809333130717, -0.004214216023683548, -0.011427420191466808, -0.0020045731216669083, 0.002218658570200205, 0.009477813728153706, -0.0008476210641674697, -0.025540055707097054, 0.0008773812442086637, 0.050109315663576126, 0.0077761150896549225, 0.009264448657631874, 0.0058809444308280945, 0.0011631232919171453, 0.0006008839118294418, -0.016594260931015015, -0.0059109278954565525, 0.0016671326011419296, -0.006433244328945875, 0.0007932124426588416, 0.02391589991748333, -0.08444913476705551, 0.0005372127634473145], [0.035766664892435074, 0.01182568073272705, -0.008744851686060429, -0.0014208320062607527, 0.04777566343545914, 0.005014182534068823, 0.007945047691464424, -0.003339339978992939, 0.0001586457365192473, -0.004772974178195, 0.01075829565525055, -0.008459940552711487, -0.011788588017225266, 0.006095262710005045, -0.013885258696973324, -0.0007669026963412762, -0.07809792459011078, 0.004158212337642908, 0.005033025052398443, 0.031087668612599373, -0.015565436333417892, 0.007699356414377689, 0.004000917077064514, 0.009084288030862808, 0.015453731641173363, -0.01568305678665638, 0.003557132091373205, 0.0461934432387352, 0.008223502896726131, -0.002544017508625984, -0.00010401604231446981, -0.01755526289343834], [0.04551128298044205, 0.0004848043608944863, 0.005665751174092293, -0.00932346098124981, 0.05069025978446007, 0.00033604432246647775, 0.0019403487676754594, 0.00512992637231946, 0.020119599997997284, -0.0008905232534743845, 0.0007547330460511148, 0.002206815406680107, -0.004221425857394934, 0.004090725444257259, -0.0011908055748790503, -0.0006400453858077526, -0.04502333328127861, 0.002445389050990343, 0.030563343316316605, 0.007845957763493061, 0.004620930179953575, 0.001966848038136959, 0.002856914419680834, 0.0011497894302010536, 0.03640415146946907, -0.006411116570234299, 0.0018132401164621115, 0.008705065585672855, 0.0013257102109491825, 0.0029993760399520397, -0.018355155363678932, -0.0050782859325408936], [0.038697499781847, -0.0015114110428839922, 0.02209010347723961, 0.003917796071618795, 0.060853660106658936, -0.00018295923655387014, 0.0014238934963941574, 0.08020707964897156, 0.013283591717481613, 0.00011143753363285214, -0.0020170854404568672, 0.005543524399399757, 0.0003153871512040496, 0.0004887863760814071, 0.0021532124374061823, -0.00036974786780774593, -0.01605311408638954, 0.00018123124027624726, -0.0009502294706180692, -0.000501319533213973, 0.012978349812328815, 0.0004892959841527045, 0.0002229226374765858, -0.0010753446258604527, 0.01834816113114357, -0.0026420680806040764, 0.00024828602909110487, -0.003348009428009391, 0.0004879925400018692, 0.014751438982784748, -0.07178273051977158, -0.004635270684957504], [0.007120183203369379, 7.1959279011935e-05, -0.00039272045250982046, -0.0002803065290208906, 0.003916972782462835, 0.00010224437573924661, 0.0008558672270737588, 0.0008576152613386512, -0.0005003617843613029, -0.0005507555324584246, 0.000445244979346171, -0.00022751813230570406, 2.405070699751377e-05, 0.0007389591773971915, -0.0014480544487014413, 7.827216904843226e-05, -0.014400044456124306, 0.00047001047641970217, 0.0002634346019476652, 0.0015384228900074959, -0.00046901789028197527, 0.0009106299257837236, 0.00047226418973878026, 0.0004810728132724762, 0.0011767699616029859, -0.0016284690937027335, 0.0005190980155020952, 0.0019547210540622473, 0.00014238822041079402, -0.0003246336418669671, 0.0005611381493508816, -0.002260881941765547], [-0.0018590078689157963, -0.00022583604732062668, 0.000328993599396199, -0.0012319511733949184, 0.02043168991804123, 0.00013278271944727749, 0.0005505107110366225, 0.01796567253768444, 0.0037469854578375816, -0.00020644890901166946, 0.0002080334525089711, 0.003612648928537965, -0.00020075944485142827, 0.0004066611872985959, 0.00023833381419535726, -7.788010407239199e-06, -0.006236620247364044, 0.00016139150829985738, -0.0008970528142526746, 0.0012356574879959226, -1.5624611478415318e-05, 0.001531029469333589, 0.00017100594413932413, 0.00018280127551406622, 0.0013211385812610388, -0.0007510695140808821, 0.00019987628911621869, 0.003425618400797248, 0.00010340251901652664, 0.0020508631132543087, -0.0012044132454320788, -0.001226237858645618], [0.018297860398888588, 0.0016059634508565068, 0.0043626390397548676, -0.012734269723296165, 0.012440665625035763, 0.0008697362500242889, 0.0018176431767642498, 0.03468409180641174, 0.020489318296313286, -0.0005875172792002559, 0.001183636486530304, 0.004422503989189863, -0.0026989802718162537, 0.0011437591165304184, -0.0013793694088235497, 0.0002503019059076905, -0.028736216947436333, 0.0009587376844137907, 0.003782812273129821, 0.0050607044249773026, 0.0037167456466704607, 0.015670301392674446, 0.0008479389944113791, 0.00028906131046824157, 0.0340636745095253, -0.003334880108013749, 0.0019290382042527199, 0.007677949499338865, 0.0013055065646767616, -0.013320262543857098, -0.016345186159014702, -0.0013433567946776748], [0.01604492962360382, 0.001368213095702231, -0.0012157534947618842, -0.0010181763209402561, 0.019620222970843315, 0.0018621906638145447, 0.0018540864111855626, 0.007616560906171799, 0.0037799172569066286, -0.0015476628905162215, 0.002136864233762026, -0.00017302151536569, -0.0018723944667726755, 0.0016176197677850723, -0.003642166033387184, 0.00043654805631376803, -0.02934938110411167, 0.00132739485707134, 0.004724870901554823, 0.005601472686976194, -0.0013240260304883122, 0.0033466832246631384, 0.0015105078928172588, 0.002187848323956132, 0.008604408241808414, -0.0035307498183101416, 0.0009212669683620334, 0.011966909281909466, 0.0022564204409718513, -0.00200116285122931, -0.0043009743094444275, -0.004350632429122925], [0.011992352083325386, -0.0002919979451689869, 0.0013022607890889049, -0.0005589968641288579, 0.004338065627962351, 0.0003540882607921958, 3.656673288787715e-05, 0.012514949776232243, 0.0048418412916362286, 8.350842836080119e-05, 0.00013361929450184107, 0.0011680362513288856, 0.0003596037277020514, -0.00023563219292555004, -0.00013799073349218816, 0.0003325510479044169, -0.011326241306960583, -4.707962943939492e-05, 0.003154250793159008, -0.0009208140545524657, 0.0008326111128553748, 0.001232564216479659, -0.00013597094221040606, -8.741741476114839e-05, 0.005460511427372694, 0.0005170521908439696, -1.1399371032894123e-05, 0.0013257181271910667, 0.00014177017146721482, -0.0017315349541604519, -0.003912223968654871, 0.00028454067069105804], [-0.0052047898061573505, 0.0015791211044415832, -0.00012769161548931152, -0.006326576229184866, 0.03943464532494545, 0.001368124969303608, 0.012377754785120487, 0.020961163565516472, 0.018588174134492874, -0.004981863312423229, 0.0021357093937695026, 0.0005044712452217937, -0.004362975247204304, 0.008189975284039974, -0.018809085711836815, -0.0015273300232365727, 0.04508697986602783, 0.00962333008646965, 0.013778197579085827, 0.017135797068476677, -0.0041110822930932045, 0.016398319974541664, 0.008366965688765049, 0.005729686003178358, -0.008128773421049118, -0.01563464105129242, 0.005039784591645002, 0.04658931493759155, 0.004483475349843502, -0.015207207761704922, -0.015778465196490288, -0.018441036343574524], [0.0029594232328236103, -2.0454108380363323e-06, 0.00017785120871849358, -0.00015950988745316863, 0.0018316312925890088, 0.0001717814739095047, 0.000314589764457196, 0.0014150440692901611, 0.0008776040631346405, -3.75830422854051e-05, 0.00024348293663933873, 0.0002092428767355159, -0.00019184150733053684, 0.00023906644491944462, -0.0003809136396739632, 5.593908281298354e-05, -0.008577615953981876, 0.00020034954650327563, 0.0007944821263663471, 0.0008874025661498308, -6.361398845911026e-05, 0.0004122501704841852, 0.00019120392971672118, 0.00010504265083000064, 0.0013477455358952284, -0.0007408008677884936, 0.0002111282228725031, 0.0010419996688142419, 0.0001499953359598294, -0.00037736952072009444, -0.0007301702280528843, -0.0004528465506155044], [0.019955171272158623, -0.0002754910965450108, 0.0005963357398286462, -0.000484272139146924, -0.003277531825006008, 0.00022283165890257806, 0.00014017304056324065, 0.010484686121344566, 0.0020543436985462904, -0.0002098858094541356, 9.468305506743491e-05, -1.630389851925429e-05, 0.0001780316815711558, 0.0004072553419973701, -0.0003318488597869873, 6.710106390528381e-05, 0.0018085518386214972, 9.618029434932396e-05, 0.00436408119276166, -0.000157220711116679, 0.00017854804173111916, 5.135019091540016e-05, 0.0001352520048385486, 7.183582783909515e-05, 0.0032190734054893255, -0.0004138399672228843, 8.579148925491609e-06, 0.0001834090071497485, 4.092302333447151e-05, -0.005525287706404924, -0.0011042875703424215, -0.00028764273156411946], [-0.004163769539445639, 0.003215115051716566, 0.007561282254755497, 0.009999045170843601, 0.03740054741501808, 0.00046220028889365494, 0.0026169440243393183, -0.02014334127306938, 0.036529961973428726, -0.0010515913600102067, 0.002115293638780713, -0.015679948031902313, -0.00530316261574626, 0.0041249287314713, -0.0030250931158661842, -0.0008287490927614272, -0.05318222567439079, 0.0018822827842086554, -0.0135921286419034, 0.011297233402729034, 0.004301585257053375, 0.025827351957559586, 0.002234579063951969, 0.0002579877618700266, -0.010262696072459221, -0.009340132586658001, 0.0027776588685810566, 0.02993648871779442, 0.0017568961484357715, 0.01553618349134922, -0.01911558024585247, -0.0010695602977648377], [0.03376394137740135, 0.0013340692967176437, -0.002694661496207118, -0.003291905391961336, 0.023719515651464462, 0.0009087415528483689, 0.005048747174441814, -0.02054838463664055, 4.164560232311487e-05, -0.0036057017277926207, 0.002238149056211114, 0.009445096366107464, -0.004584800451993942, 0.00705033028498292, -0.01083285827189684, -0.0011120561975985765, -0.04977555200457573, 0.002975460607558489, 0.014777696691453457, 0.016216982156038284, -0.0049552759155631065, 0.0027036431711167097, 0.0036449769977480173, 0.0034382487647235394, 0.012933553196489811, -0.010579477064311504, 0.002598491730168462, 0.01779782772064209, 0.0008863795083016157, -0.012806549668312073, 0.002212573541328311, -0.012962130829691887], [0.01637444831430912, 0.07294724881649017, -0.05974310636520386, 0.01379502471536398, 0.07813753187656403, 0.0982864648103714, 0.025897491723299026, -0.024645183235406876, 0.04799573868513107, 0.008350962772965431, 0.04796503856778145, 0.1058083176612854, -0.001147148315794766, -0.019340425729751587, -0.07315240055322647, -0.0014680239837616682, -0.14334307610988617, 0.03406431898474693, 0.025307003408670425, 0.04289504140615463, -0.03787066414952278, -0.027010461315512657, 0.0650472417473793, -0.007244918495416641, -0.03458348661661148, -0.017289595678448677, 0.05959183722734451, -0.02247883938252926, -0.06504909694194794, -0.08903328329324722, 0.04281545430421829, 0.03178633004426956], [-0.12082111090421677, -0.1379140019416809, -0.026566533371806145, -0.04958929121494293, 0.16367246210575104, -0.02630544640123844, 0.016047492623329163, 0.15732072293758392, 0.00693465257063508, -0.03363676369190216, -0.0993884727358818, 0.1488468199968338, 0.014596516266465187, 0.017986837774515152, 0.023337317630648613, 0.015128830447793007, -0.09142649918794632, 0.005181887652724981, 0.06978083401918411, -0.13037167489528656, -0.11923692375421524, 0.0021772030740976334, -0.09122466295957565, 0.011701645329594612, 0.1229436844587326, 0.051728639751672745, 0.062496934086084366, -0.09014782309532166, 0.008021160028874874, -0.054368168115615845, 0.08013010770082474, -0.14443239569664001], [0.05908127501606941, 0.055035799741744995, 0.016066597774624825, -0.13660040497779846, -0.13515454530715942, -0.030226413160562515, -0.023671500384807587, -0.0037603501696139574, 0.0918402448296547, 0.040596313774585724, -0.031581711024045944, -0.09760941565036774, 0.006287644617259502, 0.04484693706035614, 0.03712647780776024, 0.050501879304647446, -0.0009964552009478211, 0.03274683654308319, 0.027275297790765762, 0.10955650359392166, -0.033007558435201645, -0.002355960663408041, 0.06119619309902191, 0.04155917838215828, -0.1617560088634491, -0.08448955416679382, -0.027801483869552612, 0.15247415006160736, -0.025237858295440674, 0.04363813251256943, -0.11532280594110489, -0.08779898285865784], [-0.01630735769867897, -0.011697682552039623, 0.0146017549559474, -0.06478532403707504, -0.0532316230237484, -0.0019290358759462833, -0.04585761949419975, -0.048464320600032806, -0.07704652845859528, 0.007492906413972378, -0.025737259536981583, -0.010538567788898945, -0.0255830567330122, 0.004661128390580416, 0.05852389708161354, 0.008450118824839592, -0.07625675946474075, -0.010883592069149017, -0.08565697073936462, 0.0158684141933918, 0.035514894872903824, -0.005978476256132126, -0.008329855278134346, 0.0029357923194766045, 0.0650639683008194, -0.02755582518875599, 0.006908292416483164, -0.018769294023513794, 0.0002670582034625113, 0.08433704078197479, -0.05667589604854584, -0.023059941828250885], [0.05943556874990463, -0.010592482052743435, -0.07665912806987762, 0.031201211735606194, 0.006673790514469147, -0.0013099652715027332, -0.026636796072125435, 0.0017407821724191308, -0.05675625801086426, -0.001653868705034256, 0.022763649001717567, 0.03431768715381622, -0.0407453291118145, -0.011169817298650742, 0.08617265522480011, 0.017407532781362534, -0.264750212430954, -0.04971154034137726, 0.0701238140463829, 0.12022758275270462, 0.02204517461359501, 0.0610944926738739, -0.044815801084041595, 0.00401949230581522, 0.03272071108222008, -0.03531608358025551, 0.02870398387312889, 0.05200706422328949, 0.020738152787089348, -0.07934651523828506, 0.03912488371133804, -0.03105209954082966], [-0.07150790840387344, -0.04865696281194687, -0.0635613277554512, -0.11560436338186264, 0.0089089535176754, 0.014134409837424755, 0.03577374294400215, 0.0974859818816185, 0.056789152324199677, 0.007884613238275051, -0.031762104481458664, -0.09566750377416611, 0.009821868501603603, 0.01992073468863964, 0.05496681109070778, -0.017290974035859108, -0.09004141390323639, 0.024360522627830505, 0.14483025670051575, 0.045068033039569855, 0.051207199692726135, -0.003620811039581895, 0.0182073712348938, -0.04663597792387009, -0.017454711720347404, -0.0027466497849673033, 0.04781048744916916, -0.06057921051979065, 0.013737808912992477, 0.06059548258781433, -0.13409355282783508, 0.0618533231317997], [-0.08289914578199387, 0.016084035858511925, -0.08273042738437653, 0.0998196005821228, 0.10234620422124863, -0.039664167910814285, -0.12155843526124954, 0.03566266596317291, -0.01305820606648922, 0.0649750828742981, -0.04183584079146385, -0.039127200841903687, 0.02453426644206047, -0.02713940665125847, 0.009802540764212608, 0.06285708397626877, -0.11487074941396713, -0.08196020126342773, 0.10370833426713943, 0.03169601410627365, 0.051710210740566254, 0.10352852940559387, -0.015785085037350655, 0.01583569496870041, -0.02303822711110115, 0.008347665891051292, -0.025058915838599205, -0.03825533017516136, 0.019642706960439682, 0.12486305832862854, 0.09781437367200851, 0.04082220792770386], [0.00939873605966568, -0.09686589986085892, 0.02758483774960041, 0.13805538415908813, -0.1041988804936409, -0.00997981522232294, -0.09019981324672699, -0.05518553406000137, -0.10257047414779663, -0.02484842762351036, -0.006835492793470621, -0.026931479573249817, 0.04999286308884621, -0.026733197271823883, 0.017858799546957016, 0.03470396250486374, 0.08169548958539963, 0.0009894062532112002, 0.04585292190313339, 0.039981260895729065, -0.16074776649475098, 0.008324410766363144, 0.022717580199241638, 0.07383431494235992, -0.11215420067310333, 0.09832929074764252, 0.020642541348934174, -0.08297445625066757, -0.04826733469963074, -0.09596849232912064, 0.009288481436669827, 0.053118996322155], [-0.21023066341876984, 0.014074377715587616, -0.08191780745983124, -0.10707848519086838, -0.20576034486293793, 0.1284514218568802, -0.13219822943210602, 0.12235309928655624, 0.09647520631551743, 0.055880140513181686, -0.011336641386151314, 0.020085258409380913, -0.09109708666801453, 0.01350043062120676, -0.154535710811615, 0.12194234877824783, -0.07489844411611557, -0.06618119031190872, 0.12163016945123672, 0.1041879951953888, -0.09319616109132767, -0.10269307345151901, -0.005304079968482256, 0.057844795286655426, -0.20216962695121765, 0.15649065375328064, 0.09044144302606583, 0.021862152963876724, 0.025616053491830826, 0.022911259904503822, 0.2036105841398239, -0.08912522345781326], [0.09708663821220398, 0.06931442767381668, 0.09608370065689087, 0.15677951276302338, 0.014334900304675102, -0.0683666318655014, 0.06802784651517868, 0.04214033484458923, 0.000812124228104949, -0.0558772049844265, 0.09607526659965515, 0.05639294162392616, 0.0481412336230278, 0.023537250235676765, 0.09337863326072693, 0.08224357664585114, 0.079920694231987, 0.08780770748853683, 0.06421345472335815, -0.01936100795865059, 0.04999058321118355, 0.0913720428943634, 0.014518816955387592, 0.0942474752664566, 0.0664842277765274, -0.037385620176792145, -0.042770300060510635, 0.017449619248509407, 0.026428058743476868, -0.17613714933395386, 0.1609962433576584, -0.1277523636817932], [0.07901451736688614, -0.004718344192951918, -0.011201759800314903, -0.02592582069337368, -0.05021490901708603, 0.004397880751639605, -0.020413754507899284, 0.05983300134539604, 0.026772551238536835, -0.006899920757859945, 0.010553538799285889, -0.030980493873357773, 0.006180896423757076, -0.004892417695373297, -0.029434259980916977, 0.0019658368546515703, -0.08382855355739594, -0.0035200142301619053, -0.01906402036547661, 0.012971862219274044, -0.030902758240699768, 0.03734360262751579, -0.006035833619534969, -0.006172090768814087, -0.07820639759302139, -0.005487469024956226, 0.004005169030278921, -0.04568500816822052, -0.006220497190952301, 0.0021360055543482304, 0.057078517973423004, 4.423808422870934e-05], [-0.0994940996170044, 0.11931510269641876, 0.017425978556275368, -0.029022328555583954, 0.12915517389774323, -0.01430462021380663, 0.06187884509563446, -0.10218539834022522, -0.05062065273523331, 0.03224746882915497, -0.041193414479494095, -0.2040473371744156, -0.012333935126662254, 0.03859473019838333, 0.1473328322172165, 0.0353967547416687, 0.058185361325740814, 0.03730140998959541, 0.10497504472732544, 0.049210768193006516, 0.004040354397147894, 0.09239789843559265, -0.04331599548459053, -0.12221674621105194, 0.04930942878127098, -0.10698887705802917, 0.05930635705590248, -0.08265712857246399, 0.0488896481692791, 0.13873639702796936, 0.14937132596969604, -0.004383577033877373], [-0.07262979447841644, -0.04295389726758003, -0.016275625675916672, 0.00162900157738477, -0.01536052580922842, -0.005003578960895538, 0.007906341925263405, 0.09550870209932327, -0.0384734645485878, -0.005404706113040447, 0.008918466977775097, 0.03246993198990822, -0.13146446645259857, -0.0007740879082120955, -0.0271619725972414, -0.026605380699038506, 0.034696776419878006, -0.010187233798205853, 0.06440326571464539, -0.024190671741962433, -0.003492938354611397, 0.010771447792649269, 0.00421132193878293, -0.001643113442696631, 0.03411797061562538, 0.0014357671607285738, -0.004900500178337097, -0.04795253276824951, 0.03585086017847061, 0.015490279532968998, -0.003047495847567916, 0.005306989420205355], [0.00892762653529644, 0.01345131080597639, -0.008694284595549107, 0.06712871789932251, -0.15006662905216217, -0.02678864635527134, -0.12258276343345642, 0.10836972296237946, 0.03761526197195053, 0.015599246136844158, -0.08499939739704132, 0.07872159034013748, -0.014243576675653458, -0.08229739218950272, 0.045953452587127686, 0.07079195976257324, -0.08032536506652832, -0.013872712850570679, -0.07793150842189789, -0.020018937066197395, -0.07772144675254822, -0.11695242673158646, -0.1153908371925354, -0.007521103136241436, -0.03358280286192894, 0.006809474900364876, -0.012510465458035469, 0.006675812415778637, -0.043753959238529205, -0.12297683954238892, 0.08557018637657166, 0.03632102161645889], [-0.08173239231109619, -0.061029136180877686, -0.00018846307648345828, 0.04766405373811722, 0.10659733414649963, 0.045291800051927567, 0.05323752760887146, -0.04098496586084366, -0.029597925022244453, -0.002812571357935667, 0.03805205598473549, 0.1522088646888733, -0.012576207518577576, -0.0028732637874782085, -0.0735267773270607, -0.06347762048244476, 0.1232103481888771, 0.07594267278909683, 0.09359180927276611, -0.09305605292320251, -0.08185964077711105, -0.11213693767786026, 0.0038633435033261776, 0.011842373758554459, 0.1461627185344696, 0.11774236708879471, -0.01997179351747036, -0.09313543885946274, -0.05581364780664444, -0.04105840250849724, 0.08297611027956009, -0.0058953529223799706], [-0.04270923510193825, 0.032661255449056625, 0.057430341839790344, 0.030421793460845947, 0.031210236251354218, -0.005151485558599234, 0.021757543087005615, -0.05792897194623947, -0.02423269674181938, 0.0006472168606705964, 0.008606084622442722, -0.04384973645210266, -0.033743660897016525, -0.004150385037064552, 0.01634894870221615, -0.015396990813314915, -0.009789062663912773, 0.012203757651150227, -0.004802733194082975, 0.0017438491340726614, -0.028165040537714958, -0.020786484703421593, 0.006415382027626038, 0.012100333347916603, 0.00047040305798873305, 0.009550409391522408, 0.0025449420791119337, -0.015619305893778801, 0.016808319836854935, -0.07414500415325165, 0.04886059835553169, -0.03688967600464821], [-0.05516814440488815, -0.0457160510122776, -0.03357844427227974, -0.07477448880672455, -0.1422591209411621, -0.040485087782144547, -0.1397850662469864, 0.18869611620903015, 0.10570250451564789, 0.15416479110717773, -0.07399556040763855, -0.012621436268091202, 0.0350784957408905, -0.1414077877998352, 0.1274048537015915, 0.010156426578760147, 0.29378741979599, -0.13235536217689514, 0.07656262069940567, -0.2660387456417084, 0.1900906264781952, 0.07449321448802948, -0.1302691102027893, -0.10515961050987244, 0.10360483080148697, 0.1113637387752533, -0.021948961541056633, -0.20507219433784485, -0.02465653419494629, 0.04076794907450676, -0.13396266102790833, 0.19790437817573547], [-0.10027796030044556, 0.01781974732875824, -0.08390039950609207, 0.010600856505334377, 0.03487105667591095, 0.011632458306849003, -0.03754936158657074, 0.05212726816534996, 0.07978236675262451, 0.03198698163032532, -0.008829752914607525, -0.03820505365729332, -0.03216222673654556, -0.021509720012545586, 0.02493513748049736, -0.0034759046975523233, -0.10254914313554764, -0.08076987415552139, 0.06796861439943314, -0.05998332053422928, 0.025907503440976143, -0.019506949931383133, -0.053032949566841125, -0.0406033881008625, 0.05803322419524193, -0.011516235768795013, -0.019169507548213005, 0.02577603980898857, 0.0002686695952434093, -0.009617520496249199, -0.06569843739271164, 0.024994004517793655], [-0.020355409011244774, -0.07135520875453949, 0.005551746115088463, -0.06598704308271408, -0.15546950697898865, -0.013259269297122955, -0.0123216537758708, -0.10438845306634903, -0.05565152317285538, -0.062168654054403305, 0.08867939561605453, -0.06413988023996353, 0.048356592655181885, -0.009205157868564129, 0.09025949984788895, 0.08648692071437836, -0.07285288721323013, 0.037708502262830734, 0.00024771731114014983, 0.06582288444042206, -0.0731857568025589, -0.12662824988365173, -0.03603621572256088, -0.06075003743171692, -0.17449678480625153, 0.10329872369766235, 0.023767221719026566, -0.06803075969219208, 0.053055569529533386, 0.03170078620314598, 0.016194041818380356, 0.09938094019889832], [-0.0889471173286438, 0.017402037978172302, -0.008360286243259907, 0.010273140855133533, 0.10924851894378662, 0.029056278988718987, -0.05592148005962372, -0.0891747772693634, -0.12006674706935883, 0.07055046409368515, -0.041509196162223816, -0.11131644994020462, -0.068535216152668, 0.0054079750552773476, 0.04958890751004219, -0.024565527215600014, -0.3077676296234131, -0.08480086922645569, 0.09041998535394669, 0.03137786686420441, 0.06334220618009567, 0.03532510623335838, -0.0446336455643177, -0.054454121738672256, 0.026984546333551407, -0.05916927009820938, 0.005551213398575783, 0.008433313108980656, -0.004165145102888346, 0.004270460456609726, -0.12786553800106049, 0.12071764469146729], [-0.11474276334047318, 0.014408954419195652, -0.010349580086767673, -0.038755226880311966, 0.05589478090405464, 0.04451470822095871, 0.019393494352698326, 0.11244388669729233, -0.041873086243867874, -0.002733880188316107, 0.04557668790221214, 0.008754793554544449, 0.03198190778493881, -0.004905526991933584, 0.09558969736099243, 0.05701153352856636, 0.06563397496938705, -0.041843947023153305, 0.12435431778430939, -0.1273108571767807, 0.063060462474823, -0.16472364962100983, -0.03658946976065636, 0.11005772650241852, -0.12441893666982651, 0.14016927778720856, -0.08714622259140015, 0.05415938049554825, 0.06844592094421387, 0.09705223143100739, -0.08215542137622833, 0.07385960221290588], [0.04768127202987671, -0.02452913112938404, -0.12072718888521194, 0.08934467285871506, 0.10361935943365097, 0.015091503039002419, 0.0828082486987114, -0.0872858315706253, 0.0033410724718123674, 0.03418583795428276, -0.042340006679296494, 0.14809472858905792, -0.054899077862501144, -0.061737898737192154, -0.008389396592974663, -0.010724763385951519, 0.06769555062055588, -0.03604355826973915, 0.04469728842377663, -0.03898293152451515, 0.08031505346298218, 0.02404092624783516, -0.013981282711029053, 0.10260123759508133, 0.0024646332021802664, 0.19252808392047882, 0.047120351344347, 0.09238342940807343, -0.04477674886584282, 0.13688717782497406, 0.04818824678659439, -0.08031986653804779], [-0.05803130567073822, -0.011473333463072777, -0.028333034366369247, 0.010611961595714092, 0.015976909548044205, 0.015369044616818428, -0.07663530111312866, -0.09670363366603851, -0.013267968781292439, 0.03351115807890892, -0.004769424442201853, -0.04678250849246979, -0.03836183622479439, -0.028738664463162422, 0.042887620627880096, 0.00807507336139679, -0.08667552471160889, -0.07370574027299881, 0.07073219120502472, -0.06411361694335938, 0.059758104383945465, 0.05479477345943451, -0.053800951689481735, -0.03685782104730606, -0.10531975328922272, -0.0013134125620126724, -0.01566460356116295, -0.0941803902387619, 0.004349177703261375, 0.021464426070451736, -0.06426697969436646, 0.036973029375076294], [-0.1067049577832222, 0.05880259722471237, 0.09004835784435272, -0.1349177211523056, 0.005129384808242321, 0.0745835155248642, 0.0552189014852047, 0.14498625695705414, -0.14614595472812653, 0.016101883724331856, 0.06696375459432602, 0.1128753051161766, -0.0005415974883362651, -0.040704213082790375, -0.08614303171634674, -0.12384364753961563, -0.04540359228849411, 0.020077267661690712, -0.05601963773369789, -0.017297288402915, 0.03383917734026909, 0.0019985397811979055, -0.10553734004497528, 0.05118892714381218, -0.023044457659125328, -0.040974896401166916, -0.05323896184563637, 0.08199327439069748, -0.027861066162586212, -0.01342521421611309, 0.15812864899635315, 0.0635763630270958], [0.06151778995990753, -0.0005267379456199706, 0.05345730856060982, 0.1198810487985611, 0.011143719777464867, -0.015923162922263145, 0.033039916306734085, -0.013209616765379906, -0.07601381093263626, -0.03452648967504501, -0.04751994088292122, -0.00016605504788458347, 0.0017205480253323913, -0.00803698506206274, -0.017993316054344177, 0.008423522114753723, 0.04132197052240372, 0.021862750872969627, -0.11070091277360916, 0.025296339765191078, -0.003545081475749612, 0.03387530893087387, 0.009226786904036999, 0.025144366547465324, 0.09270703047513962, 0.09136145561933517, -0.05327074974775314, -0.027406873181462288, -0.010061807930469513, -0.015641825273633003, 0.10456553846597672, 0.08539102971553802], [-0.090684674680233, -0.09070118516683578, -0.10113571584224701, -0.06349243223667145, -0.1259394884109497, -0.052102331072092056, 0.10724443942308426, 0.12245491147041321, -0.07043402642011642, 0.04802095144987106, 0.017483090981841087, -0.01339966244995594, 0.05745963752269745, 0.056552283465862274, 0.03921153023838997, 0.02068038284778595, 0.05613311380147934, 0.04893244430422783, 0.03735670447349548, 0.17327506840229034, 0.06327547132968903, 0.11796867847442627, 0.07484349608421326, 0.07298927754163742, -0.07364143431186676, -0.0378459133207798, -0.05949817970395088, -0.03414709120988846, 0.0501314252614975, 0.10787616670131683, 0.11628617346286774, -0.12226946651935577], [0.06575410068035126, -0.10907898843288422, -0.03867429494857788, -0.06264137476682663, 0.05279648303985596, 0.010702133178710938, -0.0002628307556733489, -0.02722608670592308, -0.15280114114284515, -0.03672517463564873, -0.12695026397705078, 0.11527993530035019, -0.07486389577388763, -0.09403987973928452, -0.08281289041042328, 0.07641938328742981, -0.027561485767364502, -0.009561874903738499, 0.09398499876260757, 0.024112703278660774, -0.14771682024002075, -0.1529388725757599, -0.11822964996099472, 0.10759018361568451, 0.015405533835291862, 0.16479939222335815, -0.13574258983135223, 0.037568047642707825, 0.03495778515934944, -0.06599302589893341, 0.11393290758132935, -0.14061591029167175], [-0.0346028096973896, 0.025639444589614868, 0.028526565060019493, 0.07099854946136475, -0.12463574856519699, -0.014045349322259426, -0.0026259187143296003, -0.19519764184951782, 0.05205518379807472, -0.04988058656454086, -0.018717531114816666, 0.0040716249495744705, -0.02245783619582653, 0.04217923805117607, -0.02284363843500614, 0.10197632759809494, -0.1791173368692398, -0.010630529373884201, 0.09161200374364853, 0.08473692089319229, -0.1291307657957077, -0.06982956826686859, -0.00020948245946783572, 0.006340892985463142, 0.06393211334943771, 0.05311974138021469, -0.03141240030527115, 0.12183384597301483, 0.04676312953233719, 0.13752508163452148, -0.06796503812074661, -0.052691008895635605], [-0.05634318292140961, -0.04535861685872078, -0.09687085449695587, -0.07978352159261703, -0.004526482429355383, -0.011811223812401295, -0.11372848600149155, -0.02047988586127758, -0.02700662612915039, -0.009039112366735935, 0.011624561622738838, -0.026131967082619667, -0.017468731850385666, -0.0013422451447695494, 0.09995041787624359, -0.022504087537527084, -0.05272109434008598, -0.024931279942393303, -0.06882721930742264, 0.01145807933062315, 0.01928536966443062, 0.1060035452246666, -0.03965429216623306, 0.04247763752937317, 0.043813660740852356, -0.008718586526811123, 0.009125853888690472, 0.03354760631918907, 0.0327318049967289, 0.020788609981536865, 0.022936875000596046, 0.12364524602890015], [0.08374190330505371, -0.08286315202713013, 0.006535222288221121, -0.02348487079143524, -0.07405736297369003, -0.007062777876853943, 0.010858613066375256, 0.15292368829250336, 0.12794645130634308, -0.0017230398952960968, 0.01751095801591873, -0.013537188991904259, 0.010601496323943138, -0.0009846498724073172, 0.016729792580008507, -0.01182498224079609, 0.06105465069413185, 0.016037393361330032, 0.03235344588756561, -0.04215133190155029, -0.03508073091506958, -0.03319546952843666, 0.0020153350196778774, 0.012740548700094223, 0.046106211841106415, 0.01357173826545477, -0.005456490907818079, 0.012984135188162327, 0.006064074579626322, -0.14119268953800201, 0.01905743218958378, 0.0029884499963372946], [-0.05775202065706253, -0.0738888680934906, 0.008537344634532928, 0.0949079617857933, 0.16975407302379608, -0.04830477014183998, -0.005119447596371174, 0.1273881196975708, -0.07437921315431595, 0.028670772910118103, -0.07385675609111786, -0.03893042355775833, -0.005383637733757496, 0.02830166183412075, 0.10309293866157532, -0.09238892793655396, -0.05861304700374603, 0.05134506896138191, -0.09491253644227982, 0.1261100322008133, 0.09141306579113007, -0.026949094608426094, 0.004128003492951393, -0.03186790645122528, 0.1068725436925888, -0.12249164283275604, 0.09372278302907944, 0.048462145030498505, -0.07454970479011536, -0.08918464183807373, -0.033820636570453644, 0.11645036190748215], [-0.07437256723642349, -0.03536095842719078, -0.005598835181444883, -0.1272110641002655, -0.14752550423145294, -0.03860015794634819, 0.0958821028470993, 0.06626588851213455, 0.12039317190647125, -0.013263419270515442, 0.008229844272136688, -0.06595183163881302, 0.029993880540132523, -0.004248743876814842, -0.06654449552297592, -0.05074315518140793, 0.10046365112066269, 0.06293850392103195, 0.11573011428117752, -0.030770527198910713, -0.09816258400678635, -0.1724618673324585, 0.06959289312362671, 0.06601685285568237, 0.07761035859584808, 0.145213782787323, -0.10550308227539062, -0.11703746020793915, 0.037897784262895584, -0.059320855885744095, 0.02379082702100277, 0.029205525293946266], [-0.010642723180353642, 0.043805357068777084, -0.07253046333789825, -0.07949519902467728, 0.06539080291986465, -0.0003090274112764746, 0.04101847484707832, 0.09244252741336823, 0.04289422929286957, -0.0029884492978453636, -0.002985888160765171, -0.08746135234832764, -0.0050287796184420586, 0.008371164090931416, 0.07263514399528503, -0.007650328334420919, 0.09605935215950012, 0.01730252429842949, -0.06889703124761581, -0.03836912289261818, 0.050228022038936615, 0.012277787551283836, 0.011079340241849422, -0.02231406792998314, 0.06890984624624252, -0.035413648933172226, 0.0014176854165270925, -0.004277848172932863, -0.0052391947247087955, 0.029943449422717094, -0.16021472215652466, 0.008985951542854309], [0.036674946546554565, -0.0013051260029897094, 0.0029901533853262663, -0.004047960042953491, 0.007844415493309498, 6.004127499181777e-05, -0.00021401621052064002, 0.012265303172171116, 0.007644653785973787, 2.857182153093163e-05, 4.078946221852675e-05, -0.0006441061268560588, -7.003544305916876e-05, -0.0001336398854618892, 0.0007907241233624518, 8.762240031501278e-05, -0.0007814561831764877, -0.0001097298227250576, 0.010594612918794155, -0.0004665051819756627, 0.000733568100258708, 0.0015856655081734061, -0.0001271285000257194, -8.367391274077818e-05, 0.013324687257409096, 0.00024213548749685287, 3.257558273617178e-05, 0.0019477816531434655, -4.750711923406925e-06, 0.0008980693528428674, -0.009978079237043858, 0.0005842235404998064], [0.005886828526854515, -0.004385060165077448, -0.00043452088721096516, 0.009920488111674786, 0.04033755883574486, 6.576059604412876e-06, -0.000389527267543599, -0.008587862364947796, 0.008327402174472809, 0.00017714643036015332, 1.0597831533232238e-05, 0.02100493013858795, 0.0005184925394132733, -0.00027776890783570707, -0.00849216990172863, 0.00020066006982233375, 0.0023741761688143015, -0.00019290017371531576, -0.009410224854946136, -0.0017629185458645225, 0.0006151880952529609, 0.005196861457079649, -0.00020047258294653147, -0.00015518236614298075, 0.002324766479432583, 0.0006376291275955737, -0.00031164399115368724, -0.0036132833920419216, -0.00013070031127426773, -0.011786089278757572, -0.022585175931453705, 0.0014310427941381931], [0.016363589093089104, 0.00018573850684333593, 0.0004094448231626302, -0.0009101261966861784, 0.012483876198530197, 1.9534378225216642e-05, 9.351533662993461e-05, 0.0003122445195913315, -0.0002992261725012213, -3.7604186218231916e-05, 0.00013567872520070523, 0.0008402207167819142, -0.0001882252108771354, -3.0065610189922154e-05, -0.0001234912488143891, 2.830897574312985e-05, -0.004906229209154844, 4.195226210867986e-05, 0.013245525769889355, 0.0006453125970438123, 0.0005307347746565938, -0.0005698313470929861, -4.2353247408755124e-05, 0.00010904813825618476, 0.009924001060426235, -0.00016916026652324945, 0.0002462491684127599, 0.0017461448442190886, 7.636161899426952e-05, -0.0014794297749176621, -0.01487458311021328, -0.0002868961601052433], [-0.021802982315421104, -0.001424015499651432, 0.010647905990481377, -0.01445659901946783, -0.01114808488637209, -0.00028369197389110923, 0.013123888522386551, 0.0784112885594368, 0.008931725285947323, -0.0042005786672234535, 0.00046553893480449915, 0.014929944649338722, 0.0026554069481790066, 0.006359671242535114, -0.011086233891546726, -0.0012833430664613843, 0.06752518564462662, 0.009116561152040958, 0.03865811228752136, 0.011587466113269329, -0.0034739896655082703, 0.013589822687208652, 0.008082722313702106, 0.0038329076487571, 0.0003892137319780886, -0.009857986122369766, 0.0027605146169662476, 0.021804360672831535, 0.0023631227668374777, 0.00044724324834533036, -0.016278116032481194, -0.01283822301775217], [0.002817502710968256, -1.4123768778517842e-05, 0.0005779480561614037, -0.0003450515796430409, 0.0020810177084058523, 0.0009196309256367385, 0.0012578184250742197, 0.0014067691517993808, 0.0019037460442632437, -0.0003606345853768289, 0.0007396111614070833, 0.00032036853372119367, 0.0006016232073307037, 0.0003765921574085951, -0.001072486280463636, 0.0005870742606930435, -0.01865612529218197, 0.0005514747463166714, 0.00116999342571944, 0.0029038721695542336, 0.00029345499933697283, 0.0005554049857892096, 0.0003147460229229182, 0.00021636285237036645, 0.001785470056347549, -0.0013998497743159533, 0.0006434776587411761, 0.0017774815205484629, 0.0006554030114784837, -0.0006450600922107697, -0.0008493640925735235, -0.001323441625572741], [0.015562264248728752, -1.3636579751619138e-05, 0.00033942415029741824, -0.0005043068085797131, 0.012910391204059124, 0.0010430649854242802, 0.0008885119459591806, 0.0060544866137206554, 0.0024676728062331676, -0.0010347944917157292, 0.0011081054108217359, 0.0010493462905287743, -0.0005267055821605027, 0.0019938636105507612, -0.001955610467121005, 0.00019004332716576755, -0.020531361922621727, 0.0008751841960474849, 0.0033624947536736727, 0.0028956823516637087, -0.0006559910252690315, 0.0013811819953843951, 0.001040305127389729, 0.0005859940429218113, 0.005809769965708256, -0.0032517476938664913, 0.0007936407346278429, 0.004577651619911194, 0.0007090053986757994, -0.0026837866753339767, -0.0022347080521285534, -0.0020489152520895004], [0.12989695370197296, 0.0021121534518897533, 0.012917057611048222, -0.010900571942329407, -0.012998589314520359, 0.0015605224762111902, 0.009204912930727005, 0.04392526298761368, 0.05227482691407204, -0.0011614393442869186, 0.0024232976138591766, -0.028802013024687767, -0.017528437077999115, 0.011767208576202393, 0.008379563689231873, -0.004148437175899744, -0.15416428446769714, 0.00189868058077991, 0.03506756201386452, 0.03419185057282448, 0.040387481451034546, 0.04288829118013382, 0.003410773351788521, -0.001426834613084793, 0.04587896913290024, -0.03390432521700859, 0.008588855154812336, 0.07328443229198456, 0.004547283053398132, 0.038042403757572174, -0.10308588296175003, -0.0011972578940913081], [-0.027841538190841675, 0.008159719407558441, -0.05566217005252838, -0.046281229704618454, -0.030758006498217583, -0.0020101494155824184, 0.01436244510114193, 0.0014109769836068153, 0.018752435222268105, -0.0001681619178270921, -0.007665347307920456, -0.04324289411306381, -0.009665065445005894, 0.010841669514775276, -0.037405308336019516, -0.002425969345495105, -0.084333635866642, 0.002641814760863781, -0.05534782633185387, 0.03341757133603096, 0.02162857912480831, 0.08636955916881561, 0.005424183793365955, -0.004932896699756384, 0.05960780754685402, -0.03453844413161278, 0.009924535639584064, 0.03680333495140076, 0.0035566864535212517, 0.05485063046216965, -0.024036312475800514, -0.03130767121911049], [0.018145428970456123, 0.00042099005077034235, 3.7545156374108046e-05, -0.0007148246513679624, 0.011112738400697708, 0.00025213471963070333, 0.0008435298223048449, 0.006254675332456827, 0.0034464432392269373, -0.00045791789307259023, 0.00037820375291630626, 0.0004210291081108153, -0.0002615751582197845, 0.0012659399071708322, -0.0012185958912596107, 9.631668945075944e-05, -0.019529445096850395, 0.0007056760368868709, 0.0040839132852852345, 0.002512548351660371, 0.0001787955843610689, 0.0018569027306511998, 0.0007529798895120621, 0.0006133161368779838, 0.006008487660437822, -0.0017036549979820848, 0.0005772084114141762, 0.004062341526150703, 0.0005566254258155823, -0.001355677261017263, -0.004086763598024845, -0.0015869956696406007], [0.0019611434545367956, -0.00014986138558015227, 0.0005461565451696515, -0.0003060631570406258, 0.0014662217581644654, 0.0004983495455235243, 0.0009550194954499602, 0.0012842220021411777, 0.0015944051556289196, -0.00016468837566208094, 0.0003915978886652738, 0.0003192064177710563, 0.0007501762011088431, -0.0001931286824401468, -0.0008936054073274136, 0.00015298245125450194, -0.01915096305310726, 8.705814252607524e-05, 0.0009533041156828403, 0.0016813452821224928, 0.0002962009748443961, 0.0004759710282087326, -0.0004186555161140859, 2.368555578868836e-05, 0.0015642244834452868, -0.0010363623732700944, 0.0004633254138752818, 0.0013537384802475572, 0.0003901432501152158, -0.0005641423049382865, -0.000738504808396101, -0.0010322920279577374], [-0.006464884616434574, -0.004096331540495157, 0.012347512878477573, -0.009373576380312443, 0.03960045799612999, -0.00025584391551092267, 0.0005786974215880036, 0.06771083176136017, 0.01466600876301527, 0.0010169388260692358, -0.0009103230549953878, 0.01552982535213232, 0.0019091586582362652, -0.002097682561725378, -0.0077560581266880035, 0.0002941630664281547, 0.006910181604325771, -0.0008186206687241793, -0.011636209674179554, -0.007079155649989843, 0.004789156839251518, -0.0011809627758339047, -0.001076584099791944, -0.0010063714580610394, 0.017954843118786812, 0.004166319500654936, -0.001297997310757637, -0.0069531770423054695, -0.0005129998899064958, 0.004745864775031805, -0.0027919658459722996, -0.003629719838500023], [0.013452780432999134, 0.0007691375212743878, -0.0015475369291380048, -0.0003255822230130434, 0.0024157764855772257, -0.0011834369506686926, 4.256374086253345e-05, 0.007938629016280174, -0.003491149051114917, 0.0018097227439284325, -0.0014232955873012543, -0.0016184506239369512, 0.006153912749141455, -0.0010502795921638608, -0.001514413277618587, 0.0018448280170559883, -0.006115495692938566, -0.0005825876723974943, 0.0006723647238686681, 4.7131790779531e-05, 0.002324940636754036, 0.0006978463497944176, -0.0012121335603296757, 0.00021565778297372162, 0.0007381362374871969, 0.0028951591812074184, -0.0011757883476093411, 0.004185163881629705, -0.0017587394686415792, -0.00012191534187877551, 0.001600981573574245, -0.0024136200081557035], [0.021303875371813774, 0.0003598734620027244, -0.0007765514310449362, -0.0006510436069220304, 0.013276837766170502, 0.0008418872603215277, 0.0010336716659367085, 0.007520103361457586, 0.00336826522834599, -0.0010303719900548458, 0.001398723223246634, -0.0003784698201343417, -0.00032033835304901004, 0.0009174792794510722, -0.001736584585160017, 9.044061880558729e-05, -0.030640611425042152, 0.0005386833217926323, 0.0035140784457325935, 0.0020171215292066336, -0.0008734770235605538, 0.00148085318505764, 0.0007740102591924369, 0.0011025986168533564, 0.0074733104556798935, -0.0018162427004426718, 0.0005490609328262508, 0.006024469621479511, 0.0011895667994394898, -0.0006912841345183551, -0.0027050047647207975, -0.002841200912371278], [0.03179497644305229, -0.00012042718299198896, 0.0022448610980063677, -0.002115257317200303, 0.016018617898225784, 0.00048734317533671856, 0.0037913606502115726, 0.01778489165008068, -0.00021346492576412857, -0.002221008762717247, 0.0010332047240808606, 0.0021479215938597918, -0.0021182294003665447, 0.004961083177477121, -0.010922238230705261, -0.000762288342230022, -0.04352070763707161, 0.0016889444086700678, 0.006453205365687609, 0.009507435373961926, -0.0007341347518377006, 0.003834518836811185, 0.002223418792709708, 0.0019028279930353165, 0.00872452650219202, -0.007244611158967018, 0.0014158351114019752, 0.01634570024907589, 0.0005564267048612237, -0.005309105385094881, -0.013546361587941647, -0.008513900451362133], [0.001964575843885541, 0.00010754185495898128, 6.140670302556828e-05, -8.174327376764268e-05, 0.000881881162058562, 0.00017376066534779966, 0.00026807287940755486, 0.0010336588602513075, 0.00032785828807391226, -5.4784122767159715e-05, 0.00016010197577998042, 6.104396015871316e-05, 0.0004072567098774016, 0.00011803758388850838, -0.0003001052828039974, 1.026372228807304e-05, -0.004378580022603273, 0.00016042128845583647, 0.0004820784379262477, 0.00040383730083703995, 1.6929476259974763e-05, 0.00019617928774096072, 9.422852599527687e-05, 0.00011513451318023726, 0.0006020310102030635, -0.0002624444314278662, 8.081666601356119e-05, 0.0008069974137470126, 0.00010083462984766811, -0.0002414772316114977, -0.00032199587440118194, -0.0004299562715459615], [-0.050188783556222916, -0.005721407476812601, 0.0812569409608841, -0.0029950456228107214, 0.019839772954583168, 0.008515753783285618, 0.020823027938604355, -0.000564885325729847, 0.0907202884554863, -0.0023247560020536184, 0.006427515763789415, 0.041182879358530045, -0.03704076260328293, -0.020361434668302536, 0.02691151574254036, -0.004035197198390961, 0.22242504358291626, 0.003563550068065524, 0.04852205142378807, -0.11809713393449783, 0.03373121842741966, 0.00863621849566698, 0.00990615226328373, -0.00696698110550642, 0.0802818313241005, 0.03699618577957153, 0.008197839371860027, -0.07935279607772827, 0.0008925113943405449, -0.05976011976599693, -0.07615932822227478, 0.03874003887176514], [0.01297947857528925, 0.00028879501041956246, -0.00046426564222201705, -0.000217599852476269, 0.007090162951499224, 0.0003415951505303383, 0.0008583859889768064, 0.003497420810163021, 0.0009582628845237195, -0.0005748599069193006, 0.0007837768644094467, -0.0003698526415973902, 7.248589827213436e-05, 0.0007602067198604345, -0.001357081811875105, 0.00017819501226767898, -0.022488722577691078, 0.00045133676030673087, 0.0015294094337150455, 0.0011123347794637084, -0.00025096131139434874, 0.0007535223849117756, 0.0005616783746518195, 0.0005764650995843112, 0.0030431896448135376, -0.0015272196615114808, 0.0006033772951923311, 0.0026639443822205067, 0.0006806225283071399, -0.0003919901209883392, -0.0003280634991824627, -0.0024207227397710085], [0.025927236303687096, -0.0024771580938249826, 0.001278921845369041, -0.0215021800249815, 0.0012887915363535285, -3.7101275665918365e-05, 0.003943416755646467, -0.03900422155857086, -0.0021366970613598824, -0.0003872565575875342, 0.0044312188401818275, 0.02090548537671566, -0.0021698207128793, 0.0020566480234265327, -0.011836922727525234, -0.0004425905935931951, -0.03294820338487625, 0.000880720850545913, -0.02483580820262432, 0.00673408480361104, 0.023670880123972893, -0.012810032814741135, 0.0010926967952400446, 0.00018139701569452882, 0.060785047709941864, -0.005074422340840101, 0.0015964030753821135, 0.01666119694709778, 0.0008822529925964773, 0.021251261234283447, -0.03688202053308487, -0.004354885779321194], [0.07376889139413834, 0.011732070706784725, -0.007782644126564264, -0.003373166313394904, 0.0664520338177681, 0.005320461001247168, 0.009031136520206928, 0.019252361729741096, 0.01270987931638956, -0.005643891170620918, 0.01137106865644455, -0.006655725184828043, -0.010976163670420647, 0.0073738982900977135, -0.016426820307970047, -0.001145350863225758, -0.09889037907123566, 0.004152467008680105, 0.016051186248660088, 0.030716799199581146, -0.014926336705684662, 0.012274593114852905, 0.004434787202626467, 0.009833874180912971, 0.03338596597313881, -0.018527084961533546, 0.0035291993990540504, 0.054104484617710114, 0.009996838867664337, -0.005574206821620464, -0.010523635894060135, -0.020820969715714455], [0.01374017633497715, 0.0010195249924436212, 0.00457579642534256, 0.003857612842693925, 0.06527820974588394, 0.0006793563952669501, 0.0017449510050937533, 0.053656261414289474, 0.011269261129200459, -0.0007055089226923883, 0.0015099755255505443, -0.007133956532925367, -0.004660242702811956, 0.004062099382281303, -0.0021033540833741426, -0.0003784690925385803, -0.04654976353049278, 0.0024393401108682156, 0.034989356994628906, 0.006628320086747408, 0.0025093620643019676, 0.022720258682966232, 0.002806149423122406, 0.0010276113171130419, 0.037398628890514374, -0.006184914615005255, 0.001909288577735424, 0.019676029682159424, 0.0013325153850018978, -0.0050318604335188866, -0.02665850520133972, -0.00442560575902462], [0.01635289564728737, -0.0010020023910328746, 0.0015980442985892296, -0.019885772839188576, -0.025106940418481827, 0.00011058339441660792, 0.0007581383688375354, 0.0020846568513661623, 0.020441098138689995, 0.00022597693896386772, -0.0008459292585030198, -0.005712397396564484, 7.242018182296306e-05, 0.00010010588448494673, -0.0016682015266269445, 7.88160105003044e-06, -0.009431537240743637, 7.03964033164084e-05, -0.014671050012111664, -0.001562993973493576, 0.010249760001897812, 0.0050998469814658165, 4.516492481343448e-05, -0.000820280285552144, 0.027091030031442642, -0.0013483008369803429, 0.00023131303896661848, 0.006470030639320612, 0.0004123449034523219, -0.012388144619762897, -0.013376346789300442, 0.0035310268867760897], [0.01218849141150713, 8.378818165510893e-06, -0.0003828290500678122, -0.00043296432704664767, 0.006482526659965515, 0.0001044670061673969, 0.0009474866092205048, 0.0032004292588680983, 0.0006099429447203875, -0.0006206476828083396, 0.00040796780376695096, -0.00013008210225962102, 0.00032751509570516646, 0.0008390654693357646, -0.0016204870771616697, 5.569545101025142e-05, -0.020711170509457588, 0.0005092196515761316, 0.0011876493226736784, 0.0015383332502096891, -0.00024994462728500366, 0.0011516117956489325, 0.0005254342686384916, 0.000555765291210264, 0.002889749826863408, -0.001856949762441218, 0.0005506525048986077, 0.0025965587701648474, 0.00028922120691277087, -0.000454057939350605, -0.00014628494682256132, -0.002532097976654768], [0.001181923202238977, -0.00011906242434633896, 0.0035831029526889324, -0.0024823141284286976, 0.009656018577516079, 0.00012759718811139464, 0.0007017238531261683, -0.003343908814713359, 0.0026654868852347136, -0.00020556911476887763, 0.00019124068785458803, -0.0004989978042431176, -0.00016179589147213846, 0.00039277991163544357, -0.002098476979881525, -1.3179863344703335e-05, -0.00673055462539196, 0.00015591502597089857, 0.010448123328387737, 0.001192208961583674, 0.00016035347653087229, 0.0016272191423922777, 0.00015830292250029743, 0.00010112794552696869, 0.005803992040455341, -0.0007988230208866298, 0.0001985323178814724, 0.0022308260668069124, 0.00010336132982047275, -0.009246859699487686, -0.01044639851897955, -0.0018354811472818255], [-0.006138199474662542, 0.0019375161500647664, 0.008745589293539524, 0.0027155678253620863, 0.03229791298508644, 0.0014924498973414302, 0.0015055553521960974, 0.0504651702940464, -0.0008570447098463774, -0.00026046595303341746, 0.0019369951914995909, -0.003541363403201103, -0.0033452112693339586, 0.00046690087765455246, -0.004457842092961073, 0.0008840359514579177, -0.027750758454203606, 0.0008099746191874146, 0.008195926435291767, 0.0033407392911612988, 0.0021672167349606752, 0.015051456168293953, 0.0004718647978734225, -4.817050285055302e-05, 0.031401198357343674, -0.0021166387014091015, 0.0021942604798823595, 0.0012430382193997502, 0.0010973428143188357, 0.0037842465098947287, 0.009582753293216228, -0.0005658929003402591], [0.04484544321894646, 0.0011426634155213833, -0.000985264196060598, -0.0017569975461810827, 0.025130555033683777, 0.0017531426856294274, 0.0022869654931128025, 0.008543764241039753, 0.0065164715051651, -0.0017322299536317587, 0.0021027144975960255, 0.0006201952346600592, -0.0017808122793212533, 0.0020198666024953127, -0.004555102903395891, 0.0003065151395276189, -0.032213881611824036, 0.0015099014854058623, 0.007430600002408028, 0.006325849331915379, -0.0007013303111307323, 0.005002908408641815, 0.0017391616711392999, 0.0023935360368341208, 0.015210687182843685, -0.004502754658460617, 0.0009324130951426923, 0.014307000674307346, 0.00273635471239686, -0.0030421121045947075, -0.007061982527375221, -0.005290771368891001], [0.02169230207800865, -0.0003203815140295774, 0.0011526067974045873, -0.000723313947673887, 0.009297844022512436, 0.0004165773279964924, 8.075974619714543e-05, 0.01220506802201271, 0.005506640300154686, 6.557117740157992e-05, 0.00011372019071131945, 0.0011739421170204878, 0.0003603318182285875, -0.0001912549341795966, -0.00018094184633810073, 0.0003480910381767899, -0.015571290627121925, -3.369894329807721e-05, 0.007001945283263922, -0.0008406605338677764, 0.0008853695471771061, 0.001195864868350327, -0.0001262273290194571, -9.211819269694388e-05, 0.0066316211596131325, 0.00044874328887090087, -3.6478213587542996e-06, 0.0014012273168191314, 0.00017987762112170458, -0.002202727133408189, -0.004096195101737976, 0.0002230853569926694], [0.0010201556142419577, -0.0005201123422011733, 0.0005529347690753639, -0.006316685117781162, 0.07046081125736237, 0.001087542506866157, 0.012754382565617561, 0.039267003536224365, 0.020572995766997337, -0.0047891223803162575, 0.0012260643998160958, 0.0011059576645493507, -0.00339856487698853, 0.008544727228581905, -0.016818445175886154, -0.002030152129009366, 0.004800182767212391, 0.00869711022824049, -0.0009854510426521301, 0.023332631215453148, 0.00016340395086444914, 0.0192900188267231, 0.00791561882942915, 0.005179916508495808, 0.027946872636675835, -0.017567913979291916, 0.003773844800889492, 0.052224863320589066, 0.005047657992690802, -0.01617390103638172, -0.0018476038239896297, -0.01839018240571022], [0.003415452316403389, -1.657138636801392e-05, 0.00019915906887035817, -0.00019588612485677004, 0.002069066045805812, 0.00015387809253297746, 0.0003324998542666435, 0.001628126366995275, 0.0010178324300795794, -0.00013459038746077567, 0.0002216984867118299, 0.00024022413708735257, -0.00017141902935691178, -0.00024201101041398942, -0.00041516002966091037, 5.193410470383242e-05, -0.008846734650433064, 0.00019540698849596083, 0.0009077044087462127, 0.0010005146032199264, -2.9143571737222373e-05, 0.0004775160923600197, 0.00018990191165357828, 0.00010525407560635358, 0.001543059479445219, -0.0007956071058288217, 0.00021016916434746236, 0.001150207594037056, 0.00015460974827874452, -0.0004102821694687009, -0.0008528272155672312, -0.0005114801460877061], [0.02054554596543312, -0.00034238010994158685, 0.0012137355515733361, -9.082096948986873e-05, 0.01166432537138462, 0.00021244016534183174, 0.0001764473709044978, 0.013420382514595985, 0.0029309880919754505, -0.00023104433785192668, 7.50533290556632e-05, 0.0029798669274896383, 0.00019448627426754683, 0.0004706053587142378, -0.00084966782014817, 3.8892416341695935e-05, 0.0014176381519064307, 0.00011412235471652821, -0.00012618339678738266, -4.481442374526523e-05, 0.00021891205688007176, 0.00021088057837914675, 0.00014730497787240893, 8.295800944324583e-05, 0.002902444452047348, -0.0005096577224321663, 7.71979375713272e-06, 0.0002200880117015913, 6.318226223811507e-05, 2.75620877800975e-05, -0.0016171351308003068, -0.0004149845626670867], [-0.016100263223052025, 0.0016050338745117188, -0.0006464776815846562, -0.005121381022036076, 0.013546254485845566, 0.0011735232546925545, 0.002563559915870428, 0.03791910782456398, 0.0008186662453226745, -0.0010812777327373624, 0.001687697134912014, -0.0010076513281092048, -0.0057869115844368935, 0.0038857965264469385, -0.002410115674138069, -0.00011091931082773954, -0.052424341440200806, 0.0020798505283892155, -0.004378352779895067, 0.009524950757622719, 0.0034971123095601797, 0.005701892077922821, 0.00228405324742198, 0.0005267859669402242, 0.01777826063334942, -0.00810614787042141, 0.003025598358362913, 0.008768005296587944, 0.001914420397952199, 0.019206371158361435, -0.03218014910817146, -0.0041262805461883545], [0.031893540173769, 6.804149597883224e-05, -0.0035442241933196783, -0.0017366688698530197, 0.030355626717209816, 0.000594673736486584, 0.007130146026611328, 0.03751258924603462, 0.010643284767866135, -0.003655001288279891, 0.0018025311874225736, 0.0031333770602941513, -0.0038444558158516884, 0.008080585859715939, -0.009812294505536556, -0.0015935120172798634, -0.06800970435142517, 0.0030901802238076925, 0.006897487677633762, 0.017550799995660782, -0.0030736266635358334, 0.004600436892360449, 0.003824724117293954, 0.00363921164534986, 0.022710535675287247, -0.012059804052114487, 0.0025230632163584232, 0.023703761398792267, 0.0008445315179415047, 0.007072930224239826, 0.005075064022094011, -0.015015126205980778]], "lstm.bias_ih_l0": [0.05168154090642929, -0.03150531277060509, -0.17197485268115997, -0.10055921971797943, -0.013060202822089195, -0.025478079915046692, -0.09550843387842178, -0.019406644627451897, 0.05962129682302475, -0.11480183154344559, -0.0594048909842968, -0.020403403788805008, -0.15387508273124695, -0.11292452365159988, -0.04913215711712837, -0.02654578909277916, 0.0010755039984360337, -0.08851960301399231, 0.035571109503507614, -0.06413432955741882, -0.1292332410812378, -0.130355104804039, -0.13048994541168213, 0.056966476142406464, 0.0855628252029419, -0.06334801018238068, -0.014434196054935455, -0.06343217194080353, 0.013549293391406536, -0.10115804523229599, 0.08105668425559998, -0.0010995280463248491, 0.08929872512817383, 0.05544951558113098, -0.071038618683815, -0.03084428608417511, 0.02122228778898716, -0.01589794084429741, -0.04040094465017319, -0.05568509176373482, 0.0972960814833641, -0.11275961995124817, -0.002215540036559105, 0.04989028722047806, -0.14535780251026154, -0.08778136968612671, 0.05356183275580406, -0.015685155987739563, 0.4983527958393097, -0.09720151871442795, 0.10419551283121109, 0.02051844447851181, -0.010635744780302048, 0.05982441082596779, -0.06280297040939331, -0.15941128134727478, -0.15256525576114655, -0.14665630459785461, 0.04638590291142464, 0.028847433626651764, -0.06460674852132797, 0.004277652595192194, 0.07563316076993942, -0.036002375185489655, -0.12221106886863708, 0.04727770760655403, -0.012968798168003559, -0.09640190750360489, -0.04915196821093559, 0.12956450879573822, 0.07008915394544601, -0.11120051890611649, 0.007290024776011705, -0.10285541415214539, -0.05858839303255081, 0.008646784350275993, -0.04644825682044029, 0.05675403028726578, -0.03328189253807068, 0.017206549644470215, 0.12548218667507172, -0.023465480655431747, -0.08746383339166641, 0.12944529950618744, -0.023418357595801353, -0.08091679215431213, 0.04622297361493111, 0.11681970208883286, -0.07950454950332642, -0.05609041824936867, 0.09779495745897293, 0.10223711282014847, -0.07144682109355927, 0.048669975250959396, 0.14256338775157928, -0.05050451681017876, 0.0617842860519886, -0.11089757829904556, -0.010701115243136883, -0.10120793431997299, -0.15327364206314087, -0.005009145475924015, 0.002329002134501934, 0.10643251985311508, -0.04321940988302231, -0.13708706200122833, 0.025205589830875397, -0.11160535365343094, -0.1501946598291397, -0.16440623998641968, -0.07647797465324402, -0.012028224766254425, 0.005013676360249519, -0.11494468152523041, -0.018559129908680916, -0.04369691014289856, -0.10912774503231049, 0.015006480738520622, -0.13045451045036316, -0.011605259962379932, -0.1102188304066658, -0.028766056522727013, -0.018928922712802887, 0.0038357845041900873, -0.0007706236792728305, -0.060719262808561325, 0.05590762943029404, -0.01547896396368742], "lstm.bias_hh_l0": [0.0016473871655762196, 0.03185479715466499, 0.05751824751496315, 0.016004955396056175, 0.04236272722482681, -0.021777095273137093, 0.030944501981139183, 0.05274104326963425, -0.07619403302669525, -0.017953088507056236, -0.06438279151916504, -0.017912032082676888, -0.15481464564800262, -0.06137871742248535, -0.18266069889068604, -0.02818337269127369, -0.07997798174619675, -0.0939686968922615, -0.1377945989370346, -0.22145308554172516, -0.07359930127859116, 0.06674140691757202, -0.11205457895994186, 0.06472092866897583, -0.10754778981208801, -0.0760510191321373, -0.15830188989639282, -0.03082994557917118, -0.03206156566739082, -0.0841471329331398, 0.004756051581352949, -0.09164142608642578, 0.07924702763557434, 0.04611796513199806, -0.06275200098752975, 0.05863155424594879, -0.17783665657043457, -0.022986454889178276, -0.0038440865464508533, 0.011470149271190166, 0.0736236572265625, -0.010687957517802715, -0.016647687181830406, -0.05594813823699951, -0.14492473006248474, -0.10442982614040375, -0.021606972441077232, -0.02690703421831131, 0.5079856514930725, -0.08717610687017441, -0.038988299667835236, -0.12707464396953583, -0.036852579563856125, 