{"lstm.weight_ih_l0": [[-0.13652834296226501], [0.4648096561431885], [-0.0824648067355156], [0.04541627690196037], [-0.15334591269493103], [0.607693076133728], [-0.08247994631528854], [0.14686495065689087], [0.11253754049539566], [0.15427494049072266], [-0.004557961132377386], [0.11796046793460846], [0.10864457488059998], [-0.14623168110847473], [-0.1885135918855667], [-0.09786152839660645], [0.6570184230804443], [-0.24496322870254517], [0.8119071125984192], [-0.04229529947042465], [0.3835579454898834], [0.11583320051431656], [-0.10497162491083145], [0.060639772564172745], [0.04866601154208183], [-0.059709880501031876], [-0.04338613897562027], [-0.2305421680212021], [0.548166811466217], [-0.06308386474847794], [0.012852078303694725], [0.35546430945396423], [-0.30878373980522156], [0.47806236147880554], [-0.09217225015163422], [-0.005403667222708464], [-0.4265247881412506], [0.6038435101509094], [-0.19156865775585175], [0.06936297565698624], [-0.04278125241398811], [0.19015315175056458], [-0.37656643986701965], [-0.3050803542137146], [0.5203139185905457], [-0.11935023218393326], [-0.20569033920764923], [-0.40117907524108887], [0.4372551441192627], [-0.010519884526729584], [0.838708758354187], [0.7392852306365967], [0.39701542258262634], [0.005117329768836498], [-0.07880187034606934], [-0.28578656911849976], [0.03878636658191681], [0.12873245775699615], [-0.08311491459608078], [-0.4973727762699127], [0.644371509552002], [0.008115099743008614], [-0.0027710795402526855], [0.15854839980602264], [-0.03355219215154648], [-1.826569676399231], [-0.07335939258337021], [-0.06864519417285919], [-0.08162954449653625], [1.0939301252365112], [0.6562334895133972], [0.8500487804412842], [0.32382264733314514], [0.2483699768781662], [0.29511532187461853], [0.4658035933971405], [0.3108712136745453], [-0.15690071880817413], [0.2193305939435959], [0.07493488490581512], [-2.5140786170959473], [0.8126917481422424], [0.8070909380912781], [0.03212384134531021], [0.27022263407707214], [0.5181947946548462], [-0.966774582862854], [-0.40809136629104614], [0.08236666768789291], [-0.036097075790166855], [0.5020621418952942], [0.8483045697212219], [-0.04148627445101738], [0.45751792192459106], [0.2796506881713867], [0.03304915502667427], [-0.032874781638383865], [0.47567182779312134], [-0.12243593484163284], [0.09802218526601791], [-0.3966522216796875], [0.6294075846672058], [-0.16933709383010864], [0.07654429972171783], [0.02587202750146389], [0.23217664659023285], [-0.2619650363922119], [0.014612114056944847], [0.3408704102039337], [-0.17525504529476166], [-0.21358811855316162], [-0.2117634266614914], [0.6285861730575562], [-0.2912328839302063], [0.7832452654838562], [0.6781567335128784], [0.4297800660133362], [0.006355372257530689], [-0.07122917473316193], [-0.2822640538215637], [0.0955994501709938], [-0.013152205385267735], [-0.07237887382507324], [0.1343143880367279], [0.49447524547576904], [-0.09737823903560638], [-0.03621013090014458], [0.2894684672355652]], "lstm.weight_hh_l0": [[-0.08245083689689636, -0.3841642737388611, -0.04691090062260628, 0.1054774597287178, -0.1072990819811821, -0.05567768216133118, 0.014225440099835396, 0.033243391662836075, 0.06660518795251846, -0.024145476520061493, -0.1421786993741989, -0.1222359910607338, -0.06391158699989319, 0.03771292790770531, -0.04069297015666962, -0.08434554934501648, 0.859943151473999, 0.2888924777507782, 0.037059761583805084, -0.0603359192609787, -0.06600948423147202, -0.0024198584724217653, -0.1448153555393219, 0.16966593265533447, 0.009271720424294472, 0.10460056364536285, -0.059984371066093445, -0.39478740096092224, -0.12896138429641724, 0.11342688649892807, 0.1582520753145218, -0.15345996618270874], [0.03397137299180031, -0.22308269143104553, 0.15115346014499664, -0.08963870257139206, -0.1809491068124771, 0.39055633544921875, -0.003280443139374256, -0.05319127440452576, 0.08608293533325195, 0.022234424948692322, -0.07179930806159973, 0.06522075086832047, -0.1361902803182602, 0.0746850073337555, -0.1313672810792923, -0.010366739705204964, -0.6530072689056396, -0.0869053304195404, 0.21536794304847717, 0.07775088399648666, 0.2399318665266037, 0.2419186234474182, -0.0013364546466618776, 0.029170390218496323, 0.029131418094038963, 0.014206661842763424, -0.04743093624711037, -0.1694602072238922, -0.144524484872818, 0.0792962983250618, -0.055230867117643356, 0.21957431733608246], [0.02469761110842228, 0.0633571445941925, -0.08493135124444962, 0.08508552610874176, -0.058525484055280685, -0.10636772960424423, 0.028623104095458984, 0.034359294921159744, -0.026351915672421455, -0.11176880449056625, -0.00018214409647043794, -0.07562354952096939, -0.04448241367936134, -0.05311768874526024, 0.0165343526750803, 0.13311943411827087, -0.0708283931016922, 0.01779070869088173, -0.12143711745738983, 0.15085355937480927, -0.05568395182490349, -0.011404741555452347, 0.0026747381780296564, 0.0422641895711422, -0.04894011467695236, 0.13691192865371704, 0.024328410625457764, 0.1470976173877716, -0.15421801805496216, 0.19954022765159607, 0.05194828659296036, 0.050985559821128845], [-0.0010872387792915106, 0.2944934070110321, -0.06317929923534393, 0.014440723694860935, 0.10726712644100189, -0.16830696165561676, -0.005224436987191439, 0.025612182915210724, -0.07906221598386765, -0.06147506460547447, 0.07682597637176514, -0.0029089765157550573, -0.011390851810574532, -0.04553788900375366, 0.06829150766134262, -0.07686205953359604, -0.15581800043582916, -0.14748525619506836, -0.048795267939567566, 0.02403916046023369, -0.09272552281618118, -0.08079592138528824, -0.008363957516849041, -0.0796186625957489, -0.08383112400770187, 0.09935504198074341, 0.03103683516383171, 0.11246706545352936, 0.05986775457859039, 0.09757795184850693, 0.010043956339359283, -0.1314874142408371], [0.09518684446811676, 0.05300277844071388, -0.18251952528953552, -0.036095116287469864, 0.18018732964992523, -0.009062597528100014, -0.11257760226726532, 0.09817947447299957, -0.15720343589782715, -0.11014644056558609, 0.16212552785873413, 0.07280995696783066, 0.06775739789009094, -0.08297767490148544, 0.12744084000587463, -0.2227986752986908, -0.25534316897392273, 0.01668243110179901, -0.0343160405755043, -0.17113028466701508, -0.15547598898410797, -0.19574439525604248, -0.04302028566598892, -0.2309342473745346, -0.10658743977546692, 0.026457078754901886, 0.021159177646040916, 0.09197904169559479, 0.07589834183454514, 0.002659607445821166, 0.09227746725082397, -0.11779925972223282], [-0.08518713712692261, -0.09230154007673264, 0.029949786141514778, 0.056970030069351196, -0.1261686533689499, -0.015883546322584152, 0.09842266142368317, 0.059634335339069366, 0.07810743153095245, -0.03700031340122223, -0.07040215283632278, 0.006591360084712505, 0.054372623562812805, 0.03688058257102966, -0.0633542537689209, 0.04896404966711998, -0.27372118830680847, 0.1746484786272049, 0.021877331659197807, 0.23863863945007324, 0.10442927479743958, 0.09089202433824539, -0.022340694442391396, 0.06368093937635422, 0.02235393039882183, -0.04519595578312874, -0.07749376446008682, 0.09434841573238373, -0.19792377948760986, 0.11438702046871185, 0.05047759786248207, 0.07603902369737625], [0.1793111264705658, 0.03366546332836151, -0.06495295464992523, 0.03323426842689514, 0.06453186273574829, 0.03739292547106743, -0.08762789517641068, 0.031061725690960884, -0.12689360976219177, -0.09656855463981628, 0.0849996954202652, -0.0165727362036705, -0.13652373850345612, 0.012561125680804253, 0.14007830619812012, -0.19696389138698578, -0.1218319982290268, 0.11424817889928818, -0.12218698859214783, 0.10563058406114578, -0.08990124613046646, -0.11663012206554413, -0.01216348260641098, -0.035065095871686935, 0.03759268298745155, 0.1427897810935974, 0.061039574444293976, 0.16936661303043365, -0.11093111336231232, -0.09685884416103363, 0.06129981577396393, 0.03386855870485306], [-0.09248359501361847, -0.06064578890800476, -0.01585432142019272, 0.12300821393728256, -0.285283625125885, 0.06226905435323715, 0.14713113009929657, 0.05202564224600792, 0.1403430849313736, 0.019259897992014885, -0.19880075752735138, -0.22187989950180054, -0.005868398118764162, 0.004259239882230759, -0.03127112239599228, 0.2820899188518524, -0.041433148086071014, -0.17422588169574738, 0.06147700920701027, -0.06636722385883331, 0.024985341355204582, 0.19055788218975067, -0.06093817576766014, 0.2563338577747345, 0.0701957419514656, -0.04864070191979408, -0.027674926444888115, 0.20703822374343872, -0.047285906970500946, 0.11561998724937439, 0.02264408767223358, -0.09556816518306732], [0.22413569688796997, 0.14436469972133636, -0.10158418118953705, 0.07642457634210587, 0.02375735715031624, -0.0693090409040451, -0.04812221601605415, 0.058167703449726105, -0.09702255576848984, -0.024612292647361755, 0.032541561871767044, -0.03416009992361069, 0.11952024698257446, -0.01688373275101185, -0.06120675802230835, -0.10563980787992477, -0.16111667454242706, 0.07012905925512314, 0.0859823226928711, -0.08161569386720657, -0.05085476487874985, -0.07435309886932373, 0.0009720935486257076, -0.2374754399061203, -0.031807057559490204, 0.10390479862689972, 0.11113739758729935, 0.21051326394081116, 0.011972835287451744, 0.07644116878509521, 0.0385160930454731, -0.07699420303106308], [0.21761870384216309, -0.049049027264118195, -0.11141660064458847, 0.07113804668188095, 0.10029124468564987, 0.017260778695344925, 0.07673978060483932, 0.13261210918426514, -0.037607453763484955, 0.0743759423494339, 0.1030474305152893, 0.06608254462480545, 0.13523171842098236, -0.05806508660316467, 0.036353517323732376, -0.07358569651842117, -0.026106223464012146, 0.13197264075279236, 0.049492012709379196, -0.16711165010929108, -0.07951845228672028, -0.08960770070552826, 0.06053807586431503, -0.11133883148431778, 0.0019823280163109303, -0.09397590905427933, 0.06089077144861221, 0.1641218215227127, 0.12124837189912796, -0.11133049428462982, 0.06565196812152863, -0.14803394675254822], [0.26115289330482483, 0.17438232898712158, -0.09562218934297562, -0.01518973894417286, 0.08300743252038956, -0.09615477919578552, -0.12102068215608597, 0.06190946325659752, -0.15612491965293884, -0.07214272767305374, 0.17626416683197021, -0.043044719845056534, -0.009424036368727684, -0.06306648254394531, 0.08484848588705063, -0.25247952342033386, -0.03440835326910019, -0.11613194644451141, -0.05251665413379669, -0.14867328107357025, -0.09201397746801376, -0.1761339008808136, -0.050889186561107635, -0.21277251839637756, -0.15688735246658325, 0.11720655858516693, 0.050991371273994446, 0.06640420854091644, 0.1315193474292755, 0.06992390006780624, -0.02168947458267212, -0.2516072988510132], [-0.0753176137804985, 0.009839040227234364, -0.13067136704921722, 0.004477231297641993, 0.22313277423381805, 0.0013781033921986818, 0.04746484011411667, 0.09320256114006042, -0.08970937132835388, -0.006283054128289223, 0.14081481099128723, 0.01064254343509674, 0.013039187528192997, -0.06188585236668587, -0.034784454852342606, -0.23913893103599548, 0.04085775092244148, -0.11755363643169403, 0.023503318428993225, -0.23857522010803223, -0.1483824998140335, -0.15606479346752167, 0.04452864080667496, -0.14526498317718506, 0.020868653431534767, 0.07642517983913422, -0.03270692378282547, -0.03272182494401932, 0.15460023283958435, -0.03193558007478714, 0.013701632618904114, -0.1266060471534729], [-0.1821553260087967, 0.11962936818599701, -0.05051665008068085, -0.015978047624230385, 0.1013057753443718, -0.017834767699241638, 0.05338101089000702, 0.0431721992790699, -0.02886243350803852, 0.02348364144563675, 0.033329494297504425, 0.13580888509750366, 0.2388560175895691, -0.039904382079839706, -0.009073835797607899, -0.1182822436094284, 0.18346154689788818, 0.21899357438087463, 0.2156577706336975, 0.0816546082496643, -0.014415573328733444, -0.04742152616381645, 0.15047048032283783, -0.10994209349155426, -0.05146621912717819, -0.08144035190343857, -0.057922281324863434, 0.11483956128358841, 0.07844213396310806, -0.07861656695604324, 0.19135043025016785, 0.04490065574645996], [0.08714432269334793, 0.0068724979646503925, -0.07737147063016891, -0.0014425884000957012, 0.11322034895420074, -0.08787475526332855, -0.03313808888196945, 0.03303462266921997, -0.09952837973833084, -0.13816708326339722, 0.09197772294282913, 0.05081096664071083, -0.12349569797515869, -0.04743371531367302, 0.02875656820833683, -0.14016497135162354, -0.044925857335329056, 0.006685475818812847, -0.11706332117319107, 0.005171503871679306, -0.07435479760169983, -0.12733809649944305, -0.026874851435422897, -0.10563679039478302, -0.09480132907629013, 0.12689293920993805, 0.037286411970853806, 0.05518858879804611, -0.06782877445220947, 0.1319650262594223, 0.0241742804646492, -0.1568026840686798], [0.13490085303783417, -0.014755800366401672, -0.09791339188814163, 0.014522678218781948, 0.17968887090682983, -0.13359159231185913, -0.06323008239269257, 0.09973783791065216, -0.15106473863124847, -0.2195945680141449, 0.07025399059057236, 0.04661773517727852, -0.29140505194664, -0.07812413573265076, 0.019047055393457413, -0.31801825761795044, 0.18564867973327637, -0.03624049201607704, -0.14640802145004272, -0.17820876836776733, -0.1673450469970703, -0.1793346107006073, -0.11604240536689758, -0.10057953745126724, -0.1307450234889984, 0.1620098203420639, 0.053858451545238495, 0.06787770241498947, -0.11922865360975266, 0.09324213862419128, -0.007230896502733231, -0.21896980702877045], [0.2725065052509308, -0.20276322960853577, -0.11227691918611526, -0.06983043253421783, 0.23261646926403046, -0.024046918377280235, -0.18647967278957367, 0.09706363081932068, -0.1343783140182495, 0.023660285398364067, 0.1414022445678711, 0.15341123938560486, 0.08361827582120895, -0.0693892315030098, 0.13650812208652496, -0.19998621940612793, -0.013257455080747604, 0.33296725153923035, -0.1412482112646103, -0.27791157364845276, -0.21141083538532257, -0.14491766691207886, -0.08554965257644653, -0.22494660317897797, -0.06760593503713608, -0.033836670219898224, 0.17444021999835968, 0.04242979362607002, 0.006287196185439825, -0.014755817130208015, 0.11052437126636505, -0.0680759996175766], [0.10104357451200485, 0.20190563797950745, 0.42385345697402954, -0.12967222929000854, -0.4574347138404846, 0.6016657948493958, 0.04168568179011345, -0.15698528289794922, 0.07382647693157196, -0.43440812826156616, -0.05366784706711769, -0.025596655905246735, -0.5109170079231262, 0.09159534424543381, -0.2730885148048401, -0.39954376220703125, -1.7228362560272217, -0.40456071496009827, 0.321829617023468, 0.5465712547302246, 0.5830854773521423, 0.4569670259952545, -0.2841666042804718, 0.042672257870435715, -0.19670680165290833, -0.04450185224413872, -0.1974838525056839, 0.49237939715385437, -0.25709232687950134, 0.33873450756073, -0.1732807159423828, 1.1287707090377808], [-0.059542905539274216, -0.10530997812747955, -0.1329062432050705, -0.061379726976156235, 0.35034507513046265, 0.13885492086410522, -0.18736523389816284, 0.17841222882270813, -0.14387920498847961, -0.003403505776077509, 0.28680258989334106, 0.2587265074253082, -0.23750688135623932, -0.09162501245737076, 0.28401118516921997, -0.5381578207015991, -0.607149600982666, -0.029235094785690308, 0.19622066617012024, -0.07688052952289581, -0.03467845916748047, -0.1821959912776947, 0.2248249053955078, -0.4739117920398712, -0.01879316382110119, 0.10371265560388565, 0.13396203517913818, 0.03276551887392998, 0.19242386519908905, -0.0413784421980381, 0.04564402624964714, 0.0834348052740097], [-0.020218759775161743, -0.20383770763874054, -0.06525223702192307, 0.1400371938943863, -0.11483977735042572, 0.09864285588264465, 0.1345054805278778, 0.14846599102020264, 0.1294662356376648, 0.1198900043964386, -0.058457061648368835, -0.04325711727142334, 0.144084632396698, -0.0016896978486329317, -0.01861926168203354, 0.1541832834482193, -0.0588851235806942, 0.17524167895317078, 0.07867877185344696, 0.10442765802145004, 0.032566506415605545, 0.1186651661992073, 0.013349615968763828, 0.03266188129782677, 0.12567009031772614, -0.0919884741306305, 0.035806119441986084, 0.29925301671028137, -0.06242264062166214, -0.012305798940360546, 0.0889509990811348, 0.07490710914134979], [-0.1379278302192688, 0.09902724623680115, -0.31129831075668335, -0.0628194734454155, 0.27829137444496155, -0.30965694785118103, -0.13023453950881958, 0.24465928971767426, -0.23119057714939117, -0.22014352679252625, 0.11445218324661255, 0.02402428351342678, -0.3952309787273407, -0.21098321676254272, 0.09837012737989426, -0.20550298690795898, 0.11543763428926468, 0.26353147625923157, -0.2953772246837616, -0.15741859376430511, -0.35017094016075134, -0.22738312184810638, -0.06780625134706497, -0.20708614587783813, -0.2705557942390442, 0.4262070953845978, -0.21582508087158203, 0.24381014704704285, -0.31768980622291565, 0.2790742814540863, 0.22313547134399414, -0.7085337042808533], [-0.021437155082821846, 0.1140022724866867, -0.08354334533214569, 0.11995300650596619, -0.08016012609004974, -0.10493334382772446, 0.10512383282184601, 0.054986536502838135, 0.009769761934876442, -0.05623095482587814, -0.060471516102552414, -0.09739981591701508, -0.000458693306427449, -0.03378616273403168, -0.029942018911242485, 0.1321275532245636, -0.1456703543663025, 0.06763956695795059, -0.09708605706691742, 0.16223829984664917, -0.05115228146314621, 0.014003494754433632, -0.08770018815994263, 0.016854317858815193, 0.031600601971149445, 0.052940770983695984, -0.0006875076796859503, 0.19322748482227325, -0.16503003239631653, 0.08544700592756271, 0.03995202109217644, 0.0409138947725296], [0.2633444368839264, 0.037062764167785645, -0.08219081163406372, -0.011454680003225803, 0.09269535541534424, 0.016904316842556, 0.03179886192083359, 0.11123109608888626, -0.10142888128757477, -0.026615619659423828, 0.15930777788162231, 0.05646568164229393, 0.11001567542552948, -0.04821223393082619, 0.021815117448568344, -0.12345705926418304, -0.022594453766942024, 0.1702612042427063, 0.05104146525263786, 0.014330926351249218, -0.04287811741232872, -0.11989667266607285, 0.0315605029463768, -0.09257558733224869, -0.053963303565979004, -0.029330234974622726, 0.09650444239377975, 0.13554424047470093, 0.0024329042062163353, -0.09017777442932129, 0.13906019926071167, -0.012352176010608673], [-0.21148061752319336, -0.0006738067604601383, 0.1082405373454094, -0.08624923229217529, 0.060678012669086456, 0.022970305755734444, -0.13145333528518677, -0.0056310961954295635, -0.04567456990480423, -0.23296429216861725, 0.012782915495336056, -0.03417998179793358, -0.5124382972717285, 0.004920050501823425, -0.0007674982771277428, -0.04501550272107124, -0.2088647186756134, -0.11912139505147934, -0.08390918374061584, 0.06544812023639679, 0.04276002570986748, -0.02140328288078308, -0.04937152937054634, 0.04310452193021774, -0.0484660342335701, 0.22848214209079742, -0.03482691943645477, -0.11668986827135086, -0.4429882764816284, 0.22324444353580475, -0.019864194095134735, 0.04265473783016205], [0.23277238011360168, -0.009171376936137676, -0.019521165639162064, -0.15256105363368988, 0.069898322224617, 0.11062188446521759, -0.003910428378731012, 0.03346502408385277, -0.12466549873352051, -0.033847372978925705, 0.05399100482463837, 0.003611347870901227, 0.04942642152309418, 0.028270533308386803, -0.10219225287437439, -0.16395829617977142, -0.05122370272874832, -0.0011433172039687634, 0.04138990864157677, -0.07077185064554214, -0.04438140243291855, -0.04524921998381615, -0.16738727688789368, -0.18070021271705627, -0.15935267508029938, 0.12709110975265503, 0.014769515953958035, 0.23634737730026245, -0.046795256435871124, 0.09842588007450104, -0.021842779591679573, -0.07918144017457962], [0.14642292261123657, 0.015198860317468643, -0.13986098766326904, 0.10734225809574127, -0.06941583007574081, -0.1133851706981659, 0.05604056641459465, 0.12661033868789673, -0.02611209638416767, 0.05271513760089874, -0.022402603179216385, -0.10733490437269211, 0.17500311136245728, -0.020237522199749947, 0.009807855822145939, -0.006697373930364847, -0.0366586409509182, -0.060227036476135254, -0.20404523611068726, -0.34150242805480957, -0.16675874590873718, -0.011618145741522312, -0.12376109510660172, -0.05976779758930206, -0.01368244644254446, 0.012982974760234356, 0.03960735723376274, 0.0729101151227951, 0.0882444754242897, -0.08258621394634247, -0.004747582599520683, -0.3639613091945648], [0.0017984348814934492, 0.07314517349004745, -0.1401357650756836, 0.08194183558225632, -0.032681696116924286, 0.05330323800444603, -0.0027860673144459724, -0.04507853090763092, 0.12090173363685608, 0.14455313980579376, -0.07957199215888977, 0.11217380315065384, 0.19101682305335999, -0.014401600696146488, -0.004225372802466154, -0.01790686883032322, -0.16353057324886322, -0.05639601871371269, 0.02545420080423355, -0.13792313635349274, -0.08462189882993698, 0.07545657455921173, 0.03388584405183792, -0.18467256426811218, 0.10237427800893784, -0.1068287342786789, -0.020592408254742622, 0.17663414776325226, 0.19813397526741028, 0.11055927723646164, -0.03687236085534096, -0.07612788677215576], [0.043450988829135895, -0.052682437002658844, -0.05347070470452309, 0.0437278226017952, -0.016050372272729874, -0.037043336778879166, -0.0007539427024312317, 0.051839906722307205, -0.01397049892693758, -0.040598735213279724, 0.009293081238865852, -0.049759700894355774, -0.09546767920255661, -0.01863235794007778, 0.04625040665268898, 0.0023123889695852995, 0.08748973160982132, -0.11501365900039673, -0.04697106406092644, -0.10492508113384247, -0.04512927308678627, -0.02165137603878975, -0.03442409262061119, -0.02985234372317791, 0.011689695529639721, 0.003890596330165863, -0.010980235412716866, 0.14275717735290527, 0.004247439093887806, -0.014435507357120514, 0.0038015316240489483, -0.11945097148418427], [-0.0867985412478447, 0.23897266387939453, 0.06641239672899246, 0.03125033527612686, -0.1747673749923706, -0.09955832362174988, -0.019719278439879417, -0.11715399473905563, 0.1252068728208542, 0.042029913514852524, -0.1207059845328331, -0.11875750869512558, 0.13871534168720245, -0.021464847028255463, -0.0857047289609909, 0.09965397417545319, 0.5745769143104553, -0.26442626118659973, 0.11371897161006927, 0.14718270301818848, 9.977900481317192e-05, 0.10205607116222382, 0.09984059631824493, 0.218430757522583, 0.05724506080150604, -0.1634300947189331, -0.06439847499132156, -0.21396341919898987, 0.2830771505832672, -0.02894410490989685, 0.0006594030419364572, 0.22920016944408417], [0.013680650852620602, 0.004198800772428513, -0.06442663073539734, 0.046990133821964264, 0.014377355575561523, 0.16469185054302216, 0.12210375815629959, 0.1375868022441864, 0.018255392089486122, 0.06565985828638077, 0.12344598025083542, -0.049050696194171906, 0.16903096437454224, -0.07088904082775116, 0.052838146686553955, -0.04236054793000221, -0.6353111267089844, -0.21349358558654785, 0.2969055771827698, -0.05853946506977081, 0.10422655194997787, 0.12422467768192291, 0.006492263171821833, -0.23993021249771118, -0.04449479281902313, -0.060178861021995544, 0.19177573919296265, 0.5415061116218567, 0.17278388142585754, 0.1778627336025238, 0.011107183992862701, -0.05070391297340393], [0.051691994071006775, -0.09865108132362366, -0.09954428672790527, 0.06002835929393768, 0.04073960706591606, -0.11159779876470566, -0.00517761055380106, 0.09150266647338867, 0.03261891379952431, 0.18436609208583832, 0.01738961972296238, 2.071930794045329e-05, 0.20838870108127594, -0.04822466894984245, 0.07295358926057816, -0.01970457099378109, 0.04076836258172989, -0.10775422304868698, -0.06111227348446846, -0.16777800023555756, -0.07624500244855881, 0.04663801193237305, -0.075587198138237, -0.038459304720163345, 0.03235100954771042, -0.0841924399137497, 0.039168816059827805, 0.1317726969718933, 0.13325300812721252, -0.01981618069112301, 0.0006578218890354037, -0.26407796144485474], [-0.09075131267309189, 0.05441474914550781, -0.08103598654270172, 0.07833223789930344, -0.0479070283472538, -0.07969468086957932, 0.050096575170755386, 0.06930474936962128, -0.018674667924642563, -0.0798167884349823, 0.0005169835640117526, -0.08128002285957336, -0.06228835508227348, -0.026552943512797356, 0.026694003492593765, -0.015344188548624516, -0.2716609835624695, -0.05106932297348976, -0.05618891492486, 0.029387228190898895, -0.06157770752906799, 0.003012529108673334, 0.018493469804525375, 0.006211286876350641, -0.018448632210493088, 0.038259636610746384, -0.009929162450134754, 0.17996591329574585, -0.02093316614627838, 0.09001950174570084, 0.02870178408920765, -0.17937739193439484], [-0.17923952639102936, 0.09954530000686646, 0.014575107954442501, 0.167217418551445, -0.21988143026828766, 0.02424447238445282, 0.14462949335575104, 0.05911149084568024, 0.17413699626922607, 0.03388968110084534, -0.2109067142009735, -0.32194486260414124, 0.15412254631519318, 0.041073836386203766, -0.10403545200824738, 0.3389735221862793, -0.22007682919502258, -0.328778475522995, -0.09361306577920914, -0.0950484424829483, -0.07646513730287552, 0.14526143670082092, -0.17113403975963593, 0.2620874047279358, 0.21561621129512787, -0.2161119431257248, -0.03514927253127098, 0.12671537697315216, 0.10430716723203659, 0.00017634182586334646, -0.10472556203603745, 0.026120588183403015], [-0.07839993387460709, -0.44727465510368347, 0.07448024302721024, -0.007264487911015749, 0.0557735301554203, 0.0041121081449091434, -0.13808250427246094, -0.014426575973629951, -0.003778025507926941, -0.15084753930568695, -0.037099216133356094, 0.03456354886293411, -0.2651563584804535, 0.06308478862047195, -0.012959840707480907, -0.25612661242485046, 1.0071766376495361, 0.4262033998966217, 0.011638865806162357, -0.03212013095617294, -0.039583876729011536, -0.09110961854457855, -0.21029530465602875, 0.13970564305782318, -0.06434887647628784, 0.10493529587984085, 0.06538259238004684, -0.8670493960380554, -0.20557363331317902, 0.1367577314376831, 0.16262562572956085, -0.04123187065124512], [-0.22263310849666595, -0.025028390809893608, -0.07583034783601761, 0.20072124898433685, -0.2472371757030487, 0.100703164935112, 0.33710777759552, 0.1070832684636116, 0.22519531846046448, 0.2033974826335907, -0.27277377247810364, -0.19506241381168365, 0.11865238100290298, 0.0022395593114197254, 0.008565565571188927, 0.268766313791275, -0.1664833277463913, -0.04884309321641922, 0.16859596967697144, -0.10728318244218826, 0.05878359451889992, 0.2656061053276062, 0.08823318034410477, 0.18748821318149567, 0.2617480456829071, -0.056805822998285294, 0.057939313352108, 0.030501147732138634, 0.049226198345422745, -0.0700746476650238, -0.002760835224762559, -0.12131392955780029], [0.03901852294802666, 0.055697500705718994, -0.0767902210354805, 0.050713878124952316, -0.020119277760386467, -0.09538112580776215, -0.011889113113284111, 0.03928402438759804, -0.043635353446006775, -0.12594696879386902, 0.025573717430233955, -0.024673085659742355, -0.052972547709941864, -0.04265177994966507, 0.0598776638507843, 0.06881140172481537, -0.025768257677555084, 0.012328855693340302, -0.11048362404108047, 0.1228514015674591, -0.06567756086587906, -0.045186907052993774, -0.001101451343856752, 0.034028902649879456, -0.06977428495883942, 0.051379453390836716, 0.034176114946603775, 0.07575119286775589, -0.1375863403081894, 0.11361517757177353, 0.054820071905851364, -0.0028129222337156534], [0.0504954531788826, 0.2816210091114044, -0.03772201016545296, -0.009873409755527973, 0.1785898655653, -0.16330964863300323, -0.004485577344894409, 0.014738494530320168, -0.12037215381860733, -0.09429521858692169, 0.13057555258274078, 0.006641699932515621, -0.04378414899110794, -0.04738818109035492, 0.07296095788478851, -0.09162698686122894, -0.10301606357097626, -0.12146303802728653, -0.051559608429670334, 0.05019541084766388, -0.0900278240442276, -0.11527834087610245, -0.01010451465845108, -0.094464011490345, -0.10719321668148041, 0.11049963533878326, 0.049925047904253006, 0.04603315517306328, 0.07176319509744644, 0.06566227972507477, -0.00969433318823576, -0.10197257995605469], [0.10793732106685638, -0.08907034248113632, -0.07565435022115707, -0.07471102476119995, 0.1384829431772232, 0.023202143609523773, -0.20876459777355194, 0.0940922424197197, -0.1007986068725586, -0.07751062512397766, 0.16153638064861298, 0.12820817530155182, 0.013045110739767551, -0.01866150088608265, 0.0895688459277153, -0.22223016619682312, 0.4301576614379883, -0.047441788017749786, -0.05904669314622879, -0.18847434222698212, -0.13615088164806366, -0.17009976506233215, -0.03397335857152939, -0.047155387699604034, -0.10432098060846329, -0.051774490624666214, -0.027216944843530655, -0.22375844419002533, 0.043560728430747986, -0.05628366023302078, 0.05489494651556015, -0.10382054001092911], [-0.09214538335800171, -0.0464617945253849, -0.08536985516548157, 0.0751492902636528, -0.08962179720401764, -0.05940549448132515, 0.14150026440620422, 0.11682070791721344, 0.045635126531124115, 0.012188900262117386, -0.097580187022686, -0.021796157583594322, -0.06593098491430283, 0.005626739002764225, 0.026491504162549973, 0.07219401001930237, 0.07649167627096176, 0.28184038400650024, -0.05703401193022728, 0.21706415712833405, -0.02355915680527687, 0.03085826151072979, -0.05535896494984627, 0.13540324568748474, 0.07638204097747803, 0.04607515037059784, -0.02917974814772606, 0.13818052411079407, -0.29467588663101196, 0.012499924749135971, 0.09828999638557434, -0.04254138469696045], [0.1138525977730751, -0.03592417389154434, -0.0434381477534771, 0.0918726846575737, -0.11408872157335281, -0.02963445708155632, -0.11703559011220932, 0.028082702308893204, -0.06899675726890564, -0.004423864185810089, -0.12196601182222366, -0.19341129064559937, -0.06736957281827927, 0.02162122167646885, 0.09685084968805313, -0.04016304761171341, 0.09269657731056213, 0.01910150796175003, -0.060092974454164505, -8.08576587587595e-05, -0.079655721783638, -0.13257870078086853, -0.014754446223378181, 0.1246829479932785, 0.06345959007740021, 0.007455978076905012, -0.03603152558207512, 0.1523105800151825, -0.10849596560001373, -0.048396818339824677, 0.028236430138349533, -0.17525871098041534], [0.0038201971910893917, -0.023282300680875778, -0.06214309483766556, 0.06864415854215622, -0.12699896097183228, -0.03516334667801857, 0.08969110250473022, 0.05275733023881912, 0.0212209802120924, -0.08119278401136398, -0.08698151260614395, -0.1410648077726364, -0.09821421653032303, -0.020379193127155304, -0.06499437987804413, 0.11501650512218475, 0.008172168396413326, -0.07440619170665741, -0.006311270408332348, -0.026602547615766525, -0.0330648198723793, 0.04724327474832535, -0.06446344405412674, 0.11038084328174591, -0.04524802416563034, 0.07931998372077942, 0.02774694561958313, 0.20963893830776215, -0.06776029616594315, 0.18046970665454865, 0.03323325142264366, -0.17666387557983398], [0.17304091155529022, 0.007152225356549025, 0.01335066556930542, 0.019835034385323524, 0.04052739217877388, 0.0017939882818609476, -0.14363090693950653, 0.021224582567811012, -0.03135620057582855, 0.04449837654829025, 0.029122846201062202, -0.06050160899758339, 0.24231667816638947, 0.015562320128083229, -0.018471326678991318, -0.04811324551701546, 0.08366597443819046, 0.09169508516788483, 0.10779969394207001, -0.1519000083208084, -0.016663802787661552, -0.05104432627558708, -0.03676598146557808, 0.02974380925297737, -0.035426121205091476, 0.025337187573313713, 0.0914597138762474, -0.06357930600643158, 0.11985909938812256, -0.028818489983677864, 0.03086457960307598, -0.012231092900037766], [0.18900656700134277, -0.1168159618973732, 0.008305445313453674, -0.013212825171649456, -0.018250001594424248, 0.14453352987766266, 0.03798532858490944, 0.18814367055892944, 0.08357475697994232, 0.21147097647190094, 0.008131473325192928, -0.03832956776022911, 0.35689184069633484, 0.04734217748045921, 0.1485244482755661, 0.06719835847616196, 0.041962381452322006, -0.09814415127038956, 0.19941233098506927, -0.2935755252838135, 0.023435141891241074, 0.10362695157527924, 0.09146060794591904, 0.11071505397558212, 0.08945725858211517, -0.1628669649362564, 0.012445144355297089, -0.04681265726685524, 0.29748985171318054, -0.2722528278827667, 0.02849908545613289, -0.030495470389723778], [0.38368621468544006, 0.17609591782093048, -0.06273123621940613, -0.09460999816656113, 0.3521074652671814, -0.057852957397699356, -0.07617449760437012, 0.01256377249956131, -0.2211659550666809, -0.123539038002491, 0.28683018684387207, 0.18033859133720398, -0.08452630788087845, -0.08838590979576111, 0.1675427109003067, -0.3417355418205261, 0.568793535232544, 0.039287764579057693, -0.11010023206472397, -0.08907175064086914, -0.10754027217626572, -0.24155499041080475, -0.0033785058185458183, -0.25521016120910645, -0.23806552588939667, 0.12044766545295715, 0.1098683774471283, -0.07923197001218796, 0.08319523930549622, 0.08148651570081711, 0.0030843878630548716, -0.11225220561027527], [0.10164191573858261, 0.06887659430503845, -0.10149522125720978, -0.05185932666063309, 0.32088640332221985, -0.13875670731067657, -0.14521029591560364, 0.034500837326049805, -0.24919185042381287, -0.1462579071521759, 0.2672225832939148, 0.13579563796520233, -0.09721387922763824, -0.07786735892295837, 0.020489424467086792, -0.25708889961242676, 0.7154581546783447, -0.015552017837762833, -0.07439550757408142, -0.09460238367319107, -0.1834632009267807, -0.29250001907348633, 0.002709923777729273, -0.17970074713230133, -0.09068000316619873, 0.10313326120376587, 0.005728434771299362, -0.1852729171514511, 0.05834519863128662, 0.0020886731799691916, 0.027144310995936394, -0.19879406690597534], [-0.15130020678043365, -0.16928532719612122, 0.27507227659225464, -0.015225443057715893, -0.2232183963060379, 0.3987571895122528, 0.03533915802836418, 0.10422127693891525, 0.300105482339859, 0.3766516149044037, -0.13669319450855255, -0.08219081163406372, 0.5386159420013428, 0.2141934484243393, -0.11036236584186554, 0.1976700872182846, -0.2038465291261673, -0.15263687074184418, 0.49142715334892273, -0.3052130341529846, 0.3141919672489166, 0.37320294976234436, 0.21806196868419647, 0.14749237895011902, 0.2761468291282654, -0.306740939617157, -0.060600075870752335, -0.045759979635477066, 0.19780398905277252, -0.3142605423927307, -0.06869757920503616, 0.2558281123638153], [0.0683673843741417, 0.009958989918231964, -0.05718141794204712, -0.013481381349265575, 0.12141668051481247, -0.07442187517881393, -0.04252951592206955, 0.026136692613363266, -0.09042158722877502, -0.1115473136305809, 0.10323365032672882, 0.06781689822673798, -0.10066848993301392, -0.03916003927588463, 0.05796501785516739, -0.12684506177902222, -0.009572893381118774, 0.012275933288037777, -0.0932961031794548, -0.0034129060804843903, -0.05873754620552063, -0.10828542709350586, -0.017579732462763786, -0.10484381020069122, -0.08344393223524094, 0.09593889862298965, 0.03867181017994881, 0.01207121554762125, -0.05051054805517197, 0.08832427114248276, 0.01641673408448696, -0.13047462701797485], [0.18324120342731476, -0.003327614162117243, -0.06577002257108688, 0.00932446587830782, 0.17588871717453003, -0.036857735365629196, 0.07275843620300293, 0.041447483003139496, -0.19123224914073944, -0.15142014622688293, 0.05196638032793999, -0.011542946100234985, -0.21488243341445923, -0.06531846523284912, 0.11180224269628525, -0.20741772651672363, 0.3375627398490906, -0.00538735743612051, -0.15527111291885376, -0.1944480836391449, -0.13899362087249756, -0.10890505462884903, -0.12161462008953094, -0.13944222033023834, -0.11625950038433075, 0.036153677850961685, 0.07111124694347382, -0.03988902270793915, -0.08079160004854202, 0.09116162359714508, -0.021781515330076218, -0.09849120676517487], [0.2794417142868042, -0.29275232553482056, 0.05232523754239082, -0.16075019538402557, 0.11691368371248245, 0.16904203593730927, -0.34362542629241943, 0.10496722906827927, -0.11454562097787857, 0.07795023173093796, 0.16692447662353516, 0.15978412330150604, 0.17582423985004425, 0.049181703478097916, 0.09173020720481873, -0.15094806253910065, 0.524385929107666, -0.05314834043383598, -0.10846808552742004, -0.37297314405441284, -0.161293163895607, -0.09901902079582214, -0.14441421627998352, 0.039018843322992325, -0.10453073680400848, -0.2132560759782791, -0.03189866617321968, -0.37064769864082336, 0.1434936821460724, -0.29381436109542847, 0.04347541928291321, 0.025422988459467888], [-0.07283443957567215, -0.4033777713775635, 0.08742932230234146, 0.06507065147161484, -0.26386794447898865, 0.16002963483333588, 0.2889842391014099, 0.08179689943790436, 0.08983530849218369, -0.3025204837322235, -0.12312091141939163, -0.1904461830854416, -0.3906400203704834, -0.031452350318431854, -0.1623224914073944, 0.08501522243022919, 0.06445776671171188, 0.09759178757667542, 0.2063281536102295, 0.7980002760887146, 0.3091913163661957, 0.12449607253074646, -0.22381557524204254, 0.18741190433502197, -0.07047123461961746, 0.27302250266075134, -0.0764310285449028, 1.0319010019302368, -0.5827155709266663, 0.3845195770263672, 0.22209644317626953, 0.6148896813392639], [-0.2550622224807739, 0.1980731189250946, 0.00744673702865839, 0.0834624171257019, 0.00833570770919323, 0.05113774165511131, 0.04930775240063667, 0.11774765700101852, 0.13965710997581482, 0.25057607889175415, 0.055170610547065735, -0.017167802900075912, 0.45602288842201233, -0.05902380496263504, 0.14454518258571625, -0.06091180071234703, -0.3263532519340515, -0.37499046325683594, 0.36397668719291687, -0.40397071838378906, 0.10482977330684662, 0.24726317822933197, -0.05969274044036865, -0.164708212018013, 0.13724079728126526, -0.3757384121417999, 0.07435713708400726, -0.009702390991151333, 0.670538067817688, -0.29886120557785034, -0.14765463769435883, 0.2411849945783615], [-0.14878490567207336, -0.3616768717765808, -0.08796234428882599, 0.2532176971435547, -0.2691113352775574, 0.14817576110363007, 0.20496399700641632, 0.26438766717910767, 0.31617680191993713, 0.3093780279159546, -0.2388138324022293, -0.15945865213871002, 0.35386529564857483, 0.04800642654299736, 0.009066236205399036, 0.3571525812149048, 0.07861318439245224, 0.29341861605644226, 0.0018294970504939556, -0.2250109165906906, -0.04973771050572395, 0.22890682518482208, 0.012641606852412224, 0.1957920491695404, 0.3896437883377075, -0.2654663920402527, 0.023869136348366737, 0.2532549500465393, -0.03277670219540596, -0.25979340076446533, 0.05905069783329964, -0.06794057786464691], [-0.6295450329780579, -0.6988676190376282, 0.2573978304862976, 0.15408648550510406, -0.41841554641723633, 0.5960549712181091, 0.03331194818019867, 0.30922016501426697, 0.6757068634033203, 0.7501838207244873, -0.642659068107605, -0.3948342204093933, 0.4536363482475281, 0.20973508059978485, -0.04483119770884514, 0.6204320192337036, -0.04274430498480797, -0.4398422837257385, 0.4040951728820801, -1.4228595495224, 0.181232750415802, 0.6391180157661438, -0.42386898398399353, 0.2349071055650711, 0.9084073901176453, -0.4759003520011902, -0.052634723484516144, -0.524115800857544, 0.35904866456985474, -0.5554149746894836, -0.3804228603839874, -0.2206258624792099], [-0.010188296437263489, 0.07025600224733353, -0.08476496487855911, 0.12246829271316528, -0.10814332962036133, -0.06481312960386276, 0.035214681178331375, 0.13314233720302582, 0.04249231889843941, -0.0073245819658041, -0.05699906125664711, -0.09403771907091141, 0.06591077893972397, -0.026822516694664955, 0.07803979516029358, 0.1853557825088501, -0.0834474265575409, 0.08000625669956207, -0.11647441238164902, 0.02989361435174942, -0.09237021952867508, 0.01907816343009472, -0.07762638479471207, 0.13132213056087494, 0.06917078793048859, -0.10897792875766754, -0.030354881659150124, 0.14981426298618317, -0.15991556644439697, -0.03717881813645363, 0.06337636709213257, -0.03126900643110275], [0.22857517004013062, -0.11641999334096909, 0.02118908427655697, 0.04039708897471428, 0.01737772300839424, 0.08247793465852737, -0.12323731184005737, 0.12740707397460938, -0.04193738102912903, -0.012831912375986576, 0.0619853250682354, 0.006098849233239889, 0.1868043839931488, -0.013229114934802055, 0.20354026556015015, -0.021416014060378075, 0.13662604987621307, 0.14342732727527618, 0.09173097461462021, -0.06679897010326385, -0.03260088711977005, -0.025653719902038574, 0.04384705796837807, 0.12336215376853943, -0.009836024604737759, -0.18782083690166473, 0.022610627114772797, -0.1479692906141281, 0.03308036923408508, -0.2223978042602539, 0.07629106938838959, -0.02980046719312668], [-0.3380901515483856, -0.08171698451042175, -0.052133552730083466, 0.08238761872053146, -0.05051397159695625, -0.09022361785173416, 0.07589012384414673, 0.1255778819322586, 0.09566191583871841, -0.066802017390728, -0.15253441035747528, -0.19715356826782227, -0.3658880889415741, -0.027299154549837112, 0.007098132744431496, 0.12981045246124268, 0.14972691237926483, -0.06391557306051254, -0.09754667431116104, -0.019681215286254883, -0.0681619644165039, 0.036296743899583817, 0.05573197081685066, 0.19903938472270966, 0.0866520032286644, 0.22074905037879944, -0.030271440744400024, 0.08298534154891968, -0.31238651275634766, 0.1656661331653595, 0.038420774042606354, -0.1900792419910431], [0.28257450461387634, -0.12043962627649307, -0.013605652377009392, -0.1492524892091751, 0.23499614000320435, -0.02363819256424904, -0.04951366037130356, -0.07954064011573792, -0.07873047143220901, -0.11613087356090546, 0.12447074800729752, 0.11256558448076248, -0.01319750677794218, 0.03161277621984482, 0.014599147252738476, -0.3381248116493225, 0.6464995741844177, 0.1150854080915451, -0.00789981335401535, -0.05737984552979469, -0.04542297124862671, -0.1408323347568512, -0.1764708012342453, -0.21615242958068848, -0.2950187623500824, -0.019282178953289986, -0.042503587901592255, -0.09001371264457703, -0.08212276548147202, 0.049675215035676956, 0.03838798776268959, -0.031678665429353714], [0.18733052909374237, -0.02721414528787136, -0.06608486920595169, 0.02311011031270027, -0.024485580623149872, -0.054811302572488785, -0.11584589630365372, 0.10507943481206894, -0.03413432091474533, 0.035627543926239014, 0.012995806522667408, -0.061755210161209106, 0.19971734285354614, -0.017147602513432503, 0.17905105650424957, -0.052061449736356735, 0.19900745153427124, -0.201808899641037, -0.22391638159751892, -0.4415381848812103, -0.1313287764787674, -0.031395211815834045, -0.20015887916088104, 0.022976038977503777, -0.027117818593978882, -0.19524607062339783, 0.06392201781272888, -0.0479009635746479, 0.16767676174640656, -0.156746968626976, -0.042881328612565994, -0.342452734708786], [-0.03980988264083862, -0.046775929629802704, -0.04579111188650131, -0.005048614926636219, -0.019967155531048775, 0.19374102354049683, -0.02123335562646389, 0.09961291402578354, 0.11274532973766327, 0.1808592975139618, -0.11791517585515976, 0.018281664699316025, 0.19410887360572815, -0.001200284343212843, 0.05851203203201294, 0.009703063406050205, -0.23882068693637848, 0.09074603021144867, 0.1365703046321869, -0.1708652675151825, 0.12753480672836304, 0.09709770232439041, 0.08085774630308151, -0.08254564553499222, 0.11204177886247635, -0.07443085312843323, -0.023951783776283264, 0.1632101833820343, 0.226343035697937, -0.07415005564689636, 0.057003214955329895, -0.01615467667579651], [0.07183519750833511, -0.010803642682731152, -0.05347873643040657, 0.025381876155734062, 0.06285605579614639, -0.05568692833185196, -0.025405727326869965, 0.04806823655962944, -0.034205708652734756, -0.04056251049041748, 0.06537803262472153, 0.0006475038244388998, -0.06280992925167084, -0.01665431074798107, 0.06856144219636917, -0.05890128016471863, 0.1390843391418457, -0.08951755613088608, -0.051790062338113785, -0.12673088908195496, -0.055426955223083496, -0.05701678618788719, -0.01246066577732563, -0.10323523730039597, -0.0017477342626079917, 0.008238927461206913, 0.030507521703839302, 0.07246893644332886, 0.0248712245374918, -0.023064637556672096, -0.0009750984027050436, -0.13634951412677765], [-0.4969087541103363, -0.11560871452093124, 0.06240883469581604, 0.05593828111886978, 0.030718140304088593, -0.3059496581554413, -0.044327110052108765, -0.1149144172668457, 0.1682836264371872, 0.04371942579746246, -0.17514659464359283, 0.05317971855401993, 0.0832914263010025, 0.003076970810070634, -0.08176039159297943, -0.009862499311566353, 1.3100470304489136, 0.13281075656414032, -0.11546845734119415, 0.23392760753631592, -0.11594495177268982, -0.024181915447115898, -0.012381542474031448, 0.40485429763793945, 0.17352932691574097, -0.015593652613461018, -0.033731698989868164, -0.7620370388031006, 0.16486912965774536, -0.013121253810822964, 0.060767728835344315, 0.1744825839996338], [-0.011490670032799244, -0.042143385857343674, 0.07849936187267303, 0.10121360421180725, -0.15602914988994598, 0.3063982129096985, 0.2042088806629181, 0.15569086372852325, 0.20268668234348297, 0.2121814340353012, -0.0174089465290308, -0.15076932311058044, 0.34450453519821167, 0.0031272503547370434, 0.02449532225728035, 0.1638081818819046, -0.749661386013031, -0.23290583491325378, 0.4888622462749481, -0.20181211829185486, 0.2596152424812317, 0.2776416838169098, -0.12127953767776489, -0.06179012358188629, 0.13166770339012146, -0.18343758583068848, 0.18554458022117615, 0.5689699053764343, 0.26688137650489807, 0.017454184591770172, -0.06673023849725723, -0.015749605372548103], [0.05889387056231499, -0.13078667223453522, -0.08204260468482971, 0.08216879516839981, -0.016725623980164528, -0.045886747539043427, 0.030047528445720673, 0.07406610250473022, 0.11184550076723099, 0.1694864183664322, -0.006859799847006798, -0.0321381539106369, 0.2076951414346695, -0.04626420512795448, 0.04803844541311264, 0.03371700271964073, -0.04195466637611389, -0.17903713881969452, 0.03004576452076435, -0.2380787879228592, -0.03797042742371559, 0.12457992881536484, -0.07453610002994537, -0.10733601450920105, 0.10453550517559052, -0.16275352239608765, 0.040283944457769394, 0.18130145967006683, 0.18639545142650604, -0.08091244846582413, -0.025073783472180367, -0.2258674055337906], [-0.06898403912782669, 0.08069228380918503, -0.05098264664411545, 0.045900359749794006, -0.02299516089260578, -0.04857253655791283, 0.044036004692316055, 0.04965980350971222, -0.017291849479079247, -0.04421020671725273, -0.018942227587103844, -0.055068351328372955, -0.01828041858971119, -0.016175661236047745, 0.015571383759379387, 0.026014626026153564, -0.2471429854631424, -0.06610390543937683, -0.039936188608407974, 0.008647536858916283, -0.040417999029159546, -0.022502833977341652, 0.004064924083650112, 0.0032657766714692116, -0.01301305927336216, 0.004278062842786312, -0.00889643095433712, 0.08781284093856812, 0.010902822017669678, 0.04045255482196808, 0.008444271050393581, -0.06965524703264236], [-0.12099765986204147, -0.2322145253419876, 0.15825878083705902, 0.048180852085351944, -0.024958718568086624, 0.2813570499420166, -0.289711058139801, 0.2895067632198334, 0.11222103238105774, 0.09635808318853378, -0.12333450466394424, -0.1122468113899231, 0.3717617094516754, 0.021014172583818436, 0.3687206506729126, 0.06874746829271317, -0.2937982380390167, -0.6255128383636475, -0.08144331723451614, -0.6995683312416077, -0.12468365579843521, 0.06072571128606796, -0.46158578991889954, 0.5646747946739197, 0.39684098958969116, -0.7156155705451965, -0.09840023517608643, -0.41836845874786377, 0.16718092560768127, -0.5441508293151855, -0.17722472548484802, -0.14074064791202545], [0.2874283492565155, 0.1351807862520218, -0.006930368021130562, 0.1575487107038498, 0.09623086452484131, 0.07762564718723297, 0.1896282136440277, -0.10261833667755127, -0.18693675100803375, -0.11679504811763763, 0.0488923154771328, -0.025947516784071922, 0.19822444021701813, -0.0034733060747385025, -0.11623162776231766, -0.1743796467781067, -0.4002171456813812, -0.025584682822227478, -0.0073780189268291, 0.31886687874794006, -0.11220599710941315, 0.029863059520721436, 0.16214245557785034, -0.20914813876152039, -0.21701563894748688, 0.07642697542905807, 0.07095160335302353, 0.3856160342693329, 0.1152714267373085, -0.04123852774500847, 0.1396373063325882, -0.06263666599988937], [0.1137804239988327, -0.36897507309913635, 0.025175468996167183, 0.08837351202964783, -0.25909337401390076, 0.15501055121421814, -0.057343944907188416, 0.10359945893287659, -0.018272876739501953, -0.252244770526886, -0.11058995127677917, -0.13326992094516754, 0.08834107220172882, 0.1531081348657608, -0.09458005428314209, -0.13318724930286407, -0.3845231533050537, -0.010504530742764473, 0.23229087889194489, -0.036734096705913544, 0.09856300055980682, -0.05990365147590637, 0.6347152590751648, -0.22416934370994568, -0.007296609226614237, -0.021534530445933342, 0.21811093389987946, 0.2586492896080017, 0.16186033189296722, -0.018245305866003036, 0.11524505168199539, 0.1753034144639969], [0.029686681926250458, 0.10023824870586395, -0.056482408195734024, -0.07590176910161972, -0.2248520851135254, 0.1255941241979599, -0.12599775195121765, -0.11164472997188568, -0.0016842747572809458, -0.04144907742738724, -0.02182324044406414, -0.03662111982703209, -0.01112150028347969, 0.0033074512612074614, 0.027871133759617805, 0.13353000581264496, -0.17168019711971283, 0.13357418775558472, 0.029614193364977837, 0.21815602481365204, 0.11584967374801636, 0.1980341076850891, -0.029466649517416954, 0.15430818498134613, -0.10024972259998322, -0.03529983013868332, 0.08809933811426163, -0.042404018342494965, 0.06856920570135117, 0.10394074022769928, 0.1274949610233307, 0.1492132991552353], [-0.01832733117043972, -0.394192636013031, 0.08678727596998215, 0.013229211792349815, -0.18451064825057983, 0.009630109183490276, 0.06274246424436569, 0.1292848140001297, 0.08872824162244797, 0.03438572213053703, -0.06867185980081558, -0.1197768896818161, 0.1348143368959427, -0.01550315972417593, -0.1265680491924286, 0.04830671101808548, -0.03487437218427658, -0.028100354596972466, -0.0417439229786396, -0.042813435196876526, 0.024271788075566292, 0.09204614907503128, -0.1264040470123291, -0.1987387090921402, -0.13418243825435638, 0.0026079292874783278, 0.10277538746595383, -0.032368004322052, 0.08547766506671906, 0.1385335922241211, -0.08467909693717957, -0.14789068698883057], [0.07516889274120331, 0.20257264375686646, -0.08194879442453384, -0.03856465220451355, 0.033804163336753845, -0.22345398366451263, -0.20495320856571198, -0.05083126574754715, -0.297183096408844, -0.21359895169734955, 0.057976607233285904, -0.16156034171581268, -0.20039965212345123, -0.09551137685775757, 0.25211000442504883, -0.17317047715187073, 0.2222711145877838, -0.08232209086418152, -0.06315869837999344, -0.1265585869550705, -0.016084646806120872, -0.2789674699306488, 0.013619987294077873, 0.041792575269937515, 0.02932605892419815, 0.043090324848890305, 0.029270023107528687, -0.17237769067287445, -0.04745759069919586, -0.18949748575687408, -0.015150157734751701, 0.01286153681576252], [-0.10080152750015259, -0.26484614610671997, -0.16522136330604553, -0.0928652361035347, -0.011931830085814, -0.2501735985279083, 0.04555845260620117, 0.10552924871444702, -0.1054483950138092, 0.034328706562519073, 0.140624538064003, -0.0360182523727417, 0.1393788605928421, -0.10606290400028229, 0.04731065034866333, 0.17280323803424835, 0.14217057824134827, 0.15868346393108368, 0.06689958274364471, 0.033478718250989914, 0.041363898664712906, 0.0874297097325325, -0.21176911890506744, -0.024644184857606888, 0.2167304903268814, 0.03375004604458809, -0.0008277863962575793, -0.0004676497483160347, -0.10981130599975586, -0.1313614845275879, 0.227316752076149, 0.08560328185558319], [0.00030656001763418317, -0.04877084121108055, 0.043979957699775696, -0.16859504580497742, -0.16729705035686493, 0.21000458300113678, -0.09378127753734589, 0.0738605335354805, 0.15059497952461243, 0.20837174355983734, 0.02537783421576023, 0.10870137810707092, 0.2439623475074768, 0.05921371281147003, -0.14354579150676727, 0.2702901363372803, -0.04705115780234337, 0.017056964337825775, 0.10588142275810242, -0.07001782208681107, 0.14554165303707123, 0.19262641668319702, -0.022577818483114243, -0.09206970781087875, -0.11952784657478333, 0.033586565405130386, 0.0748019739985466, 0.013738533481955528, -0.045649636536836624, 0.023525232449173927, 0.0008792186854407191, 0.06337085366249084], [-0.07649460434913635, -0.16745372116565704, 0.04191173240542412, -0.06251481175422668, -0.048109155148267746, -0.18744014203548431, -0.05201704427599907, -0.22550752758979797, -0.12142874300479889, 0.10827440023422241, -0.22845691442489624, 0.025316640734672546, -0.12576931715011597, 0.02061392180621624, -0.0026283280458301306, -0.08080954849720001, -0.014154420234262943, 0.05581038445234299, 0.0468163788318634, -0.1925303339958191, 0.03465539589524269, 0.12280086427927017, 0.020783806219697, 0.007957532070577145, 0.17496708035469055, -0.05847949534654617, -0.10628575086593628, -0.1912337988615036, -0.06866524368524551, 0.1007114127278328, 0.006342025473713875, -0.2162548452615738], [-0.14254194498062134, -0.2523082196712494, -0.105557881295681, 0.08308317512273788, -0.021784238517284393, 0.08159603923559189, 0.06923829019069672, -0.0004358264559414238, -0.0297479759901762, 0.15846970677375793, -0.15466488897800446, 0.010946410708129406, 0.16426965594291687, -0.0041132098995149136, -0.15389293432235718, 0.28273460268974304, 0.07588373869657516, 0.03364812582731247, 0.14321930706501007, -0.08537284284830093, 0.09953272342681885, 0.05639510601758957, -0.19953639805316925, 0.05489237606525421, 0.21400362253189087, -0.01246038731187582, -0.12097494304180145, -0.12024922668933868, 0.027436619624495506, 0.16796205937862396, -0.030374303460121155, 0.06380977481603622], [-0.02785014919936657, -0.06998789310455322, 0.1190928965806961, 0.04487910866737366, 0.08273032307624817, -0.030449284240603447, 0.203053817152977, 0.05730658769607544, 0.05123082175850868, 0.020121118053793907, -0.20588603615760803, 0.009554403834044933, 0.3224318027496338, -0.03417778015136719, 0.07571342587471008, 0.053368616849184036, 0.13598549365997314, 0.11316045373678207, 0.05320865660905838, -0.1888333410024643, 0.19896897673606873, 0.06276736408472061, 0.045063748955726624, -0.14815817773342133, 0.13370606303215027, -0.10938436537981033, -0.13422903418540955, -0.013067112304270267, -0.04636117070913315, -0.13073627650737762, -0.013724736869335175, 0.044961754232645035], [-0.14147616922855377, 0.26598304510116577, -0.16798613965511322, -0.025090111419558525, 0.02126995287835598, -0.06977926194667816, 0.07052690535783768, 0.10771829634904861, -0.19019053876399994, -0.19967707991600037, -0.03882529214024544, 0.09985285252332687, -0.18357937037944794, -0.11737645417451859, 0.16731031239032745, -0.22605961561203003, -0.006284775212407112, -0.04920428246259689, -0.03103853575885296, 0.21219667792320251, -0.039962854236364365, -0.27306681871414185, 0.13305781781673431, -0.08478249609470367, -0.09897013008594513, -0.04840580374002457, 0.06642177700996399, 0.1220131441950798, -0.08815211802721024, 0.0899919793009758, -0.09464510530233383, 0.07370587438344955], [-0.07764619588851929, 0.1337682604789734, -0.09267950803041458, -0.03311004862189293, 0.20548078417778015, -0.2999199628829956, 0.036604177206754684, 0.048604466021060944, -0.0744888037443161, -0.18211032450199127, -0.042745620012283325, -0.13149599730968475, 0.09967371076345444, -0.08697579801082611, 0.09035640209913254, -0.04900228977203369, 0.28186798095703125, 0.1719033271074295, -0.21456129848957062, 0.10073491185903549, -0.14177343249320984, -0.18450389802455902, -0.034874655306339264, -0.06793307512998581, -0.08659503608942032, 0.05249984189867973, -0.1838866025209427, -0.18605421483516693, 0.007777435705065727, -0.1841975897550583, 0.013457661494612694, 0.041072648018598557], [0.20312254130840302, -0.016291357576847076, -0.09307912737131119, -0.02388155087828636, -0.08781608194112778, 0.03619369864463806, 0.2432790994644165, -0.015998253598809242, 0.21437305212020874, 0.2147369086742401, 0.005381196271628141, -0.06000899150967598, 0.21527719497680664, -0.03372017666697502, -0.028160758316516876, 0.1835380345582962, -0.19520968198776245, -0.047895658761262894, 0.15290866792201996, 0.16907741129398346, 0.05246604233980179, 0.1558758169412613, -0.06833329051733017, -0.02834266796708107, -0.08282835781574249, -0.03355157747864723, 0.1897524893283844, 0.296222060918808, 0.12390486150979996, 0.11882519721984863, -0.10213154554367065, -0.010794534347951412], [0.04750204458832741, -0.10140079259872437, -0.15908662974834442, 0.16058391332626343, -0.13145337998867035, 0.16124005615711212, 0.1286843866109848, -0.06496228277683258, 0.15749423205852509, -0.023461641743779182, -0.07938139885663986, 0.14327313005924225, 0.09379632771015167, -0.16583795845508575, -0.055329062044620514, 0.1572723239660263, -0.07852645963430405, 0.11766387522220612, 0.005474370904266834, 0.1758054941892624, -0.09485264122486115, 0.04778917133808136, -0.1459713578224182, 0.041331954300403595, -0.06298796832561493, 0.10014961659908295, -0.08536915481090546, 0.04120250418782234, -0.04518542438745499, 0.050549864768981934, 0.08706974238157272, -0.01224144734442234], [-0.10378040373325348, 0.15696841478347778, -0.10563749074935913, 0.1162918210029602, 0.24558410048484802, -0.2980405390262604, 0.047911860048770905, 0.053627125918865204, -0.25647106766700745, -0.11011218279600143, 0.006082956213504076, 0.05133211985230446, -0.08466343581676483, 0.07873812317848206, -0.090188167989254, -0.4060930907726288, 0.05586179718375206, -0.0534624420106411, -0.307472825050354, -0.17819809913635254, -0.1523510366678238, -0.05368733033537865, 0.14981967210769653, -0.24614176154136658, 0.12378796935081482, 0.06214342266321182, 0.062485162168741226, -0.042004797607660294, 0.033574920147657394, 0.12485143542289734, -0.0947585254907608, -0.19740325212478638], [0.12610365450382233, 0.15831197798252106, 0.128023162484169, 0.10600335150957108, -0.3545699417591095, -0.008625885471701622, 0.17171962559223175, 0.016082294285297394, 0.28444981575012207, 0.1116713434457779, 0.03641810268163681, -0.04038237780332565, 0.2337464690208435, 0.14789411425590515, 0.03788909688591957, 0.361580491065979, -0.04677668213844299, 0.1557009071111679, -0.04742687568068504, -0.1318282186985016, -0.0007181816035881639, 0.2368765026330948, 0.13246473670005798, 0.18990886211395264, 0.1441338062286377, -0.08460656553506851, -0.06369524449110031, 0.03949163481593132, 0.02591821551322937, -0.09566739946603775, 0.020419998094439507, 0.14836548268795013], [0.24363595247268677, 0.8907766938209534, 0.05899345129728317, 0.2645941972732544, -0.36815202236175537, -0.4178687036037445, -0.22978486120700836, -0.32008519768714905, 0.036381401121616364, 0.18419195711612701, -0.41742393374443054, -0.41101527214050293, 0.25579264760017395, 0.19234025478363037, -0.23755435645580292, -0.011120137758553028, 0.9590398669242859, -0.6120851635932922, -0.29732459783554077, -0.19423885643482208, -0.21706610918045044, -0.03241158276796341, 0.7538709044456482, 0.20657165348529816, 0.1639825999736786, -0.13824930787086487, -0.18074387311935425, 0.03777449578046799, 0.17952921986579895, -0.2783583104610443, -0.12035638839006424, -0.04187443479895592], [0.11159700900316238, 0.35131150484085083, 0.021652400493621826, 0.03161044046282768, 0.14706724882125854, -0.28697919845581055, -0.15844124555587769, -0.1434810757637024, -0.05330416560173035, 0.07766054570674896, 0.0928608775138855, 0.02622881904244423, 0.15608127415180206, 0.0726170763373375, -0.09241459518671036, -0.009810872375965118, 0.5866174101829529, -0.2730521261692047, -0.27003908157348633, 0.2220432013273239, -0.05492155998945236, -0.029963210225105286, -0.12336558103561401, -0.004593831952661276, 0.01395339798182249, -0.10819991677999496, -0.2537550926208496, -0.5165606737136841, -0.317166268825531, -0.14888112246990204, -0.0030135265551507473, 0.1702141910791397], [-0.12293724715709686, -0.0025911591947078705, 0.12473040074110031, 0.07783930003643036, -0.030833261087536812, 0.14032284915447235, -0.0429229773581028, -0.05889713391661644, 0.09982942044734955, 0.03016955778002739, 0.08891712874174118, 0.07823441177606583, 0.03303635120391846, -0.10780424624681473, 0.13499370217323303, 0.06270910054445267, 0.07589367777109146, 0.18618488311767578, 0.26646554470062256, 0.1571817845106125, 0.12776575982570648, 0.08906648308038712, -0.0908501148223877, 0.15613792836666107, -0.05002683028578758, 0.05727351829409599, -0.028310904279351234, 0.21372443437576294, -0.04380970820784569, 0.15345315635204315, 0.19865918159484863, 0.28581324219703674], [0.13258424401283264, 0.18132922053337097, 0.12203939259052277, -0.11359622329473495, 0.11153660714626312, -0.12494990974664688, -0.125757098197937, -0.03089791350066662, -0.19914434850215912, -0.279462993144989, 0.15039321780204773, -0.004739907570183277, -0.23856613039970398, 0.07054178416728973, 0.021504059433937073, -0.05279625207185745, 0.08450185507535934, -0.14894258975982666, 0.0322483591735363, 0.47381147742271423, 0.0042173289693892, -0.2158624529838562, 0.12413080781698227, -0.04203259199857712, -0.10261750221252441, -0.029599880799651146, -0.1636546403169632, -0.09348823130130768, -0.08285138756036758, 0.048718955367803574, -0.041539501398801804, 0.30372974276542664], [-0.002933667041361332, 0.11586269736289978, -0.004291647579520941, 0.022024737671017647, 0.005690003279596567, 0.08108188956975937, 0.10860814899206161, 0.14328178763389587, 0.21729224920272827, 0.011107548139989376, -0.016688916832208633, 0.14086443185806274, -0.02856357954442501, -0.08480891585350037, -0.06560757011175156, 0.12470513582229614, -0.016954826191067696, 0.07479950040578842, 0.10574942827224731, 0.24894802272319794, -0.08744169771671295, 0.10268019884824753, -0.020010365173220634, -0.034736134111881256, -0.1742360144853592, -0.21073375642299652, -0.16377286612987518, 0.10536742955446243, -0.17245572805404663, 0.16263605654239655, 0.08758977800607681, 0.13439680635929108], [-0.2614631652832031, -0.1680157482624054, 0.04119335114955902, -0.1419750154018402, -0.18431642651557922, 0.11675456166267395, 0.01037290133535862, -0.1438848078250885, 0.21360205113887787, 0.1578672230243683, -0.2610665559768677, -0.07138694077730179, 0.13113076984882355, -0.022810224443674088, -0.15540528297424316, 0.1721138060092926, -0.19150309264659882, -0.0017139996634796262, 0.23051458597183228, -0.061300162225961685, 0.13392965495586395, 0.02306852489709854, -0.015694279223680496, -0.060576193034648895, 0.2101493775844574, 0.1117045134305954, 0.09485824406147003, -0.06649336218833923, 0.017638999968767166, -0.1094265729188919, -0.10534772276878357, 0.07394636422395706], [0.234268456697464, -0.6443578004837036, -0.0820898488163948, 0.0367932952940464, -0.3274955749511719, 0.20511367917060852, 0.20758585631847382, 0.0001999080996029079, 0.13493023812770844, 0.19246447086334229, -0.04282265156507492, 0.0536525622010231, -0.06466001272201538, 0.060090262442827225, 0.03862428665161133, -0.08262777328491211, -0.17441555857658386, 0.3496050238609314, 0.2596082091331482, 0.2723101079463959, 0.17359478771686554, 0.23634178936481476, -0.1154596135020256, -0.21244628727436066, -0.07596754282712936, 0.012449964880943298, 0.16357263922691345, 0.13526982069015503, -0.009282716549932957, -0.022242460399866104, -0.05148010328412056, -0.0351082906126976], [-0.22027257084846497, 0.33660000562667847, 0.13299578428268433, 0.006222336553037167, -0.2427959442138672, -0.10555963963270187, 0.03199927881360054, -0.22296790778636932, 0.2333952933549881, 0.17520736157894135, -0.27499791979789734, -0.22557266056537628, 0.09336577355861664, -0.0017616053810343146, -0.2236538529396057, 0.36760494112968445, 0.29190006852149963, -0.05314202234148979, 0.025295035913586617, 0.02174690179526806, -0.08208583295345306, 0.2525189518928528, 0.25482016801834106, 0.12077243626117706, 0.1407814621925354, -0.0212737824767828, -0.023905329406261444, 0.09713907539844513, 0.07407508790493011, 0.010880225338041782, -0.24630576372146606, -0.04006318747997284], [-0.09043001383543015, -0.17723935842514038, 0.04579900950193405, 0.08068272471427917, 0.05799642577767372, 0.07496977597475052, -0.015797652304172516, -0.10726308822631836, 0.23957718908786774, 0.0492844395339489, -0.14069333672523499, 0.08267305791378021, 0.27012208104133606, 0.02859073132276535, 0.006149711087346077, 0.24596501886844635, 0.19600430130958557, 0.0012673723977059126, -0.10255289822816849, -0.24197891354560852, -0.08539930731058121, 0.1705891489982605, -0.18913479149341583, -0.13543708622455597, -0.04349774494767189, 0.011429748497903347, 0.07628821581602097, -0.2338891178369522, -0.02547752484679222, -0.17286911606788635, -0.11867186427116394, -0.08233700692653656], [0.0901264101266861, -0.056178975850343704, 0.02929074876010418, -0.07928511500358582, 0.11370941251516342, -0.037784453481435776, 0.02274143695831299, 0.06418365985155106, -0.07756413519382477, -0.010136695578694344, -0.0036348598077893257, 0.16539211571216583, -0.24938590824604034, 0.09099069982767105, 0.044088270515203476, -0.11164858937263489, 0.3382163941860199, 0.10736427456140518, -0.1778554916381836, -0.1681421399116516, 0.11190402507781982, -0.24511609971523285, -0.025799322873353958, 0.004615661688148975, -0.16250884532928467, -0.01753830909729004, 0.06703384965658188, -0.23148120939731598, -0.20256225764751434, 0.0690523087978363, -0.07992148399353027, 0.12299569696187973], [0.06801065802574158, -0.3562333881855011, 0.16589684784412384, -0.04723973944783211, 0.34386253356933594, 0.31345292925834656, -0.1282181739807129, 0.06224142387509346, -0.10065498948097229, 0.07987691462039948, 0.22314462065696716, 0.19707216322422028, 0.08719271421432495, 0.017161374911665916, -0.07986865937709808, -0.1518765091896057, 0.03891982510685921, 0.29619482159614563, 0.17172569036483765, -0.06479856371879578, 0.12132232636213303, -0.18666502833366394, 0.07006070017814636, -0.22543978691101074, -0.03860777989029884, -0.1263556182384491, -0.13684865832328796, -0.17576642334461212, 0.05787603184580803, -0.16923008859157562, 0.004192014690488577, -0.06562025099992752], [-0.013982451520860195, -0.8231063485145569, -0.047157131135463715, -0.1494448482990265, -0.04359474778175354, 0.24179822206497192, 0.08080911636352539, 0.09348482638597488, 0.16560280323028564, -0.048619117587804794, 0.09970111399888992, 0.03196160867810249, -0.13404937088489532, 0.10598083585500717, -0.16421209275722504, 0.10238341987133026, -0.4713791310787201, 0.6104463934898376, 0.30232980847358704, 0.16265958547592163, 0.16972140967845917, 0.1733502447605133, -0.24795204401016235, -0.005879479926079512, 0.06656774878501892, -0.10175815969705582, -0.038415372371673584, 0.061790864914655685, -0.23887084424495697, -0.042092546820640564, 0.051138363778591156, 0.003342660842463374], [0.08732756972312927, -0.07414256036281586, -0.0035952175967395306, -0.13696986436843872, -0.049211692065000534, 0.06430594623088837, -0.04805378615856171, 0.16424618661403656, -0.05278753489255905, 0.13470880687236786, 0.19665996730327606, 0.21274156868457794, 0.27382004261016846, -0.04480455815792084, 0.22185499966144562, -0.16564787924289703, -0.4082968533039093, -0.14806324243545532, 0.2768981456756592, 0.04287674278020859, -0.06310020387172699, 0.0446300283074379, 0.2054593563079834, -0.17966189980506897, -0.17824514210224152, 0.06011412292718887, 0.2243492305278778, 0.09356757998466492, 0.2706770896911621, -0.06304421275854111, 0.029954124242067337, 0.09957541525363922], [-0.19558517634868622, 0.07007232308387756, 0.16682976484298706, -0.0704951211810112, 0.016113469377160072, 0.16594496369361877, -0.1563826948404312, 0.11721519380807877, -0.07506360858678818, -0.1456509679555893, 0.14492680132389069, 0.03736497461795807, -0.2741208076477051, 0.08459725975990295, 0.03871540352702141, 0.03179046884179115, 0.05668497085571289, 0.1806713342666626, -0.024675186723470688, 0.02495146542787552, 0.005149002652615309, 0.03395329415798187, 0.2524012625217438, 0.19501742720603943, 0.1656433790922165, 0.05333266779780388, -0.10491716116666794, 0.09418395161628723, -0.1776018887758255, 0.040693867951631546, 0.08740568161010742, 0.22318129241466522], [-0.10555431246757507, 0.0491805225610733, 0.13393332064151764, 0.010720159858465195, 0.039980627596378326, 0.05452628433704376, 0.04423937201499939, -0.18055613338947296, 0.10260915756225586, 0.0029407176189124584, -0.08072938024997711, -0.19251930713653564, 1.1237847502343357e-05, 0.012553133070468903, 0.006961936596781015, -0.22389128804206848, 0.21369941532611847, -0.07131916284561157, 0.014884975738823414, 0.1081165000796318, -0.14725039899349213, 0.03879773989319801, -0.08562321960926056, 0.07934696972370148, 0.05885943025350571, 0.028815487399697304, 0.11610240489244461, -0.07201417535543442, -0.10979105532169342, -0.10159957408905029, -0.20192748308181763, -0.03484105318784714], [0.1436985582113266, 0.19706664979457855, 0.2645198106765747, -0.16305282711982727, -0.06287731230258942, 0.21096689999103546, 0.06744639575481415, -0.22719712555408478, -0.07932515442371368, 0.024466197937726974, 0.05723154544830322, 0.20524801313877106, 0.019827047362923622, 0.06912945955991745, -0.13991864025592804, -0.15912117063999176, -0.2188870906829834, 0.3306514620780945, 0.22156479954719543, 0.5676501989364624, 0.3281354308128357, 0.1774216741323471, 0.28817683458328247, -0.0965200737118721, -0.07328630238771439, 0.05488456040620804, -0.07881014049053192, -0.07412847876548767, 0.0556485615670681, -0.045086100697517395, -0.09091116487979889, 0.5221428871154785], [-0.06601129472255707, -0.5178213119506836, -0.030566364526748657, 0.146588534116745, -0.1644546389579773, -0.04900652915239334, 0.08070506155490875, 0.04212050139904022, 0.101945661008358, -0.030146140605211258, -0.17570924758911133, -0.13159020245075226, -0.09816167503595352, 0.07158265262842178, -0.10572134703397751, -0.07252185791730881, 0.9086898565292358, 0.4380280673503876, 0.07458095252513885, 0.017270280048251152, -0.054797813296318054, 0.04358863830566406, -0.08972635120153427, 0.2042611986398697, 2.523098373785615e-05, 0.1436329185962677, -0.07604633271694183, -0.36594194173812866, -0.18117335438728333, 0.1714644581079483, 0.23639538884162903, -0.09710867702960968], [0.0799495279788971, -0.11916546523571014, 0.18054014444351196, -0.10378112643957138, -0.2100115716457367, 0.38397789001464844, 0.010004037991166115, -0.0876283347606659, 0.08089850097894669, 0.016349615529179573, -0.07446180284023285, 0.08701128512620926, -0.13269837200641632, 0.08018999546766281, -0.14485663175582886, -0.008132248185575008, -0.7910987138748169, -0.20061936974525452, 0.22820858657360077, 0.11858992278575897, 0.27349281311035156, 0.2624633312225342, -0.0038310103118419647, 0.04464971646666527, 0.011268704198300838, -0.029083676636219025, -0.04877106100320816, -0.1987866759300232, -0.09775464981794357, 0.035452794283628464, -0.08098402619361877, 0.2720543146133423], [0.0571608804166317, 0.08108746260404587, -0.09666932374238968, 0.05335698649287224, -0.021299639716744423, -0.17003527283668518, 0.055136751383543015, 0.034396618604660034, -0.06091306731104851, -0.1475268453359604, 0.017479179427027702, -0.04501771181821823, -0.09135788679122925, -0.0587419718503952, 0.04089115560054779, 0.06816595047712326, 0.04850826784968376, 0.012109803035855293, -0.1557854264974594, 0.14139805734157562, -0.08217855542898178, -0.060236379504203796, -0.0014122769935056567, -0.004111744929105043, -0.07669366896152496, 0.12092167884111404, 0.036628831177949905, 0.08622176200151443, -0.15716652572155, 0.1504608690738678, 0.06034029275178909, 0.0013833658304065466], [0.01915479451417923, 0.23140256106853485, -0.043934859335422516, -0.025499511510133743, 0.10452569276094437, -0.16851860284805298, 0.04884587600827217, 0.0008111810893751681, -0.08874304592609406, -0.049033910036087036, 0.10614775121212006, -0.011717765592038631, -0.008732493966817856, -0.04487563669681549, 0.024997925385832787, -0.008364447392523289, 0.004982881247997284, -0.1361798346042633, -0.019244270399212837, 0.039307430386543274, -0.06384966522455215, -0.08832842856645584, -0.05451822280883789, -0.07247240096330643, -0.10872501879930496, 0.07390612363815308, -0.0011714776046574116, 0.13614316284656525, 0.0663851872086525, 0.10793890804052353, -0.004345886874943972, -0.03833032771945], [0.14834800362586975, 0.0732870101928711, -0.14820902049541473, -0.11715010553598404, 0.2346109002828598, -0.052420057356357574, -0.1651112288236618, 0.0769166424870491, -0.21247120201587677, -0.1116553395986557, 0.26955580711364746, 0.21932509541511536, -0.009632814675569534, -0.09400912374258041, 0.12929388880729675, -0.28252527117729187, 0.17025499045848846, 0.0009109965758398175, -0.018716122955083847, -0.154386505484581, -0.14745639264583588, -0.21060369908809662, 0.0169647429138422, -0.31022605299949646, -0.1487736850976944, 0.08966690301895142, 0.09980706125497818, -0.09097036719322205, 0.08874962478876114, 0.037041399627923965, 0.06470686197280884, -0.06923011690378189], [-0.07161205261945724, -0.17560245096683502, -0.04204918444156647, 0.04214603081345558, 0.006785484496504068, 0.043507881462574005, 0.10017737746238708, 0.11626168340444565, 0.03543201461434364, -0.02335963025689125, 0.005408154800534248, 0.11345857381820679, 0.01522232498973608, 0.021636078134179115, -0.07080890983343124, 0.03679357096552849, -0.6204935312271118, 0.3568882644176483, 0.05875666067004204, 0.31115251779556274, 0.07006441801786423, 0.0777965635061264, -0.06751063466072083, 0.010430456139147282, 0.04981869086623192, 0.10284122079610825, 0.0014974543591961265, 0.10622350126504898, -0.27450254559516907, 0.015555343590676785, 0.07485007494688034, 0.13327351212501526], [0.1257791817188263, 0.051787134259939194, -0.06446167826652527, 0.12647150456905365, -0.11061428487300873, 0.02088438905775547, -0.0946100652217865, -0.03721923008561134, -0.07224821299314499, -0.06231832876801491, -0.049900997430086136, -0.05807795748114586, -0.051724836230278015, 0.04687490686774254, 0.11934983730316162, -0.15995103120803833, 0.08342184126377106, 0.002848254283890128, -0.10915578156709671, 0.12576693296432495, -0.08067100495100021, -0.11309745162725449, 0.021872812882065773, 0.12669111788272858, 0.110071562230587, -0.045000918209552765, -0.05610175058245659, 0.19848601520061493, -0.10476244986057281, -0.10361792147159576, 0.0391598716378212, -0.1376856416463852], [-0.047095995396375656, 0.030767519026994705, -0.014834664762020111, 0.09788317233324051, -0.24398964643478394, 0.0014263057382777333, 0.09848197549581528, 0.02598053589463234, 0.09092120826244354, -0.03255648538470268, -0.16318348050117493, -0.19739721715450287, -0.052094921469688416, -0.000767656834796071, -0.04954218491911888, 0.2394637018442154, 0.10792732238769531, -0.18295221030712128, 0.0409524142742157, -0.008661997504532337, 0.019417213276028633, 0.14437991380691528, -0.05250177159905434, 0.23349900543689728, 0.016714736819267273, 0.05249122157692909, -0.013983828015625477, 0.17006070911884308, -0.05227162688970566, 0.16638725996017456, 0.02249087393283844, -0.10238372534513474], [0.17457111179828644, 0.1511019915342331, -0.09371117502450943, 0.10259711742401123, 0.05656498298048973, -0.07611478865146637, -0.035817984491586685, 0.041351061314344406, -0.06671398878097534, -0.04064756631851196, -0.0018728254362940788, -0.10888509452342987, 0.06616702675819397, -0.010841754265129566, -0.07839079946279526, -0.09705688059329987, -0.0434441938996315, 0.07337787002325058, 0.07771511375904083, -0.014041038230061531, -0.061640940606594086, -0.11497274786233902, 0.009477091953158379, -0.04621601849794388, -0.027645619586110115, 0.003031257539987564, 0.12182336300611496, 0.11446972191333771, -0.017973309382796288, 0.08504823595285416, 0.06664220988750458, -0.19830957055091858], [0.1394355744123459, -0.11564445495605469, -0.04997546225786209, 0.08007652312517166, -0.040926896035671234, 0.11274559050798416, 0.06522444635629654, 0.17087160050868988, 0.0895821824669838, 0.13098984956741333, 0.04479442909359932, -0.02141036093235016, 0.24020083248615265, 0.01986171118915081, 0.042251430451869965, 0.051270920783281326, 0.029834896326065063, 0.04938248544931412, 0.23223960399627686, -0.21098120510578156, 0.0349569097161293, 0.048247937113046646, 0.11094772815704346, -0.0013978062197566032, 0.05687928572297096, -0.04662475362420082, 0.04010232537984848, 0.14678800106048584, 0.13663211464881897, -0.131088525056839, 0.044583581387996674, -0.0038376273587346077], [0.24697551131248474, 0.17937888205051422, -0.08378022164106369, 0.013933053240180016, 0.2161504328250885, -0.06074072793126106, -0.006534351967275143, 0.042582105845212936, -0.1367846429347992, -0.08319991827011108, 0.1837712675333023, 0.029811354354023933, 0.012670233845710754, -0.0735052153468132, 0.030552279204130173, -0.14781011641025543, 0.6637440919876099, -0.10755620896816254, -0.06455191969871521, -0.16802023351192474, -0.11218959838151932, -0.21462175250053406, -0.040725354105234146, -0.2748725712299347, -0.17422668635845184, 0.03428800404071808, 0.014909239485859871, -0.0127456896007061, 0.13309213519096375, -0.009548287838697433, -0.016172008588910103, -0.2301964908838272], [-0.01892668753862381, -0.024937741458415985, -0.10536561906337738, -0.12318715453147888, 0.2682422399520874, 0.03296928480267525, -0.007205784320831299, 0.07171281427145004, -0.14073726534843445, -0.018658366054296494, 0.21751433610916138, 0.08971965312957764, -0.047493286430835724, -0.06451117247343063, 0.0716777965426445, -0.2369447499513626, 0.43327727913856506, -0.08136739581823349, 0.06555472314357758, -0.26008573174476624, -0.10630855709314346, -0.2460322380065918, 0.039906345307826996, -0.2613641619682312, -0.035002827644348145, 0.11746794730424881, 0.007701341062784195, -0.15154480934143066, 0.18702317774295807, -0.06440594792366028, -0.003114537801593542, -0.16727937757968903], [-0.09926263242959976, -0.15661092102527618, -0.0027137156575918198, 0.04912055283784866, -0.023917153477668762, 0.32172882556915283, -0.04693533852696419, 0.28480079770088196, 0.17363381385803223, 0.26526984572410583, 0.0011688077356666327, 0.07324230670928955, 0.412367045879364, 0.06454049050807953, 0.14926031231880188, 0.10534299165010452, -0.29363828897476196, 0.06213981285691261, 0.31148433685302734, -0.2931668758392334, 0.12409505248069763, 0.18687546253204346, 0.0684903934597969, -0.12907567620277405, 0.15562623739242554, -0.0983678549528122, 0.047347910702228546, 0.3516358435153961, 0.20830446481704712, -0.10932756215333939, -0.019589141011238098, -0.10672017931938171], [0.079116091132164, 0.021116338670253754, -0.0761919841170311, 0.000852300669066608, 0.10737887769937515, -0.11105676740407944, -0.032557062804698944, 0.02929052524268627, -0.09884081035852432, -0.14114120602607727, 0.1012989804148674, 0.056408047676086426, -0.1193736344575882, -0.044860340654850006, 0.019223207607865334, -0.14819517731666565, -0.021121881902217865, 0.004512076731771231, -0.12304815649986267, 0.0065849279053509235, -0.07727420330047607, -0.13109764456748962, -0.013457381166517735, -0.10428571701049805, -0.09670526534318924, 0.11402219533920288, 0.03811151906847954, 0.04315058887004852, -0.07163110375404358, 0.12332514673471451, 0.02388836443424225, -0.14097827672958374], [0.15663406252861023, -0.00692202802747488, -0.12077682465314865, 0.0596100389957428, 0.12619303166866302, -0.15491192042827606, -0.023554762825369835, 0.08577781170606613, -0.14198344945907593, -0.13381627202033997, 0.0700489729642868, 0.05538388714194298, -0.18365482985973358, -0.08424270153045654, 0.012728062458336353, -0.2675391435623169, 0.4649812877178192, -0.030579261481761932, -0.1291702687740326, -0.18746571242809296, -0.12776793539524078, -0.12791316211223602, -0.11766362190246582, -0.0867433175444603, -0.0955565944314003, 0.05693862959742546, 0.06486015766859055, -0.008233163505792618, -0.12506216764450073, 0.10716766864061356, -0.026977308094501495, -0.22514434158802032], [0.3129625916481018, -0.054750680923461914, -0.036127831786870956, -0.22042377293109894, 0.16811156272888184, 0.067295603454113, -0.10575897246599197, 0.07565215229988098, -0.11733512580394745, -0.036609724164009094, 0.16059933602809906, 0.18355700373649597, 0.03911420330405235, 0.0009284537518396974, 0.11324650794267654, -0.24106767773628235, 0.26933491230010986, -0.0025682561099529266, 0.022324128076434135, -0.23219610750675201, -0.11642172932624817, -0.16048096120357513, -0.08308104425668716, -0.10933616012334824, -0.1336561143398285, -0.052705761045217514, -0.007967154495418072, -0.06529150903224945, 0.1378471553325653, -0.08483639359474182, 0.07814323902130127, -0.016919206827878952], [0.6264117360115051, 0.451067179441452, 0.37381860613822937, -0.2209542989730835, -0.17227056622505188, 0.4760875701904297, -0.09852103143930435, -0.15773242712020874, -0.4853934347629547, -1.1715978384017944, 0.38452228903770447, 0.16950258612632751, -0.9731502532958984, 0.04446067661046982, 0.08501014858484268, -0.8614027500152588, -2.109492063522339, -0.2624794840812683, 0.1191607192158699, 1.0955562591552734, 0.5715886950492859, -0.02507326379418373, -0.2814171016216278, -0.38746199011802673, -0.9312388300895691, 0.42632433772087097, -0.2149648517370224, 1.087367057800293, -0.5958077907562256, 0.9295592308044434, -0.1505795419216156, 0.92087322473526], [-0.020984075963497162, 0.1442977786064148, -0.03638801723718643, -0.06548044830560684, 0.24457032978534698, 0.10336907207965851, -0.16782261431217194, 0.04799593985080719, -0.06606084853410721, 0.11658371239900589, 0.23896917700767517, 0.19675353169441223, 0.002089753746986389, -0.0734642893075943, 0.20893912017345428, -0.46400734782218933, -0.3609308898448944, -0.3123767375946045, 0.30873507261276245, -0.13861948251724243, 0.03472400829195976, -0.045129939913749695, 0.20390886068344116, -0.40812933444976807, 0.034043531864881516, -0.10310110449790955, 0.11012812703847885, -0.07266020029783249, 0.3973650634288788, -0.1724822223186493, -0.04448884353041649, 0.27126047015190125], [0.05124780535697937, -0.23966389894485474, -0.09958624839782715, 0.11445064097642899, -0.0577777698636055, 0.06869255006313324, 0.1292191594839096, 0.1921362429857254, 0.08579893410205841, 0.0414571538567543, 0.009284548461437225, 0.04961617663502693, 0.0634957104921341, -0.017732497304677963, -0.003839419689029455, 0.06965646147727966, -0.2426702082157135, 0.39328575134277344, 0.0034908251836895943, 0.11554823070764542, -0.018751371651887894, 0.05271534621715546, -0.06325604766607285, -0.0678449273109436, 0.07470408082008362, 0.05192837491631508, 0.08882950991392136, 0.3767164945602417, -0.1697096973657608, 0.05333906412124634, 0.12671062350273132, 0.032177504152059555], [-0.20307724177837372, -0.39080825448036194, 0.02311038225889206, 0.08626444637775421, -0.1406978815793991, 0.21101732552051544, 0.07036508619785309, 0.224554181098938, 0.2890530526638031, 0.328473299741745, -0.2413633018732071, -0.18704351782798767, 0.19963401556015015, -0.007459646090865135, 0.11598864197731018, 0.2600207030773163, -0.32212623953819275, -0.3635155260562897, 0.19309592247009277, -0.7437524199485779, 0.031062044203281403, 0.29524895548820496, -0.4245406985282898, 0.06549358367919922, 0.35688188672065735, -0.1862533539533615, 0.020232319831848145, 0.10816136002540588, 0.24477213621139526, -0.21293078362941742, -0.15459910035133362, -0.3034396767616272], [-0.0032017964404076338, -0.021149778738617897, -0.09681499749422073, 0.10038959980010986, -0.038715340197086334, -0.1022430881857872, 0.11178948730230331, 0.06500832736492157, -0.01347213052213192, -0.08911273628473282, -0.020252173766493797, -0.04582773894071579, -0.05429606884717941, -0.04800301417708397, -0.04120543971657753, 0.08430100232362747, -0.14673221111297607, 0.1855378895998001, -0.10048086941242218, 0.16770941019058228, -0.062170930206775665, -0.022720064967870712, -0.17579084634780884, -0.0244199950248003, 0.004740304779261351, 0.11348819732666016, 0.01947065070271492, 0.1697952151298523, -0.20464850962162018, 0.1135244369506836, 0.05868520960211754, 0.04095951467752457], [0.22885236144065857, -0.0184601042419672, -0.0657266303896904, 0.013500082306563854, 0.06988333910703659, -0.02625194378197193, 0.011677606031298637, 0.10966386646032333, -0.11079251021146774, -0.039170220494270325, 0.12722952663898468, 0.13941389322280884, 0.08077842742204666, -0.03797943890094757, 0.17193934321403503, -0.10273084789514542, -0.013305941596627235, 0.2656320035457611, 0.06998102366924286, 0.02497531846165657, -0.011486159637570381, -0.14163950085639954, 0.047314297407865524, -0.1308840662240982, -0.05962911993265152, -0.0320420041680336, 0.0529206357896328, 0.08456676453351974, -0.04422193020582199, 0.0029907149728387594, 0.12044057250022888, 0.041181981563568115], [-0.14476943016052246, 0.1293271780014038, 0.12306052446365356, -0.08640442043542862, 0.03646209090948105, -0.01060076430439949, -0.11441570520401001, -0.0312652662396431, -0.07072525471448898, -0.2601742446422577, 0.027690473943948746, -0.07381032407283783, -0.4380711317062378, -0.00869858730584383, 0.01964304782450199, -0.045276444405317307, -0.2084290087223053, -0.2647155523300171, -0.08082610368728638, 0.06148369610309601, 0.057284820824861526, -0.006093022413551807, -0.1037052646279335, 0.04364397004246712, -0.10190262645483017, 0.18606886267662048, -0.051759231835603714, -0.1266467124223709, -0.3358246684074402, 0.22986896336078644, -0.046178292483091354, 0.04945060610771179], [0.3061893582344055, -0.14946267008781433, -0.03332769498229027, -0.12756960093975067, 0.18514606356620789, -0.010827101767063141, -0.05222177132964134, -0.056648362427949905, 0.014324916526675224, -0.0246809683740139, 0.11046019196510315, 0.09653941541910172, 0.07333382219076157, 0.05515032261610031, -0.10313590615987778, -0.22102797031402588, 1.0577917098999023, 0.2955165505409241, 0.10531412065029144, -0.09976741671562195, 0.03090371936559677, -0.0894332155585289, -0.13573439419269562, -0.21678851544857025, -0.18861176073551178, 0.002745716366916895, -0.01371430978178978, -0.0909644290804863, -0.017620135098695755, 0.18473048508167267, 0.03620227053761482, -0.004940534010529518], [0.278054416179657, 0.08399111777544022, -0.0797630026936531, -0.019661566242575645, -0.0336652472615242, -0.1525045484304428, 0.008617844432592392, -0.015723679214715958, -0.10759609937667847, -0.059052880853414536, 0.08315172791481018, -0.09703248739242554, 0.04033082723617554, -0.033677298575639725, -0.06123022735118866, -0.08906549960374832, 0.222313791513443, -0.06066196411848068, -0.12304261326789856, -0.04579908773303032, -0.06556851416826248, -0.08333639055490494, -0.08288653939962387, -0.02212526835501194, -0.1290891170501709, 0.09781856089830399, 0.12115959078073502, 0.08032257854938507, 0.032025840133428574, 0.09332603961229324, 0.03471711650490761, -0.12422321736812592], [-0.023502642288804054, 0.00346091715618968, -0.04209265857934952, -0.026897884905338287, -0.05512939393520355, 0.037084635347127914, 0.0058142985217273235, -0.07202673703432083, 0.14187876880168915, 0.19830447435379028, 0.061770979315042496, 0.038420870900154114, 0.11999021470546722, 0.003838667180389166, 0.05674775317311287, 0.0859059989452362, 0.060555946081876755, 0.06206085905432701, 0.1339331418275833, -0.21421833336353302, -0.024617725983262062, -0.0353250689804554, -0.06838051229715347, -0.018150970339775085, 0.1339685320854187, 0.030595606192946434, 0.013390072621405125, 0.18159176409244537, 0.19184455275535583, -0.07761789858341217, 0.05211809277534485, 0.0010588255245238543], [0.06658361107110977, -0.0050835381262004375, -0.048008110374212265, 0.04198584333062172, -0.019982891157269478, -0.05592650920152664, -0.0023385239765048027, 0.039104584604501724, -0.016000518575310707, -0.04136507958173752, 0.018581487238407135, -0.05933557078242302, -0.07819551974534988, -0.017146294936537743, 0.03144332021474838, -0.019337985664606094, 0.2199789583683014, -0.1397949755191803, -0.045220375061035156, -0.09927389025688171, -0.04341227933764458, -0.024502046406269073, -0.030990060418844223, -0.028135912492871284, -0.0030464862938970327, -0.00725951325148344, -0.018344953656196594, 0.1229243203997612, 0.019506383687257767, -0.01690742000937462, -0.00208376906812191, -0.09989074617624283], [-0.20168764889240265, -0.005739172920584679, 0.08826075494289398, 0.006772324908524752, -0.04729864373803139, -0.10299486666917801, -0.06369942426681519, -0.126773864030838, 0.09347552061080933, 0.039527613669633865, -0.08118649572134018, -0.06089223176240921, 0.07003968954086304, -0.00044395949225872755, -0.006576064974069595, -0.026964804157614708, 1.0052810907363892, -0.10596777498722076, 0.12053054571151733, 0.2350565791130066, -0.0049806805327534676, 0.0666973665356636, -0.02041729912161827, 0.3818858563899994, 0.02282554842531681, -0.08913452178239822, -0.0520130880177021, -0.4116237759590149, 0.192917138338089, -0.05766995623707771, 0.06742147356271744, 0.34767597913742065], [-0.05140763893723488, -0.13621217012405396, -0.04779813811182976, 0.07933337986469269, -0.06634974479675293, 0.23454296588897705, 0.19358211755752563, 0.22914357483386993, 0.12688131630420685, 0.1978807896375656, 0.03694303333759308, -0.09422583878040314, 0.19189517199993134, -0.05120685696601868, -0.0053940522484481335, -0.003087902907282114, -0.5411829352378845, -0.1532842516899109, 0.35742461681365967, -0.23931314051151276, 0.12319458276033401, 0.18676528334617615, -0.05183864012360573, -0.0819200724363327, 0.11791772395372391, -0.1164487823843956, 0.1998610496520996, 0.5472637414932251, 0.17285512387752533, 0.057863712310791016, -0.024037150666117668, -0.05328228697180748], [0.02883574180305004, -0.10654398053884506, -0.0998157411813736, 0.06441811472177505, 0.004766714759171009, -0.11263349652290344, -0.034696318209171295, 0.09672179073095322, 0.04812321439385414, 0.12211798131465912, 0.014033298008143902, -0.008207243867218494, 0.267548531293869, -0.04787475988268852, -0.006277349311858416, 0.014406017027795315, 0.08064679056406021, -0.10116229206323624, -0.07256326079368591, -0.23490303754806519, -0.09403544664382935, 0.0008666524081490934, -0.06840226799249649, -0.03211837261915207, 0.062209151685237885, -0.008562379516661167, 0.037119168788194656, 0.07710302621126175, 0.15935474634170532, -0.0372188426554203, 0.0013356570852920413, -0.24448271095752716], [-0.08852899074554443, 0.08540522307157516, -0.07465144991874695, 0.07929925620555878, -0.04777570068836212, -0.07159435749053955, 0.04647132381796837, 0.05958082154393196, -0.026809612289071083, -0.0850045457482338, -0.024697931483387947, -0.0847238153219223, -0.058620285242795944, -0.024733232334256172, -0.0012607405660673976, -0.014965437352657318, -0.20099876821041107, -0.04959765821695328, -0.06284508109092712, 0.03284492716193199, -0.059897635132074356, -0.03775941953063011, 0.016840221360325813, 0.009769601747393608, -0.020318081602454185, 0.03876824676990509, -0.011133561842143536, 0.15832319855690002, -0.02000402845442295, 0.07096569240093231, 0.02720777876675129, -0.09005704522132874], [-0.020457427948713303, -0.007305201608687639, -0.0263595562428236, 0.08245854079723358, -0.09924811124801636, -0.011761613190174103, -0.02020711451768875, -0.02133135311305523, 0.02546759508550167, -0.08172444999217987, -0.14823336899280548, -0.1833837926387787, 0.08446437865495682, -0.03711066395044327, 0.08670646697282791, 0.021362802013754845, -0.06827431172132492, -0.16391906142234802, -0.20947882533073425, -0.026469631120562553, -0.1277029663324356, 0.05041828379034996, -0.280305951833725, 0.1092601865530014, 0.07141166180372238, 0.040720563381910324, 0.09132049977779388, 0.19133707880973816, -0.08943382650613785, 0.014242857694625854, -0.033110473304986954, -0.18601498007774353]], "lstm.bias_ih_l0": [-0.041827306151390076, 0.4801214933395386, -0.12040555477142334, -0.22664089500904083, -0.003560234559699893, 0.05887419730424881, 0.03873872011899948, -0.21122699975967407, -0.03817819803953171, -0.2266288846731186, -0.09232652187347412, -0.06675300002098083, -0.22834666073322296, -0.2594159245491028, -0.03623296692967415, -0.01647571288049221, 0.9873872399330139, -0.05322509631514549, -0.10158849507570267, -0.5461523532867432, -0.029405469074845314, 0.08226095885038376, 0.11447728425264359, -0.05112777277827263, -0.211406871676445, -0.14890390634536743, -0.16481316089630127, 0.013523249886929989, -0.02594246156513691, -0.18277326226234436, -0.17916414141654968, 0.08911043405532837, 0.14922821521759033, -0.054271552711725235, -0.13520653545856476, -0.09667140990495682, 0.06334907561540604, -0.1513904184103012, -0.14156340062618256, -0.05202542617917061, 0.03705452382564545, 0.00470241392031312, 0.011228143237531185, -0.12055735290050507, 0.34496960043907166, -0.10926710069179535, -0.10946541279554367, 0.4618757367134094, -0.013140440918505192, -0.024216003715991974, 0.12220682948827744, 0.4719560742378235, 0.09291613847017288, 0.045363929122686386, -0.10414732247591019, -0.06665890663862228, 0.10698357969522476, -0.06415476649999619, -0.17775839567184448, 0.06130718067288399, 0.04606790095567703, -0.09026043117046356, -0.24265381693840027, 0.8335729241371155, 0.09282532334327698, -0.1403106302022934, 0.09936262667179108, -0.10218897461891174, -0.09345759451389313, 0.006198965944349766, -0.10284408181905746, -0.021743372082710266, 0.08070722222328186, -0.04463931918144226, -0.022569112479686737, 0.052956901490688324, 0.08722589910030365, -0.03989968076348305, 0.04112737998366356, 0.05329000949859619, 0.11033977568149567, -0.021359335631132126, -0.03689432889223099, -0.019486628472805023, 0.02886175736784935, -0.06732139736413956, -0.12066420167684555, 0.059610433876514435, -0.0014164606109261513, -0.08216588199138641, 0.06924282014369965, -0.05570033937692642, -0.1724526584148407, -0.047198496758937836, -0.14875969290733337, 0.17037177085876465, -0.0333818644285202, 0.5213433504104614, -0.10922473669052124, -0.06261056661605835, 0.12074068933725357, 0.08839767426252365, -0.19764791429042816, 0.05887575447559357, -0.03881147503852844, 0.07843302190303802, 0.05617552250623703, 0.06623494625091553, 0.18681617081165314, -0.19767607748508453, -0.058823682367801666, 0.23043163120746613, 0.6205548644065857, 0.1059768795967102, -0.07704122364521027, 0.08840406686067581, -0.09222294390201569, 0.014498012140393257, 0.00880267471075058, -0.05794481560587883, -0.18292267620563507, -0.02303045243024826, -0.12050113081932068, 0.15689504146575928, -0.1920808106660843, -0.002690051682293415, -0.1760522872209549, 0.012282798998057842], "lstm.bias_hh_l0": [0.014527818188071251, 0.484256774187088, -0.23717930912971497, -0.3426964581012726, -0.18454696238040924, 0.09038077294826508, -0.18305909633636475, 0.05598476529121399, -0.1252870410680771, 0.02740861475467682, -0.11058250814676285, 0.021472463384270668, -0.10678797960281372, -0.260512113571167, -0.012151895090937614, 0.04321899637579918, 0.9282980561256409, -0.049243148416280746, -0.13907282054424286, -0.6056653261184692, -0.1030469760298729, 0.04696047306060791, 0.09575466811656952, -0.1807909905910492, -0.0031003677286207676, -0.12609300017356873, -0.2097785472869873, 0.11315757036209106, -0.23940806090831757, -0.12339141219854355, -0.14065422117710114, -0.15976421535015106, 0.13723814487457275, -0.1203344389796257, -0.17824727296829224, 0.026190197095274925, 0.21611163020133972, 0.0080839479342103, 0.07044146955013275, -0.2507401704788208, 0.18057991564273834, 0.22386221587657928, -0.06218250095844269, 0.12776623666286469, 0.29922640323638916, -0.16986800730228424, 0.07288578152656555, 0.23216812312602997, -0.011453274637460709, -0.026668008416891098, 0.22683686017990112, 0.5599895119667053, 0.10205034166574478, 0.13950620591640472, -0.26603803038597107, -0.03942237049341202, 0.24747076630592346, 0.12186559289693832, -0.14045973122119904, 0.0395904965698719, -0.0655035600066185, -0.10010810196399689, -0.11614178866147995, 0.8381027579307556, 0.026315998286008835, 0.0398138053715229, 0.02951427921652794, 0.02922743558883667, 0.06390123814344406, 0.1455768197774887, -0.13030023872852325, -0.05491040274500847, -0.12090453505516052, -0.05645452439785004, 0.032396573573350906, -0.001826477237045765, -0.11787457019090652, 0.11395757645368576, 0.031824734061956406, -0.09955822676420212, -0.06792870163917542, -0.09877477586269379, 0.06295660883188248, 0.06900162994861603, 0.07128608226776123, 0.05990881472826004, 0.042796242982149124, 0.08465496450662613, -0.01515942346304655, -0.0778987780213356, -0.07270026206970215, -0.10280387103557587, 0.09784017503261566, -0.041840530931949615, 0.07314661890268326, 0.010463855229318142, -0.2671659290790558, 0.3420424461364746, -0.09420072287321091, -0.07760884612798691, -0.0779118463397026, 0.05746215581893921, 0.07751912623643875, -0.20413833856582642, -0.16693444550037384, -0.12421710044145584, -0.12946486473083496, 0.03514512628316879, 0.1979953944683075, -0.245758518576622, -0.06765120476484299, 0.14190874993801117, 0.693475067615509, 0.08951524645090103, -0.1408495008945465, 0.035040225833654404, -0.06279625743627548, 0.08100142329931259, 0.13786618411540985, -0.21698306500911713, -0.0034433056134730577, -0.06477533280849457, -0.2094717025756836, -0.02298101596534252, -0.012790643610060215, -0.2195955365896225, -0.13740460574626923, 0.04815700277686119], "dense.weight": [[0.011268630623817444, 0.10136507451534271, 0.05652810260653496, -0.024929970502853394, -0.055275749415159225, -0.1959933489561081, -0.0748385563492775, -0.13708554208278656, -0.16127809882164001, -0.04368274286389351, -0.03696867823600769, -0.22072526812553406, 0.14238384366035461, -0.010319098830223083, -0.12109201401472092, 0.11712974309921265, 0.7664205431938171, -0.20878000557422638, 0.012475826777517796, -0.025752298533916473, 0.035634227097034454, -0.05136742442846298, -0.23360249400138855, 0.2469063699245453, -0.11855820566415787, -0.21517853438854218, -0.1478443294763565, -0.10417280346155167, 0.24240580201148987, -0.022486232221126556, -0.09325827658176422, 0.09708312898874283]], "dense.bias": [-0.019591467455029488]}